module.exports = {
            network:{"levels":[{"inputs":[255,255,255,255,255,255,255,255,255,255,255,255,255,255,255,255,255,255,255,255,255,255,255,255,255,255,255,255,255,255,255,255,255,255,255,255,255,255,255,255,255,255,255,255,255,255,222,227,255,255,255,227,190,255,255,255,255,255,255,255,255,255,255,255,255,255,255,254,237,247,180,6,0,184,255,255,255,255,255,255,255,255,255,255,255,255,255,255,255,255,255,165,92,242,255,255,255,255,255,255,255,255,255,255,255,255,255,255,255,255,255,255,255,255,255,255,255,255,255,255,216,255,255,255,255,255,255,255,255,255,255,255,255,255,255,255,255,255,255,255,96,254,255,255,255,255,255,255,255,255,255,255,255,255,255,255,255,255,255,255,0,64,132,136,136,201,255,255,255,255,255,255,255,255,255,255,255,255,255,251,0,0,0,0,0,0,75,255,255,255,255,235,170,170,179,128,39,34,34,8,0,0,0,0,0,0,50,255,255,255,255,205,0,0,0,0,0,0,0,0,0,0,0,0,0,0,50,255,255,255,255,205,0,0,0,0,0,0,0,0,0,0,0,0,0,0,50,255,255,255,255,205,0,0,0,0,0,0,0,0,0,0,0,0,0,0,50,255,255,255,255,205,0,0,0,0,0,0,0,0,0,0,0,0,0,0,50,255,255,255,255,205,0,0,0,0,0,0,0,0,0,0,0,0,0,0,53,255,255,255,255,205,0,0,0,0,0,0,0,0,0,0,0,0,0,0,159,255,255,255,255,204,0,0,0,0,0,0,0,0,0,0,16,170,245,208,250,255,255,255,255,163,0,0,0,0,0,0,0,0,0,0,152,255,255,255,255,255,255,255,237,34,0,0,0,0,0,0,0,0,0,0,208,255,255,255,255,255,255,255,123,0,0,0,0,0,0,0,0,0],"outputs":[-1,1,-1,1,1,1,-1,1,1,-1,-1,-1,1,-1,-1,1,1,-1,1,1,1,1,1,-1,-1,-1,-1,1,-1,1,1,1,-1,1,-1,1,1,-1,1,1,-1,-1,1,-1,1,1,-1,-1,1,1,1,-1,-1,-1,1,-1,-1,-1,-1,1,-1,-1,-1,-1,1,1,1,-1,1,1,-1,1,-1,-1,-1,1,1,-1,-1,1,1,-1,-1,1,-1,1,-1,-1,-1,-1,-1,1,1,1,-1,1,1,-1,1,1],"biases":[0.6461267101349051,-0.9052650484463515,0.21828327767332348,0.36902405600114496,0.091016588014966,-0.3466318080280927,0.4849246144426556,-0.5091084142405016,0.8758185425817923,0.3107057665439128,-0.42112814857005904,0.8700988930607805,-0.3324225284130435,-0.28900670846194704,-0.3927060460773779,-0.8069705506170833,0.5075345836803123,-0.3538446706789026,-0.01465767591222392,-0.46101880069868134,0.45592890124859997,-0.9088429147047968,0.2790129693188807,-0.7421853855403248,-0.938313217112714,0.8551197487665921,-0.025906937285074177,-0.3552505453808565,0.691969776413873,0.5434760910447853,-0.17416211916656177,0.561008989717198,-0.006931593874818633,-0.35965473537926756,0.8536528771592327,0.6402259209411487,-1.0007298425083537,-0.40720421472988433,-0.16348769150539386,0.1573407871366278,0.8109851975987528,-0.5677149218037018,-0.8108802718529802,-0.29492485746178143,0.11860992463511318,-0.4118766510793948,-0.22812249216039457,-0.6283215231769891,0.08068960190934805,-0.9742117729952421,0.5086671169963585,0.23169964055954603,0.14804092032597793,0.41489354340185275,-0.5539507695559398,0.42874080388985075,0.5607030903816193,-0.9914384809802222,-0.15824212780959326,0.1692100708159355,0.24057791109023116,-0.9520330866382098,0.900474378584953,-0.8810644611684134,-0.6496773543197947,-0.12188181912444658,0.047434602793959404,0.26825146214012935,0.6356745108127224,-0.4641949303631579,0.6473165468205021,-0.4730611160212025,0.6540874968811891,-0.8067594209074399,0.7856887332564617,0.19734783558090926,-0.6155461245040988,-0.5525098518313978,0.6896542683146315,0.7742860477641204,-0.4918083362656596,-0.2340351157972794,-0.6999124783404632,-0.451718761729497,-0.6486751237510874,-0.253473666293556,-0.3869892772674302,-0.436788672110752,-0.20019240174567032,0.32088885856490146,-0.8764889072229872,0.7375577190340085,0.9334708963280594,-0.8776005957280684,-0.5823668918281847,-0.09120599475013325,-0.29482229832187373,0.4203264621654688,-0.1702020846110376,-0.42027830991995335],"weights":[[-12.672948044004833,-1.3561349392928024,-65.92884891163953,36.586203330530516,-1.559891564587333,-18.309088915450946,-17.7711844681367,0.4934250689877829,13.335563017988413,11.401423655071975,-2.8083599897311617,-14.559892358388787,92.5678965055878,4.832006901685937,-24.89983122148222,37.227400086291006,30.745431796487996,-2.4008762746286347,24.383897750692118,52.19854403091984,0.4499067453013902,11.081659033713798,34.65725346033141,-7.610580968565569,-10.21896631746561,-2.7182272631931337,6.555777060804498,35.04210350558233,-5.362915915479499,10.867961887984025,18.007823013407165,33.446056076747034,4.50884093645331,4.895563945164765,-37.52958990647196,1.2128803492236442,48.57867592085659,-34.06521322613417,11.713809685501232,7.228565329857224,-28.600166129444965,-67.50985877310218,65.55178330326694,-1.3508156535159648,-1.5656819777718256,-3.021334192443795,-17.123355793069205,-14.973392776840086,23.626101708013675,64.79794348421893,19.42282754341019,-48.011024648756894,32.30512124499757,-59.58567506112689,30.71894220954683,-23.386353294488856,-15.645466339388843,-37.19245490720803,-30.881458051709558,-17.55061190851374,-33.23147254244008,-5.435205248828529,-68.80275176591093,-51.889719068949546,7.746925223618598,51.247344799375426,10.60987199095425,0.7025626884852559,23.370556952510643,29.45328731977884,-14.73174936154984,15.694815733917993,-8.629703654971289,-29.954888042092506,-16.677802987796778,38.98624181921213,38.723357145841696,-37.22432487340691,-14.629938660496938,36.48759473604359,15.100734982390144,-45.57304339288273,-57.03135778707471,39.88165910238188,-33.997722251166806,15.560924606514568,-25.582040051541107,-0.252226945663045,-10.990809036643086,-51.45578495442102,-24.43265316986712,4.141930018737732,9.24324023297366,10.551284734515962,-11.695839857644406,1.7359764854867257,30.99980225799113,-4.526307211718439,15.785382912186368,0.7726054299842271],[-10.419225935086903,-1.9690554080119202,-68.43296398763057,24.591443534401066,0.01796359945859804,-18.184276704977464,-14.41803208028156,-1.983830492564351,20.300305518794598,11.806094714514801,-1.0540203659150496,-13.61001777416339,84.1277367902313,4.927078021382674,-16.277792646493953,39.67415483501518,34.34672747176446,-0.09784173325748921,24.00972898608717,52.05692908230564,3.5597294754069706,9.92339366120959,26.28197217671099,-4.110600890575023,-3.6743288745063007,-2.7466447378146004,7.2106367841793935,32.36073497642805,-2.76354857756249,12.980298677588298,17.358237336813826,30.463026084297386,1.4517120857691015,3.122064719448952,-35.888344509183675,0.8236978390262721,51.64461235836687,-30.865187664135586,12.353067895218993,7.389103916728401,-33.88180814755158,-73.78818361030396,52.69042155659679,-1.6033177286416576,-0.39218718980392653,1.8142760733658103,-15.916171377684512,-24.816328450229324,24.206491915174567,60.06944785986385,19.657539593370608,-49.776612222003315,18.059537376742,-57.05951633908848,29.581450825993667,-22.85156408934922,-17.558645449089266,-32.063602251219784,-28.917929403231934,-5.353853011365559,-33.35851272557408,-5.953875463706576,-59.06829978768238,-58.55855386826239,7.620147649978831,44.43004561448036,8.397574264499783,-10.766009344991168,21.73057993729854,30.000453372331982,-5.644830175094021,15.17282790771886,-6.6217345637731935,-32.48710791714562,-13.94600374630048,32.03277238756239,41.342308938657865,-36.45351913952222,-16.697529812905245,39.438139915270305,7.4724087309307645,-41.53833729001379,-57.40199411170174,39.364147997067896,-36.46654191114002,3.616833921282767,-26.93094934097201,-0.8469551292011963,-11.171168111213046,-49.06205439348568,-28.841516516362677,9.374079846260281,10.321528010632083,12.687494588757275,-8.584627286581753,3.766618892287049,29.863030275089553,-4.474705042753221,18.882091848347496,1.1537660250965405],[-9.621049744697205,-0.9356057976753201,-70.1556812272748,18.6818872701835,0.980486350574395,-15.268826355829136,-10.685158554176018,-1.5267699824473988,26.617721911883958,3.8671799723282763,-1.2527457256361418,-11.913094066367607,75.68939125302117,6.269364022755088,-13.489312848032046,35.49857675380657,33.028176829436596,-1.3314381268858726,26.700871703266284,46.34926689081831,6.168196134185456,7.107211144130473,22.355842172476493,-2.975413279804859,-1.132091090560602,-4.441631249275184,5.902498535922256,30.147558211615774,-3.003270741419014,13.327223765927787,17.00903790772075,29.062482900872425,0.6750738931141014,1.4782530346782479,-30.9242329239743,1.0478287656087246,48.647539803270035,-29.76496145537312,10.7681643038529,7.7659042404040965,-34.39381110681545,-74.26183416585825,43.241113629904596,-0.6832664911028304,0.4115838057057423,12.274663161559838,-16.076824713382592,-28.423772123610508,22.119060476384785,52.64922200167296,18.932072343833127,-54.124038491185956,8.321101920888477,-52.535086458871724,27.605848874122717,-22.63761232878196,-16.05288351266485,-28.493522688641562,-31.046479669539323,2.4131276653392932,-29.43623810203925,-7.115718678604319,-51.09626622623609,-66.10478271915976,8.537911224953035,40.05898090257735,6.99253798436579,-16.156625634312213,23.272433386614484,27.505815175436997,0.9716296035532727,15.93714471924689,-9.345591745090278,-32.8649135573464,-14.450788077957181,24.8898952243422,38.509722647489255,-38.451350702383095,-16.183468893451884,40.16742905716253,3.7543741725566697,-36.64386458361898,-59.96123513619566,33.48668388322875,-32.23697692348978,-3.743364644236654,-28.108537796971508,-1.6888524692815134,-9.601038859927753,-46.59742626427554,-26.820112707648757,9.699807388872536,10.846646702581326,11.527709742273851,-7.8156511238443445,5.844271946918121,23.522585781550642,-4.615623562229123,17.391266085227596,-0.6998778155676265],[-6.85889797908343,0.5964275896817942,-72.19363405817441,7.071866617906235,1.7510961369394542,-7.51915947233791,-5.3348856739332104,-0.11246542397217993,37.62166237145237,-5.549684125759627,-2.2413895585677763,-13.165279076941728,59.35115127398782,6.239826597027983,-5.970485966331745,29.928129364288385,30.78626225638855,-0.804367464503342,27.71598230730116,36.40147261296514,14.3516371891662,3.847198895656889,15.698610092945207,1.162177594355046,3.8166739303196673,-3.730657315693662,1.757116542421526,27.30041547284021,-6.054147677723387,14.130432349126306,16.23616889090017,26.759644819404524,0.9053393843176125,0.1579564971905669,-24.111141350190767,2.585976632876508,41.15175816955345,-31.481146979461368,11.338484370745485,8.56425531729474,-39.292630683894195,-75.46662497165545,27.89031684098834,-2.448634370397668,2.310177465082434,25.98762878168064,-16.609960703679214,-35.30728669323448,18.90388233597445,39.04313627767366,17.454270465106276,-59.88289992131222,-6.220761418306619,-46.0357387289452,25.69157218740956,-26.36098701528805,-17.34099680219679,-22.16520226155543,-34.25333460978838,17.133283786696474,-24.19272630462473,-6.846409308400444,-36.91367665361583,-74.29421443917343,8.548013191209565,36.26696354353536,3.361353106505873,-30.823751722587595,26.9076894521267,21.629517507742978,11.697456246056918,16.348643228683116,-9.704800608084664,-33.006610503738735,-12.178977672931719,12.15979688712959,34.482013311382104,-44.997863156174795,-17.781397796985463,41.10017254054906,-4.204843154751995,-27.493535370154728,-60.348452848743996,23.54178263100831,-22.178622019494355,-17.820668144179272,-29.176882631455875,-3.793501019868654,-7.897618927687627,-41.959236435691984,-25.106168089967056,12.668424048034874,8.86504219580826,8.893176261321823,-6.694779427614366,8.25596593402527,15.394170778761138,-5.629594048035963,18.630654348106784,1.0236599708762184],[-2.817453927370789,1.0781143475038277,-75.93195641044218,-5.982675276803534,2.7278598464213117,-0.8654619780150298,-0.8569200778073958,-0.005470357139493718,48.99431861319841,-15.21592006255161,-2.2781327240212015,-14.530104009492318,42.42003138955008,6.842427273134785,-1.0821517035472041,25.952447791658294,26.442714651879665,-0.43636091292176216,28.87324805620317,23.085104774843813,22.51979496111882,1.5211318279258734,10.781243278526205,5.130018692173003,7.307398633808636,-3.354020463878382,-1.209569882204074,24.525963669031846,-6.801458628713527,14.590528715183604,14.92742858094666,23.708598738527247,-0.23094481646157358,-3.9709393688969308,-15.99818383374974,1.880844510799184,33.45638204123187,-32.06362919231393,9.360100141858272,11.173321395892117,-43.90639442084677,-74.03624448443048,10.075585203827107,-2.394832146672459,1.3530826876740294,41.436472263103894,-15.44465626038557,-43.90345567162942,13.3673111353702,25.03063610312554,17.629675794675457,-67.26278820170664,-19.467827125639523,-41.682135573114806,24.49278124338593,-29.967761174069153,-14.245966164871627,-13.819609290435253,-38.88426083424268,31.913672206397834,-19.66555227682293,-6.315672894480174,-21.450840907954618,-84.76675447589092,11.547958238343016,29.41026190946053,0.6857144948268519,-42.58084042881313,30.799044335337562,17.416586568825387,22.87874758966912,17.36651404953762,-12.00909795797719,-35.120860204792194,-10.680977768168892,0.9250123957499503,28.222344216512617,-50.25097969234342,-18.197004953905438,41.17445051860746,-10.951843665023251,-20.701214532502988,-58.93748854523803,13.169449627547133,-11.873789197380935,-31.363830374893574,-28.5912091779195,-5.265876569002545,-5.0709572832327945,-38.04720611150435,-20.000187608763827,12.419061568195719,7.749855122556426,4.531266629251704,-4.466698578685234,10.202963861769875,3.7269950763237603,-6.142840166478922,16.957794589830016,0.7705897331006765],[1.8184631168491743,0.3485379887640119,-66.52116929582755,-16.709402287325553,4.048277961246975,10.390627372279278,2.7140501842567626,1.7963966734866414,50.325944228784245,-21.430442581617335,-1.8122646293562306,-13.880468625371266,22.06849639339838,2.5596798466554063,3.417622046704729,20.38401894167241,18.83305528917341,2.097302203171274,27.851536955197993,4.466003666085734,28.323967922183424,-2.3233939595460082,6.3716643391341385,6.538922153221911,6.481313197142576,-3.4656251551188415,-4.901929960671457,20.633094473237733,-9.892040214846826,12.231552780984076,12.142055170940393,20.774974664903855,-0.47827728632253214,-5.707212475758604,-5.143572405191483,-1.113409789277987,21.729440740958974,-32.25785755748494,8.45968393624839,13.123150670423826,-42.135334936645854,-59.46126666065057,-6.982731778876503,-2.5483783830454136,1.9618400583162523,42.01247288295197,-15.15748308723118,-40.871171261107634,5.429021876441858,6.189092085997347,14.53714115111186,-69.18462511993361,-25.051531706620374,-36.899497951489906,20.907614360856783,-31.18333624278389,-7.315866045097081,-3.901685008286292,-39.946038070110745,38.71502454246339,-14.623452234241968,-4.8717562203772875,-10.616927207283023,-80.81437165592008,8.803809951866107,26.71841414673599,1.7742426954842148,-48.71642070818268,30.88000677321882,10.425801087861226,27.820335465874937,14.80940884827311,-11.811447128449258,-29.87818151878356,-7.500859355805964,-8.824205079081286,21.605094150537273,-52.01197553814003,-14.493497931334016,37.414259471978355,-15.36292633762731,-12.465706387412775,-51.33409621593689,2.964781865583889,4.229153619565964,-38.10255811194979,-20.88224035822278,-5.610220894474403,-2.995624521401172,-33.33456523185518,-11.872114126189928,8.98225601221911,3.3387752789994476,-1.4251531641703081,-1.7847229603241188,11.904597741163704,-4.859949129048797,-6.534262648650525,12.819687100232485,0.4974264818413539],[4.392702723830934,-0.5442594516051913,-56.75389176995493,-26.31414734977032,3.5655855238905176,15.902201499726267,7.337289471113991,2.2225726142102156,49.44541931109951,-25.12697456227147,-1.3867812350728372,-12.33109871628498,4.805879989969408,-0.4598896721623573,10.705461906362544,15.727131347894343,11.125684657862804,1.7137179423722666,23.083400365684735,-5.7101591571476735,29.974460296617462,-4.59988314216861,1.9369345187792315,8.999911951846968,7.832077167971019,-3.206399230882396,-5.586238043173371,15.881605304948764,-10.878168635761057,10.05651048628578,8.496547281260828,16.413416950147813,0.37594970495410546,-8.952367873648315,3.3582322818128194,-0.7184289911951104,13.52619473432993,-26.79882186450825,7.300415422823798,12.479918716350271,-38.21138355435187,-48.866396426517824,-22.045219879880005,-1.5180435753569896,1.2732179121690854,43.48388681165914,-13.041465913158977,-39.38379416128971,2.2322646724232555,-5.207261822660187,12.448855720979092,-63.08966308851396,-31.515644480771478,-26.957262987474063,15.597508727033949,-26.06267236683523,-5.22925691512113,4.1323908548580235,-35.18625640756187,44.47882220158213,-8.7655196989142,-3.8225667278515787,2.437950187981032,-73.6490776667169,8.994754951991789,19.047482961067526,-0.9550088407710979,-52.852306759547076,28.638503977551476,6.5979357437833075,30.22624337406432,11.746822410212824,-11.850147441123571,-26.173853100269795,-3.9938463009024208,-16.232348849098095,14.311255422952915,-47.03217690444617,-12.429107903722748,32.43482924753849,-19.08645053722658,-2.7658021392799403,-40.86118120115467,-3.5772039843990626,11.337946406987129,-43.88716948300964,-15.153678272024571,-5.800808204257108,-2.3127602174526265,-25.399376229151027,-6.677996575577724,6.715667363463845,1.6769590849339198,-5.118163444229049,-0.7158591853198474,11.784518873073756,-10.64221736114521,-6.6845182305856365,11.066506405793179,-0.8265454001282082],[6.268550158044149,-0.06626300394785138,-36.49083113202801,-30.271834344755383,3.583661199032844,16.09022637304924,9.634388095506093,1.1879980000240273,41.0791118547506,-25.52104618943053,-1.2532665848175413,-6.363244404110579,-17.652686325973477,0.5704892498753584,13.763667237267722,4.426099409649905,4.285083723591132,2.60671883181458,16.26110893101801,-13.933190193191429,26.4963962588621,-6.99067206657542,-8.69353547427541,9.780777729838045,9.769155369617296,-1.8110044613122862,-6.0706381770353985,3.9139937950733055,-7.518894999765211,5.960718618058518,2.7378736122489498,4.857357509820712,-1.2209379889677023,-6.105190439005854,10.30242488662435,0.15987176841087725,3.296293312201548,-14.566039541796762,3.0593159605893474,8.636314712222092,-26.83706429894142,-31.444541574389515,-34.471037590298636,-0.7980060924328771,2.7791248129258044,41.46923365566288,-7.332323833490748,-31.447957643591945,-2.9806283323913423,-19.715193336893847,6.688336450621746,-44.570503571032745,-38.741597337119124,-9.757114887392044,5.004327180509687,-18.496054312844176,-3.1519473444691286,10.255966016585337,-24.134872119254236,45.483560171326836,2.4278556948009506,-1.5839753545060888,21.832469054591936,-56.435993666602826,6.71907114520994,2.1932749293384948,-4.026568691212495,-46.70690665333114,19.704477543064623,-2.57402206262478,31.645874071417342,7.485191486020384,-7.379121245359965,-16.420443804467908,-0.6528867654411502,-22.754134889312052,1.7940486076136193,-32.9404776585649,-8.727663903087068,20.25771747732378,-19.552869105781063,7.657204350899037,-24.828259643085627,-12.283845121544884,14.304580054655732,-42.21957687905947,-11.900169376917919,-6.002070419765203,1.0137108384075388,-9.985876040126461,-1.6194915150016398,8.02686347304484,-0.1614023195460296,-5.761619836694337,1.9837369444068031,11.175980016406967,-17.332007403525395,-6.123820195158659,6.811712232771197,-0.18627559912284672],[8.401993001956889,0.7290023690756037,-15.495667018204326,-35.13599399514836,5.010691644307164,21.378151712244804,13.0707289465717,2.2197243068592774,32.40976930499086,-24.710746213498417,-0.876507656449478,-2.077653573202186,-40.956075768221474,-2.1457934033812385,21.758819446617398,-4.261495294029997,-4.72378271254917,3.201665922242839,7.694668755871426,-24.853481087458352,23.326931461534656,-8.900278253244032,-15.1748103748392,10.166149705177693,9.680439335220234,-0.9083599818283128,-7.871088763240134,-4.7094279931837315,-4.772394588032946,2.99371076206611,-3.677760525529424,-3.691818734500293,-3.531595067635975,-6.7260093474671825,18.86961934479884,-2.075782248416498,-9.56831851400163,-3.6033308354484204,0.05948845814960452,5.291267992106847,-15.518633292950184,-11.423877610721417,-48.41086478644202,-1.1933088656683855,3.29583760807839,33.456407615368484,-2.3418646622405546,-23.276126588943704,-9.803661251247359,-34.03361880434975,1.0203381381319698,-28.106222222722522,-40.280473542731116,6.127374568504217,-4.328253408942394,-8.567741816499817,2.0758563024412777,19.475579356267254,-15.197711302496892,43.50705600652972,9.769016159009482,0.5758749513631957,36.80539693029175,-36.05339626711178,2.7595568744641534,-9.191609360217676,-6.001911622287375,-42.47149830401661,10.926174360756361,-8.767650853454098,33.136242886306874,2.8840478795816775,-5.20017886578155,-5.993613557131306,3.6259083844428504,-29.785308025310204,-8.433937345507072,-20.339648053592338,-2.443329765195846,9.503118397254868,-20.056244560294672,19.030248206778523,-7.762923177300111,-18.392022151172135,22.90554461937977,-40.48631967983623,-6.01555974914957,-5.18310468730693,2.6196612366267473,4.021649525063131,4.9870017172865895,5.6386243741009805,-1.92097163178759,-8.436968661305709,5.037348922724291,7.915069999778289,-21.258986036542137,-3.7589687495555073,1.8548357498580181,-0.11076712099684477],[9.526372753318075,0.19177576110559383,1.5105230206346432,-37.698829439405515,5.075245707371991,26.906968896325427,14.56862529466628,1.0700119468881637,27.250640973921772,-26.678256989005867,0.4858975478563209,-0.7012447478337005,-58.537774390618026,-3.8951931340676964,26.35974921292909,-13.34388597311607,-11.38348393463972,1.4289103739879332,1.7396573573170162,-32.21994609773506,21.005773421643458,-11.2682974343049,-22.668979665931776,9.004593586287623,9.794086061741798,-0.08499378275048303,-9.294832871336721,-9.789351768840444,-2.7648451273431967,-0.4447396408282565,-8.685638903364378,-11.891025421014666,-4.042488226305936,-4.906807155640002,24.28160300845868,-0.7393836615502467,-17.68158048911615,4.325434319386002,-4.565846753106706,2.806987533163783,-5.309551941561807,4.259835192499909,-57.60454240959693,-0.8366427173661826,3.154292223560037,29.208024638788995,1.479970230908254,-15.550249401955115,-13.360735240501112,-47.64499854857978,-2.706975711895219,-13.81291113697589,-45.06706531311604,18.405786283498852,-10.704112813990998,-2.3540897980365774,3.6163588517430423,25.62250360026281,-5.825168102923805,44.039619432447665,17.18853562363912,2.3336579921567964,51.09935385343163,-20.834040791720916,1.5825192139904591,-20.67173134169011,-6.253650880999387,-41.71985320267924,3.0073260384315574,-14.17214014153465,32.65209318518666,-2.1562550876318376,-2.409511445668931,1.943488883202066,5.265425243317946,-35.38388489618261,-15.13393911919719,-10.749349656333948,-0.5178192597716976,1.5528676294262207,-21.16366517329934,28.001413437688647,6.028123590631744,-25.67401570480407,27.36000914717385,-37.48327376038464,-3.1485481073892077,-4.64149331840935,4.171406807601812,14.957079409156032,10.139129859979478,5.190996779453513,-3.1165264347208312,-8.581759265796997,6.962740482559464,5.981915847292973,-25.002812240237308,-2.875621896291003,-2.052457419485406,0.030861296485338842],[9.192584220735235,0.688785919461345,3.1348642660644415,-37.06337666648052,5.502633836139113,23.022528180612483,15.765061078838325,1.4900749772277257,26.743366653721377,-25.16061373514475,0.7970636294817917,1.2368059583493418,-62.628895841914726,-1.6566106130175489,27.133232494411878,-16.558868377469146,-10.852727770524822,1.5144337039866576,-0.5045914716839152,-29.193443777985465,19.424830401471073,-11.365585699975627,-25.01653089554135,8.801495028106181,11.65637835306573,-0.09865492955707462,-7.346827984771696,-14.612023654152823,0.6974892138994774,-0.557816960643062,-8.62818342154766,-14.278386720255332,-4.87005146137398,-3.389583011923431,22.173065264962066,-0.1576851895552215,-17.902633090804155,9.776545516304909,-4.776630601810021,1.9442820673086925,-3.5028233082477684,4.471942157776658,-57.624894783665404,-0.41503443978949456,2.5240785361425937,31.748147856565744,4.009466849416778,-17.289233367287107,-14.195610234113285,-47.02436949801941,-3.892348999764948,-8.472700641634097,-49.09766992327827,23.73762990929152,-12.719245134052999,-0.7620209013838027,1.1258570013428586,26.421518809352527,-1.8853201954297516,43.81944324846035,17.582859831066845,2.4480204592761643,57.22785861382646,-19.449812310352943,1.0115930157574617,-25.18727733340742,-8.37718676963142,-40.96223147179141,0.8753516842139568,-15.490247224967582,34.42406197434651,-2.8649608866288485,-1.3038725654028183,3.583689258687454,5.280854708562934,-36.94324673367124,-18.10919166351761,-6.705615678188779,1.0314444491912296,-1.2094407000556378,-21.992920037133114,28.60440193625172,8.636696069638381,-25.616529205505845,23.902071960848392,-36.94429479991038,-5.816657339314424,-3.515700994765204,5.059806578284953,20.749606787359756,9.118734565257904,5.732671205193084,-3.0503286072042886,-7.548384470609192,7.302421676387268,6.359836606514878,-25.88225749460777,-1.8879000060926092,-3.294796829112489,-0.9331573110260792],[8.380907519898091,2.512571171127594,-1.5576125470518063,-34.87424949353027,5.9430137878464295,21.546526938746496,14.733296140177533,0.82567535327415,28.414185796905564,-28.815852218591324,0.9235493838538493,2.142005008252591,-56.35422633906129,0.8577187224731292,23.75648611691567,-16.188137680579732,-8.738498990485997,2.3369421286997594,1.7210807182639374,-24.871756039377043,18.675741011203883,-11.122871873661595,-23.323398620903465,9.069897799890017,13.251945083981965,-0.025505440366578255,-7.504530299180838,-12.888834615244788,1.4287026387832986,0.4138320447460629,-7.012278360926866,-13.554349724425006,-4.578117220357261,-3.6706833524321523,19.919688616763818,1.0679265863263285,-17.02521440056207,6.16916550550734,-3.754844566629861,2.775016382953251,-4.2772252068233545,-0.651810365438732,-52.80783364850807,-0.35767898070968973,4.269263692068338,35.7946094972985,1.1565806245113057,-19.062878811137914,-13.473295195076833,-42.05782213409394,-3.4732800268733817,-12.565709180792606,-48.20726931997314,20.89266058783016,-8.222537734542504,-2.5371428180779896,-0.7812218597491275,23.193421321066197,-4.8692269302022515,44.80066773553877,17.4166429756618,0.9289785394402943,53.4150153735451,-23.727017565639965,1.8583569657468,-23.663101822187848,-8.093443743725633,-39.69718829530922,0.7829214783419398,-14.77601431331182,32.530290973251724,-2.325264847105643,-2.3883675229435894,2.288807655049292,5.060508997046126,-34.715170809573834,-16.68338097270427,-8.450032054932585,0.34714173396699277,0.318011933289098,-20.976531674561787,25.434677343600388,2.8264879932470652,-24.604217596390843,20.957990632774543,-35.70066263089817,-7.230778366326196,-3.667418935140337,6.731695246428818,18.031968056338965,8.189630091659682,8.369426767619892,-2.740549149390168,-6.089986334428292,5.179874715509749,6.662457100994174,-27.03202511623939,-2.6215053149866487,-2.7007470399243485,-0.6487694709018399],[7.29078245497166,2.4951482342632456,-17.84812147059031,-30.39207018894395,4.882736163282316,14.93502769878365,13.070149164277556,-0.5545589133312946,32.12359487147098,-26.835182988189082,0.9444473075430023,-0.5637195759322782,-40.048215751282626,2.529846052319521,19.584988941687502,-7.874561961298866,-0.455431970446851,2.7536169148153613,6.823638077256827,-12.125906676911171,18.616608858514965,-7.475048065667111,-18.83211223920437,9.225697450464715,13.85450684301087,-1.4509269049225757,-4.652292725905335,-11.13870054282932,0.8171069094459519,2.664820802727374,-3.5469686926755393,-8.09683935333704,-5.293467607591173,-2.907903729153307,13.277903457417601,1.0529677320478992,-6.04787075761427,0.9369088120143573,-2.3170222976292063,2.2966132381131947,-10.627541087373586,-16.578678517685493,-42.961797244857564,-1.4511786069959562,4.01796446999642,40.82516836755447,-1.0466897797691948,-27.315780823849533,-8.085759908859991,-29.5822885709187,0.6198540060894955,-21.671712583946455,-46.557602026655154,12.939444457049932,-2.14713073502553,-7.452826498370069,-5.104527763557687,16.922409406091116,-9.875615209927453,44.98493434067656,13.70057037196533,-1.0598775780652805,43.233738420503656,-36.373579996330164,3.6267099973781214,-18.841265622508335,-8.23619656980497,-42.530935211656,4.971209206465922,-8.960192478785796,34.09936788457719,1.0934206623302642,-3.959642913074959,-5.344500637620574,2.874132301159893,-29.67379696903905,-8.051098808299617,-14.569983798420044,-2.7440035403574377,8.039573990121044,-20.369866640217356,18.64387806818034,-9.52579265103114,-17.057691976109485,12.16587474103652,-36.63319349760053,-12.30579248976771,-4.608170934153154,3.4229829760516033,9.315327363840494,2.687129252418083,9.954233348215762,-0.7878191908364651,-2.456957301273563,3.677445776791804,8.03832394485265,-20.70165081289154,-2.745590547843717,2.178039265003455,0.2428889428023947],[3.7268141348850077,3.298103381071303,-31.323659159298984,-25.33278226446651,6.238469213381076,7.3089458926710735,9.726554854558872,-3.5639665017199085,34.78815430289984,-21.47798426967162,1.3635101544384138,-1.350923533722961,-21.677362310500232,6.417231505925285,14.333430691424155,-0.41765662187459524,9.956201055978912,0.9197943211180034,9.799749480343314,4.842236463623125,14.40898779364727,-5.371888154423321,-17.593404107058827,7.3508571318907086,16.476274997494937,-2.589064510286115,-2.0546202168016334,-6.9034176207978595,4.372665904428195,5.973896298012928,-0.06810370776257971,-4.229665400666187,-5.34810760518003,-2.3339000815539057,0.8237358989235486,4.265049181425917,7.208768234042465,-1.475052934570028,0.2583837020467404,3.2870088862315465,-17.402767491321637,-36.1266688627842,-28.33795552923141,-1.0445001029340113,4.886253874618298,43.65508186169458,-2.639655731392915,-35.2746336029165,-0.9041797014374201,-12.191284830066234,3.9379587204976993,-27.819503936945544,-44.47782593407198,5.366348420235733,2.884399750242681,-11.037793965101454,-11.739895491251165,9.805215890401234,-12.66583926098053,44.66421803457295,6.361673236974894,-2.7038549080456242,33.04047366821504,-48.10827649134646,5.423752551009579,-13.149642721064982,-8.397042699399814,-42.75641564034267,7.8219218242113735,-2.199683491298026,34.01367745424585,5.496929971654643,-5.192492735483622,-14.366150229168536,1.0449053888134276,-21.71526424062933,0.14946065534518835,-16.23000487265834,-7.9538551705504235,15.609041066204282,-20.125736375444497,9.927696184447512,-21.68966467661399,-6.981217997857202,-3.0333296033241965,-38.1420544795092,-21.546490052934946,-3.6849851980235626,1.7447365914797341,4.065244233704657,-6.509481779579173,15.165997215841353,3.3286928968168836,2.255921981684123,2.4664484609540205,9.635844702148946,-11.861848884230886,-4.107519858298282,6.905517485107167,-0.36099565544711015],[1.4092767606532135,1.4966406753714463,-37.18730974898336,-16.01438052554897,4.150064334432051,5.0708847898174465,5.773219751277168,-1.5740263675086013,33.03923442504091,-16.557061097030548,0.44322094322849714,-4.526348359403075,-2.7695598730148325,5.500136112362418,9.369791245702507,7.744655630462764,13.49694819325541,2.0389600386227595,12.120927153045887,11.328397614769573,13.520991139813791,-3.6142623834736383,-10.5262336443262,4.726628743020846,11.867626313216245,-2.0667433777096944,-2.5041087751418725,1.3334849785239946,2.6273685685544885,5.425011957262741,4.026772672375689,0.8578961643363103,-3.998222042389315,-0.8903017308841773,-4.484112957759334,1.7477712709274822,14.534033459426466,-5.888991702002573,1.3686887875154021,4.5133389196291525,-19.927133722103335,-43.860168074808776,-15.04636121260655,-2.30804620647516,2.904914308463819,33.89018713608,-6.271749607824487,-32.21521531959209,4.641998653454532,-1.2770869704148606,6.607720918856443,-32.09987132357141,-34.85995059258958,-8.316649623366336,8.28955528664836,-11.996803822585193,-10.834018683779226,3.3791260429135748,-16.60160845258698,34.17830762400124,-0.6869333312653644,-3.9728082760812953,15.576962826167511,-51.070743467789725,5.398748131225824,-0.7622116479047282,-5.351844370878015,-36.25293816575778,10.077249510879556,2.3408064413099123,26.135834651204522,5.943421422745629,-5.270063257351895,-17.223300961794358,-2.7633074619630777,-12.850377225344715,7.181022377481222,-20.72454004091843,-9.548255945227574,20.102266544438624,-15.394609309403865,0.802143394452684,-28.644195405024853,0.25655796468984604,-6.330694001511842,-29.301530198524222,-19.752775431212772,-3.5877536657660216,-0.9189553767257199,-7.171277040221555,-11.552060846099069,13.86306816699724,3.055868936504235,4.449161496014364,1.3224093861178698,7.33750736935733,-4.083664343109148,-4.1575748553842375,8.689505538042772,-0.8448360498742075],[-1.9241880468116828,0.7350400520688555,-45.13412191294493,-4.975887135929257,3.290639173157236,0.4527074243172225,-0.25154233294637934,-2.246756566214988,30.13893270241044,-11.481380064868247,0.2469670020793257,-6.5406420218601395,17.06911396975341,6.7664281557847215,3.84369361225111,14.530543835095635,16.7813304374738,0.08195612635622855,15.163502239561383,20.80572798339161,10.070582205387781,0.7421449209881299,-2.5281527829592405,2.6768626840028253,7.699583261535188,-3.3815400001273686,1.0508287716059155,7.7790813281195605,0.9567927017818347,6.9163036527113,6.688807048780462,6.6142032437049085,-2.804665600542833,-0.5677425689661199,-12.283501241403656,2.3630693372357032,21.975292138092552,-10.330977308196214,3.9685831054536123,4.827871591406781,-21.867298507159074,-51.135799966757666,3.3609309654814785,-1.2489534343484743,2.6684720683392427,28.23373009378986,-8.890868891891685,-28.958979646911672,8.830606070843855,12.223555278881888,9.559163081617648,-35.94552862666629,-23.597259667592038,-18.706475469324364,12.092130718467136,-14.204769849088423,-14.666665351178036,-7.408742427180343,-20.71939768977098,24.767668715345746,-6.896125641559768,-3.30367685666995,-2.561271380318868,-55.432801845067715,6.316360572786149,9.798626886119477,-1.7907006724570032,-30.823376395746344,12.667258229482965,8.87360218195382,19.6263171349788,7.871934947031944,-5.058649469292514,-20.48545457312751,-5.50972918425757,-4.592358108119861,13.850569622815426,-26.00426659104583,-10.848442385292156,23.049932698843595,-8.600013618538437,-7.843601162341041,-36.89890934423905,9.439064341427105,-13.29004308125781,-19.3201901581959,-24.365357856670116,-3.3326463981898495,-2.0742753297841254,-15.952156445685995,-14.515694972979668,12.770147809284387,4.861689221147561,5.953187794247837,-1.7323928724058741,6.497556722772317,2.831733931484306,-4.8606873278678995,10.817029509888616,-0.6220486586413677],[-5.853624330613098,1.639866639212297,-45.76692681566007,14.479493510813223,2.167675603291075,-9.00727540882348,-6.454681960879856,-2.7020168284373174,19.342613332344573,-1.9920465065266986,-0.6548841696630087,-6.281835586933463,41.198080388940404,7.605225612551332,-4.988026030075365,19.32925775638268,22.51045320979132,-1.6751164923671342,14.76081456266483,38.369008335680284,0.29723673586723787,5.2007008963892805,6.574673599041756,-3.1900195243531866,2.645360927393811,-2.6085832667255278,3.5603892302410554,13.444705646017558,4.311573425576153,7.429863583551104,8.218764412488392,9.903526530530401,-2.443504632938583,4.50847533456286,-25.515815741594984,3.4394581582873145,30.524787729504297,-11.486962524636896,5.244270011477972,4.170563444174508,-16.500605670553693,-56.73846708066827,29.918913686413344,-1.7828494183608976,2.8794768075036097,15.92915638689897,-8.567925860857432,-19.786335377087415,16.16335133820588,31.20745299667811,12.486658433503395,-29.450434115205407,-5.809560738588818,-26.152642407908928,16.666978383758952,-13.379009128111614,-17.87153828175118,-18.092339884836615,-17.70652856138364,6.026957102919847,-12.815865030059369,-3.5988460582442534,-19.963124201486764,-46.9812058065993,5.968164494704521,19.79142704833852,0.6711902694676428,-14.263267535832433,8.52740873929038,16.74254698599601,5.662346638693523,7.587554329941671,-5.205521116456345,-19.84468437915898,-10.217208278980332,13.13890339383364,19.988356481605248,-21.95808782043153,-11.066638038791693,24.97808010345064,3.490819808112399,-19.17461710293111,-41.122897348344324,20.70129118875836,-27.576402169617488,-0.46836953928914554,-30.384893496497956,-1.1778316895222156,-4.0213714324657115,-21.989925586287,-20.4002049631484,13.31598156135574,7.088079578920573,12.455777544350465,-4.846776039564967,2.606537541429819,15.051584954346772,-3.2688546400356597,11.422345286163766,-0.09346798093144647],[-8.186219577890881,0.019181187925649323,-43.044447578794006,19.24360949678884,0.26466605173117824,-11.596831009635736,-8.21261669704439,-1.0303111641379261,11.275111868948306,5.043803512655817,-0.8352451852264248,-6.493604563516768,47.80640083414411,5.764022279757702,-9.565029585301799,22.218256493714964,22.322593041415153,-0.06318566411917996,13.015480553263492,39.6053917754176,-3.1818358148785193,6.251855421126304,11.362681053053885,-4.139981631041161,-0.3226710440271676,-1.8479841412704605,5.484864225524086,15.388726160264982,2.93571739766976,6.143556876208988,9.01444474864311,12.63498891685812,-1.4742717306971715,5.137871144331086,-27.2796312905803,2.9539664284704785,32.80707405071388,-11.321300510325628,5.930327519490231,2.3666690471290233,-14.958158621670098,-51.843170667037306,33.49837160689482,0.24049733398096565,1.6749010272859801,5.813670223442263,-9.909718543701459,-16.010382488387148,16.15888139932243,37.32482023215762,11.532681088886092,-25.820831221867582,4.438598620593093,-29.86810049280677,16.630875634870314,-11.519979641974691,-14.702542439766265,-20.072284969334067,-15.010333690494152,-2.2012010174821297,-16.714441407530916,-3.327529352877087,-29.367604982252608,-39.64697506100831,4.77821665685331,20.727810966949967,2.734129312300028,-6.859379097631128,9.237844532757615,17.95061678947761,-1.4532772793249813,7.81801380149812,-4.497095567312641,-19.946193356508847,-10.19146364463676,16.831134807755763,23.379728353378677,-18.572733572104404,-9.15506807315967,22.838789996008966,6.113343513793084,-21.670604933024354,-38.702916233380265,25.62212557575417,-29.614725079238077,4.630772957803722,-23.001251045992415,0.4202132063226139,-5.189105439934258,-24.88221205208972,-20.676582323867144,9.961660348777974,7.807314206380322,10.960785507795448,-5.439769420358348,1.2509840292451915,18.93403342381809,-2.806640162064767,11.2171665930026,0.5455424585010095],[-8.843096183408882,-0.03966653520628814,-37.736623347868836,24.325085533475622,0.16854627434352104,-13.765110382844837,-10.036801656260826,-1.8829717108764963,5.4331177805024655,6.3574800695146285,-0.7038542166455123,-4.325162666391622,52.25944511298871,6.558696577848954,-14.441377674679584,20.036177858922244,20.873793918893586,-2.0292866675655885,12.383570164453655,39.72850206752935,-5.073390772505124,8.169730700344937,15.521837517897087,-5.942513682622222,-2.8707636248828416,-0.8410244310296145,4.449561318610202,14.302783614999152,3.123939792678147,4.855398986018249,10.215790831764027,12.615469878617285,-0.17647591505569302,4.790402278091452,-27.04331051720021,1.9686475365952711,29.3070749946822,-11.300838027210782,5.672333894263356,2.190023015214716,-9.819326540722008,-45.78309753218107,41.40328981525092,0.2941327032493934,1.0225559709360839,1.9639332141402737,-7.32444392348689,-8.545793048141105,14.811255428600413,39.979521883198444,11.541070896214372,-21.178547931732048,13.822158793940341,-30.62920873120919,16.20184783783928,-8.094683672182718,-13.40987644824106,-21.936519648689885,-13.893578706076301,-10.501673576632271,-15.950433956492414,-3.4504349023281864,-33.996745526728034,-29.218343649348668,4.324414807311387,21.884728998715964,2.919245558125449,5.5894581918806745,6.971975696997328,18.084151021300777,-9.223852278325941,7.776116104022022,-4.318162336861864,-15.883789939789677,-11.281659481344494,21.487611053814955,20.316409560959748,-16.121136158203537,-8.345945819125976,19.329564558421815,9.678630128232143,-25.801494866028673,-35.40991867460154,24.421264915459407,-27.35576560167505,11.750633479816925,-20.079836016144007,-0.18862633950911695,-4.86649626165291,-24.364070912138484,-16.962831780016508,7.2141120197500745,7.34126652568359,9.927138772998214,-6.021639441736669,-0.7891099164955443,18.955140758792464,-1.666126452904733,9.2486906956356,-0.10104871671516522],[-8.294727593769927,-0.903766418049466,-39.22267763830342,32.94567170430855,-1.911853694516584,-15.865632223480002,-11.295205509993389,1.7077752449065302,0.7166640018916465,5.65505431954696,-1.0635087111333943,-5.491951105774736,62.09733119400747,4.490401298613371,-22.156631450033977,20.011741130285813,18.709013677811868,-1.520636523883731,11.943485061150547,40.14059781564112,-6.859101968744067,8.78615284350715,25.07821920323913,-7.083601267997972,-6.676913580046646,-1.9230537565840264,6.763325161230766,18.054378891084774,0.2662869937400821,4.617151594870951,11.733437867416038,16.245333137315676,1.0644239024413868,5.889022674517135,-27.722681740148808,2.1493050486664305,27.069351933290903,-16.302439325387425,7.288336769982538,3.1119256566235936,-7.27517083374554,-40.972627672774315,53.57060399153684,-0.19282532855314471,-0.3123804391486631,-1.940469127830849,-9.584347142185566,-3.33764937062082,14.733395889641162,44.95758675166975,10.446192615672109,-21.175357203205326,26.698265908757993,-34.87752392204858,18.693010353431635,-9.942686061770223,-11.423235880072747,-26.8728025573192,-16.755806529807728,-20.503019113730158,-15.643239521102899,-3.8961650606212994,-45.36017468763968,-25.08561790603831,4.164646548595345,29.348012041073897,5.802698762201749,16.19254496786785,7.465535918142961,18.926077619287973,-18.082312796879574,7.973632709301094,-5.557057503519339,-15.48523059945801,-12.276664539951076,28.340265431676645,22.376272124643474,-14.913995884875257,-7.300556535471453,18.79742946818955,16.298683136168354,-31.118212994329323,-35.30553686809186,25.822838885906986,-26.95826921985703,21.150500951329818,-17.14143850753173,0.6736165839556193,-3.602741150457702,-27.827666520978728,-14.657136811932306,4.98316189331556,6.670512323716685,10.010835227998378,-8.462657051641617,-0.988606601924943,19.161357429293005,-0.7658733791530228,7.315241334700354,-0.8656946233531788],[-10.735903360300677,-1.4852711195304047,-59.635629336808066,26.738919040294174,0.31749562566584244,-15.095248388440188,-16.67969580087895,-1.7549373928267478,16.211206686555144,13.90210023025467,-1.8124700252460044,-12.317578300061864,78.50211008693641,3.2967495234936726,-13.817954193990282,36.218567339118785,30.0649578707605,-1.50202149089693,22.890286594517928,49.399156705080955,0.38465546500203246,8.894381412905359,24.332664174745386,-5.853637738845393,-6.1058723685910605,-2.067531096389803,4.519926856660165,33.1087314331788,-3.3689164292354494,11.371824191713365,13.613434240838084,26.90302582007333,1.7430142909955813,4.188782619956786,-33.26975232159928,0.3241455222624052,48.61494100562413,-25.001033764624545,10.348261775776985,6.311714588688354,-29.515901049172765,-70.21642458509967,51.420608657275615,-0.03487217586513264,0.12818063339962796,-4.791835343292118,-15.432425205366766,-17.719294605852834,24.080654746165457,54.238954495816515,17.41208605622679,-43.545030633757285,19.24280239976973,-52.83033437326849,26.054722775888006,-19.850385189297235,-15.214013816141268,-31.47536340560273,-25.155725950587094,-9.148414519333437,-31.794162296273683,-5.337681201074789,-56.722766272612375,-52.26624626240171,6.398194771299947,44.8805057893734,7.476694082762677,-8.75548093402945,19.64453561073622,28.341901012945176,-6.316971114019895,13.580151900861923,-6.827922088899469,-28.53400223653308,-16.334750093624248,30.61485097698657,38.0560313911832,-33.62907907840827,-15.431915354259,35.08410700217815,10.661471862869137,-37.58657207240663,-52.452554413137136,37.43307612165443,-32.958593125931195,7.793586146929202,-25.730432915262735,0.3317659247839809,-12.16500935944627,-44.780767472431414,-27.491093698360302,6.931127294412403,9.905088071786464,13.296503121259562,-9.07623597695973,2.3720668429170324,30.8075121355711,-4.210800396501701,16.403862222624603,0.21494776808387095],[-9.905292281429789,-1.4012685805436815,-61.49680893809383,16.31539161701529,1.989774841169091,-14.573427548666709,-11.922895847975658,-2.705766198308424,21.747609126907648,9.140599007529728,-1.1943811438558336,-11.497172167147106,68.90457838460995,4.560278623680474,-7.307229498626582,33.8951640540475,30.737138106155147,-0.2070352799936245,22.233084132833202,46.945570922300305,4.059583211829664,6.954322922894454,17.95775602911605,-2.2970549372114912,-1.180241693504911,-2.3259471072862534,6.026378756253079,28.708054238929833,-2.2390129047147527,11.996020940507988,13.421245096411813,23.74380674686822,1.4991666751245254,1.5778984771851567,-31.594266969194788,1.1343841177585583,48.114756253388,-23.61364131669381,9.291962631316755,5.091007207400226,-31.101484381756308,-72.58358909184133,39.06513910025193,-0.6072050687123733,0.07140672840110678,3.8886614617788546,-13.667196486599936,-24.075203619543263,23.62736015815878,48.447787325707736,15.890029605869048,-44.67911331924414,6.602273928223069,-47.95070656549809,24.299430689913386,-19.19520891726953,-16.868130252288775,-26.445105260719586,-24.27634874707376,2.1285935965616134,-29.08367038184836,-5.276660482151209,-44.3729333171274,-58.01574379640726,7.357013597749903,35.40222567088426,5.545523787342496,-18.890613825762053,18.30030933375827,25.478756042809405,1.9840562120159522,11.913852989699823,-6.649747256973619,-30.053484109223675,-13.886710532327363,22.676612176228986,35.815654828216374,-32.38859109386247,-15.205402480423796,35.9143093168733,3.0373549410684264,-31.187328024791984,-53.754357079970006,33.587621688415865,-33.226053298527226,-2.353556156614852,-27.209143183709596,-0.4792837670133752,-10.377812811826779,-41.36741156726126,-28.54788847622226,11.555177674485382,10.770988516827352,13.526253202574706,-7.9087436251075625,4.392583170188468,27.68489440856324,-2.96366999994518,16.601411918615533,0.540435214832654],[-7.211785949725892,0.044326339881816355,-63.49008458766085,8.10051835312965,2.8005245836802035,-10.02127073679056,-10.032324963840898,-2.411136206031402,27.345549560131094,4.550448990510212,0.047666865182156425,-12.43663828312872,60.497430408828336,5.056952040034629,-3.7179723065262786,33.3260365194631,30.048534599176115,0.2835151450214772,23.67548401749969,40.02348139589313,7.600466069856217,5.6860139005693595,14.204199851721864,-0.6647573989767144,1.852796037090922,-3.5138340339470715,2.483363509292212,27.607775642402956,-2.432299214767268,11.304061491782656,14.256535310434362,23.194696823312217,0.30387497519733797,-0.33084907994215923,-28.21158853419534,1.6740641670650218,45.909249326073535,-25.797529806333966,8.57073612720643,7.177339114037525,-36.8369309888879,-73.20415176116667,29.323379678455066,-0.403995552540464,0.8787923812655485,9.721202405391354,-14.244614079769484,-29.181763010714253,21.11548363810785,43.18868313746862,17.342729781484678,-49.7123030480309,-2.770990208500265,-45.698639329718404,24.194677032335065,-20.379766368028847,-16.313019631764288,-21.942683918146884,-26.752598265618843,11.224535683765517,-26.321072461070226,-6.444339021988255,-37.825703061130945,-63.37010978166786,7.781098341626475,34.55290698108987,5.121412593117843,-27.18742898614212,20.839600397195483,23.48605088549822,7.741612855126844,13.532087240443065,-6.422746805353482,-30.439807186050377,-10.430335026653253,16.478472891782864,33.71982422813431,-36.28504360735649,-16.643903381651185,36.2791738411224,-1.576176775143359,-26.908906167204574,-53.99231595832532,29.296650748151677,-27.203925030636583,-12.205169251978013,-26.866474897879623,-2.2586828386551594,-9.85996250699281,-40.45844664355578,-26.930384588560464,11.386975908842247,10.192189106236206,10.58055578766576,-6.725125075385546,5.820549512703173,22.037785257579745,-3.8594537788205776,18.10790617469784,1.0742900420694572],[-4.300482466230515,0.06460127151980931,-66.14976137163103,4.113040415046357,2.6544434704071587,-2.52219047216478,-5.381174377375637,-0.8870939473094889,35.903250356759166,-5.6035271715586585,-1.9667344873943755,-13.214005469914488,52.57015160031394,4.585037408870575,-1.1258045744648861,28.909584382814533,27.441251438993024,0.16640302819134709,25.68179699665957,30.967110131144743,14.439599755220154,3.9969459942908068,11.926081981631778,1.4944209467029836,2.2422602911464606,-4.122492003318275,1.0736245788483676,28.053670633216985,-5.557887994880295,12.177775398906228,12.644749274214167,23.93028288671802,-0.265525519618203,0.08586253842275089,-21.62707457197634,1.1569479576442487,39.51948098590553,-28.563308429011872,9.42880441535819,8.971891265672607,-37.10650480038833,-72.01638487445648,21.384814651784488,-2.4945956021232973,1.7350136378602863,23.243339872239797,-14.898132374715997,-32.89546510159099,16.976465998793717,31.844094193114255,15.72504939516448,-55.223581981915906,-8.936941234155618,-44.68794580516385,23.755305623334,-24.56668356834549,-16.147427249204053,-18.449937232834646,-33.39501521173926,18.884009745382638,-22.027179364542928,-6.4381631811209985,-29.527008342925143,-73.13451339689144,9.370757205342146,33.405745127517974,2.4545241516752574,-33.90265353979656,25.082403878414866,19.417594069656534,15.385138973061656,13.36822920607445,-9.969706183193361,-31.456897754035996,-11.428570349867352,9.929031128174636,31.18655021536569,-44.383259600197235,-16.950942329474906,38.35911069242892,-3.7868396573889465,-22.4376790285704,-56.5148132431315,21.512001491111644,-18.46515692089564,-19.193456307227592,-28.73903493211587,-2.123488696125363,-7.869886790557744,-39.35514512917672,-23.794479000879292,11.34736044609984,9.213176107864513,7.1105047798350585,-6.001465578299556,8.073203488033043,13.823698906953627,-5.054450363951264,17.006698189826555,0.6217729119922686],[-2.1686495569682736,-0.7432544480215115,-65.61950362381172,-8.029303464555941,4.165718442375145,2.870610037048929,0.712143991986708,0.9061631268052399,44.563959619631184,-15.471404854748506,-2.3888756055235256,-12.593310243530143,33.528616880899904,4.778764942505356,0.6031080892121558,22.643773268503455,21.2989072858667,-0.01990658902263866,26.197096247372787,18.556917814781492,22.50388356939062,0.21307914960493432,9.108245369304056,3.5920157495434983,6.112972995713602,-3.3299806444257447,-0.6505995666492983,21.44336732405674,-7.219860893919112,12.939639903370745,12.466179003821862,20.396500468939283,-0.8337861901177971,-3.628909795558395,-13.055686102608922,2.445286607908429,30.130838514017093,-28.35990585841143,9.324795464826302,9.902198639857707,-38.43707540328314,-65.41242653579685,4.920760131640715,-1.7348894140281013,3.1683272520022334,37.34026982888229,-14.656103415212575,-37.477820510875475,10.238627295352442,18.102309540389044,14.633568145417124,-60.75664220228108,-19.866613415488033,-36.94989351420164,21.39555264805698,-26.70616294796364,-11.692519203352756,-10.378197303550186,-36.1924678860717,30.46949610824818,-16.263263299218924,-5.237331721950719,-14.217101280788096,-76.44543824616713,9.975496161294963,25.709849813438492,1.9482835396253293,-41.1923264093741,28.236913646727416,15.12037764486527,22.663301733584852,14.248363710313631,-10.762915278352626,-30.673742731386508,-9.102604214634844,-1.5956544052693864,23.819623461521527,-46.38348684925428,-16.161151940453134,37.70997467699449,-11.672025675519773,-16.04912287166982,-52.278995999142204,10.354874748050293,-7.521061039365431,-31.18332203862285,-26.60830504635997,-4.629929964559667,-5.988199722919802,-32.69349848931002,-15.857321381630944,12.010719265087936,6.575236130044513,4.334337936962559,-3.436312391803697,9.981976736506153,0.6426287172033452,-6.169067038497945,16.075661996429034,0.27160320088774886],[1.4281511853810378,0.5065997726278813,-58.0311118645217,-10.993943800180137,3.508034928718075,7.833019431833525,3.162684380978337,2.9163232212177985,41.9536133865805,-19.7247139413995,-2.2800001865362294,-11.712047657287572,20.565491258888986,1.538707092868668,3.2303295407205717,17.694212528215147,14.888296238071494,0.11408656317360451,22.474600979114555,8.68673633627282,24.269492128970104,-2.8072787351764674,7.4063115071245225,4.066356517766854,6.12317863140851,-2.5313917707784808,-2.8241228710206685,19.375347079181765,-9.034997516906122,10.608702814867078,10.915913193426686,19.45634048506464,-0.5481641201673437,-3.5046613357107974,-7.133051799697123,0.41797511918684205,20.544339344739036,-26.213048888462335,8.253606732344721,9.94479111689236,-35.460510894194016,-53.10348693721654,-2.6016689238734427,-2.0929017495363524,1.4231871812410257,35.717198202682454,-12.657416428478848,-34.616532305169876,4.851414688170599,7.170106271979306,12.9270107084236,-57.46185051684961,-21.85491992685489,-33.12845581360529,16.927679830885175,-25.05131228652738,-9.487115319637606,-4.927039258581581,-34.147640219172004,31.741701915774534,-13.35318115736574,-3.8377439711117356,-8.2589788280804,-69.59007081765779,8.667370173929541,23.310178229030328,1.8232697900764108,-41.06952382584432,26.010689835713695,10.283150177912486,22.76981843018331,12.037516055298255,-12.352684284401063,-26.62377416673252,-7.432643325849305,-5.289058485887541,18.653636475612082,-45.746359337919706,-13.924018785483197,32.4448990549715,-11.459403116228131,-10.521620608421397,-43.91016795115644,5.343959118496918,1.4023888845647376,-29.694366526782183,-18.9822623030536,-5.12714915289026,-3.832470517037286,-28.200917059733797,-11.608839307378929,7.26907037853047,3.7919278433943444,0.6381467116411571,-2.088096199325779,10.457419293830538,-4.332014520018681,-5.361478070799003,12.033776413036472,-0.6914777323574047],[2.63254389785831,-0.8650012563389391,-46.66638425890604,-15.103369902486012,1.9245933545834248,13.267319003463722,4.432097889208794,2.5927569127013275,39.095046280086905,-20.309410419090895,-1.9292199650652269,-11.205032479412843,8.406293532714061,-0.36360667021567267,5.331347863865669,11.283956557858469,7.90529380779145,0.9953157678046198,20.492782055747366,-4.870064473614142,24.73337309698902,-3.2316927074468564,5.937478466404724,5.240624337026782,5.166657265727663,-1.4363283079318463,-4.917839677724459,13.788588095122357,-9.06966257294041,7.968809311882862,7.281799377420112,14.976233684461445,-0.1872227963351459,-4.746494462466023,0.6125385936713453,-0.7877342676128996,10.41506485222354,-24.847583404452934,5.688979334379594,10.51343529381347,-30.08950652279538,-38.56472711626776,-13.16111543916239,-0.9525763341153025,1.2946059602167812,32.87325612290708,-10.679149351693258,-27.96929697781943,1.4146581101026345,-3.831888607526132,9.22889208037579,-50.484919202135956,-22.426560499159894,-25.27584292308233,14.017446711471168,-22.07793453341481,-4.542992251595244,-0.5124499986969901,-31.212864343040014,31.530245016107834,-6.970677207520184,-2.735900835029106,-0.8985843496424452,-58.26306740373049,7.261943062356199,19.099582502567433,0.032659627772979365,-36.64014475923007,24.304974960602426,4.585930514075165,20.971730289343103,11.057341185429628,-10.215225094963502,-20.770730167735007,-4.3053329182641225,-9.652574252936603,11.873564622463668,-39.51683617648621,-9.290007199621098,25.431318322052416,-12.600968046198302,-5.3606666905271885,-34.67646819811274,-2.6029936633070982,9.007225055998276,-30.83101421711512,-12.180803980171994,-4.774732037360363,-1.003249305942605,-23.986667627600383,-5.3910728194818915,5.0035333184463076,1.3060740927915682,-4.649393232663377,-1.1093706321421462,8.562432306712775,-9.316404719121557,-4.838079466144847,9.366058127316675,-1.0173059235401845],[4.16230714225089,1.2339356511337765,-32.940178330888855,-18.46874615931452,3.2427191340105845,11.49797030094313,8.009375659075118,1.9849383213671536,30.93182888366722,-22.865217335977523,-1.9763256517466348,-6.323619024184626,-9.820275268587372,1.4398064173721632,8.310181907739581,1.7638678773240744,4.746218633861426,0.20756897823109322,12.543679814191393,-6.75377714991672,20.21392449237409,-4.181022631063516,-2.5960900821590767,5.5597114023731375,6.8229234844365605,-1.264332693983415,-4.745504300978932,2.804998219929777,-3.7787615320356154,4.571097476194461,3.6339184449372706,6.284394768149798,-2.3193589909047607,-2.845331803884605,4.574014712654671,0.10757539395506759,2.5265327878985446,-12.256269029945965,2.9397638276390223,7.687123534300728,-18.705613946031683,-24.9219438057512,-22.63137551201479,-0.10701444426034862,2.716531459853596,33.74563182725053,-6.60329466067293,-23.7047231853316,-3.151468255230262,-12.235328911781352,4.64350832019971,-36.05894114646956,-26.868344503229167,-9.28696718353524,6.051500081899536,-13.748248693111336,-3.0777401688090786,6.539505091507481,-20.667373517841135,31.614480328558844,2.805801752526937,-2.920305914553605,16.401610413271687,-41.9975318261214,4.072886283468802,2.2255138767319482,-3.513822184327684,-33.1892494050634,14.847313620222735,-1.2860575454343381,22.51957539690406,7.0538577496589046,-6.843807959103422,-12.05425163190713,-0.5161069044110451,-15.08378350525946,2.5209431867447876,-24.50917589344948,-6.303474492660826,15.393975533230194,-12.371135942757345,4.6231176023882,-21.59673745813681,-6.763404627595051,7.039950412441304,-28.496559087190207,-12.735705682964648,-4.382113715746966,1.4681825995638738,-8.015913639882571,0.6358482801811569,5.845397013568727,-0.3979701094492395,-3.9066852477496905,0.05280866144744395,8.014518688761664,-14.701781964641826,-4.019438327455374,5.985984359986102,0.37532099423197823],[4.356770753566044,-0.12282384129853866,-16.29627487076086,-16.21152086008105,2.77588337146713,14.777065476001926,9.517797548518566,3.240002438893413,23.52349997480678,-22.735626127173095,-0.3070548047029381,-2.662215431508978,-23.56650852355969,-0.2969657596307536,9.026019891397432,-5.188849813940583,-1.8558386857525353,1.2234108429189643,7.659768780532172,-9.426300876276185,15.031845986213344,-5.337116087073375,-7.2072442803273615,5.790306209592283,5.382161017960421,-0.7250935575378286,-5.575723427802367,-2.8810781965479064,-1.7416840362336616,2.3822489168143965,-1.5707451538483006,-1.342117248645593,-2.9191827583005825,-2.0727499351491563,8.500983698990341,0.395087206907058,-5.2179604660125705,-4.489440286386668,0.4587502723461581,5.023674937960975,-7.735753623795889,-12.554777186819134,-25.610041658568008,0.23345306631206078,3.430157691097833,30.207330598640272,-3.4705865148538835,-15.610368085384705,-8.5668286195458,-19.25953836839672,2.2668787550095653,-21.624376843102223,-26.590880313229054,1.1573847463285798,0.4203898952600405,-7.540224722317987,-2.43409723205393,9.649946834014141,-13.135083493645118,28.36293062375124,8.81205939407541,0.08782289181813961,26.4930859458787,-28.443061130520505,3.1624048457871408,-5.8741810813697635,-4.866699287909322,-24.47765310519639,6.401973995366901,-5.381087982434697,19.327802300474968,3.139635573716359,-5.780353239634682,-4.5687495411514965,-1.0959278286587786,-18.6299311569257,-6.0012478136751115,-15.746390241864054,-1.0103103086488079,8.65017624334093,-9.32134770324251,10.820199432618267,-11.695094376156025,-11.679299397556456,11.263390623216086,-22.967864771781837,-10.139553925763314,-2.734767447822641,4.32136983857604,1.5901285623776185,4.2139776048824045,4.419925161388231,-1.215430816544212,-3.9777947074999576,2.037556778568839,6.061848146985346,-16.620690261199066,-2.188871354066408,1.0931181627803837,-0.316937138794824],[6.701645324456564,1.4097462872890125,-5.074933066178431,-13.474433337420702,1.7744469138606302,19.33711866905384,9.553045729738928,3.353808015176892,19.709554250576815,-23.607531923739177,-0.4466842261550473,-0.8316970435573253,-31.534880426170936,-2.3001708453302956,10.690718738453448,-9.585084381070677,-9.832049331503859,0.17055877264558258,2.9908464418905805,-16.782740800525858,15.687545002778291,-6.659586867613383,-9.29195056278521,3.7646754442911843,2.1799670251785637,0.26516441364046517,-5.991397175594171,-5.4280235166402315,-3.271320560601076,-1.217769869760783,-5.6644071714911055,-4.93234142329275,-1.7087536293900893,0.8134645280803293,11.35843516459419,-0.6990196907320938,-13.201583456704675,-0.36779399847925653,-0.834159135974547,3.98520597255977,0.4320639985893025,0.5327527792354632,-26.71165960164653,-0.003986292156552287,2.2063191540492593,22.781754764857958,0.0014588832090155117,-6.336044040941325,-10.767629461411094,-29.160906589032628,-0.7946234695462513,-12.485188782568883,-25.558557717622975,5.286968718388645,-4.876877051787156,-3.7892557752636753,0.11978990088307502,10.734444178145909,-11.190575659138727,24.04655292999779,11.826087841184346,2.050670240767366,30.561157564491197,-16.709327393942687,0.9294412279426641,-6.272415749254625,-3.8159456504621656,-17.946757247407874,2.9459556584947593,-8.382900551505417,15.994881358527186,0.11373186838647188,-5.186130351471133,2.7630308740801577,-2.036942359480663,-17.762529207567027,-11.613575802654568,-13.154871800928973,0.4027728379357605,2.845498411617133,-7.053612563727826,15.47783364532512,-3.8082936679272397,-16.3534681068918,19.08574686406292,-15.192031385981325,-6.883201519785337,-2.1997245995523054,4.592720261473655,7.334873472547453,9.384695447521052,2.849646783766949,-3.6173808707424753,-7.376394729188357,2.7907395680567397,4.455727225483321,-20.31323592405019,-1.8228146815645077,-2.487511139224432,-0.07125978588574931],[6.1084629575710725,2.3185843847317513,-1.6730890963853118,-11.519517429341475,2.7911476492465614,16.566883949216937,9.530931310247365,4.133727067215582,15.8535607203804,-24.238580063774652,0.20151685244794423,-0.18423474683622962,-34.75629491489993,-1.0127656524632982,10.758182126331121,-13.446150042424009,-9.606091950620105,-0.8702247841344098,1.4715893079551725,-16.054267496869862,12.984163777415372,-6.8508796259499665,-8.674993062119691,4.3661161642486395,3.5950472994405747,0.8749350946837454,-4.8960173930967175,-8.608719779760719,-1.0850730980362397,-0.8372377239136276,-5.593476128414415,-7.4189449195215635,-2.3942198817371523,1.514511574777001,11.670405294055932,-0.28056299751008146,-13.53318916335909,3.2702913435435175,-2.1888893390473685,3.777397369661688,3.3548207173564424,2.650546891203617,-27.208474633647278,-0.8454325583532937,3.2185587575573287,23.45044141360614,0.45304777449193695,-5.005208514648274,-12.63289801018471,-28.585056679964218,-1.0930428592176706,-7.761203861973669,-26.28533429054335,10.155487301090847,-4.474632173912681,-1.7873047979656438,0.4634530169164504,11.532445467867232,-6.548914080385449,23.562744688428864,13.961678255429192,1.383659098376618,34.468862631671996,-13.585312957567366,0.12227791457425691,-10.77503181352684,-4.151826919986094,-15.895780327853151,0.7398675996189985,-10.353351032013437,15.490433012813117,-0.20501863504420934,-4.104296275003571,5.364414967899446,0.7845248289534718,-19.058166995286374,-13.811510470365993,-8.964729447586977,2.9171916962709976,-0.7936133892698046,-8.06486272597521,16.091564248204595,0.6859607280845064,-16.294934139131634,16.007882338688493,-13.551424910609995,-7.771435189165223,-2.129539689177492,6.5090967606079815,9.68164931880621,8.35959251744745,3.316664316826458,-3.0749239780628623,-6.826590611322572,2.7291837583691225,3.8024511588221563,-18.430764560190454,-2.356533292025422,-3.905326832340056,0.34754356034704903],[4.712070327891096,0.5803671027484505,-7.441970670637363,-15.480739993205033,1.8257139353159304,14.70624103610481,8.895506748148701,2.857080199623657,19.09652017126909,-23.54985626714609,-1.2331266693953469,-1.2631149682619258,-29.080496671061997,-1.9428528178816855,10.259092931223472,-9.280041035068033,-5.955862677350068,-0.61343391691785,3.748117109171784,-14.550179769091562,15.114946144410965,-5.785831242253444,-7.779440944997352,3.5912922731259878,4.459548280347167,-1.0590604241506927,-5.190401219880424,-5.873820720491454,-2.0767394587264105,-0.051067982162814954,-3.6936294357619435,-3.2761715732077334,-2.821878154716799,-1.2525865472932372,12.051002333628292,-0.5683448253771183,-9.813816518809913,0.7059255758436273,-1.7037500081784347,4.187122489201646,-2.040414838322664,-1.050738302438209,-27.95214200002182,0.4023685752632211,2.4608763446405733,24.59152408305833,-0.765443855606846,-9.507222335376687,-10.143762446174046,-24.469370371430937,-1.480200103776686,-13.471965482342627,-26.912225862551903,6.989648153412483,-2.964610218060825,-5.005489838814625,0.25163896010106684,11.268657213796796,-9.288774448069274,24.991687629278243,12.583996940824575,-0.24425435084624386,30.762757402330088,-20.04187776689443,1.7409018199419022,-10.46294725991462,-5.323341631827464,-20.26672686966991,3.874104753051517,-7.191655007512801,17.02850889501563,1.4197043809961045,-5.269178437851175,-0.21612476093895805,1.053547784099416,-18.672868847411426,-10.427218318995239,-11.74781579824217,0.5221779745837021,3.271236732075544,-9.141061506807215,13.763260413445607,-4.922125788682831,-15.53666346871457,15.221086998947841,-18.299413076935327,-7.94726621921905,-2.435725635183929,5.288096722704566,8.169613298799186,6.628855004224257,2.904886930615654,-2.9317576964163417,-6.013512500114456,3.0549308288501473,3.731693672242944,-17.441151658277857,-1.3533949630511677,-0.956407266937376,0.06342865505655866],[4.002168545130101,2.3596970613584016,-18.34734884910107,-18.1918295360324,2.2763389914550904,10.56337920708939,9.733697009909571,1.1099841281355718,24.297556739093288,-23.180407808003714,0.32913551465583646,-0.7367450063584916,-22.252680447218978,2.2497331116733976,9.691410766032254,-6.246852252030069,0.7657713344759278,0.9035638747696015,6.174614281457363,-5.738540769652701,14.918318550507164,-5.748717297177949,-10.261488035234331,5.472503421512573,10.243771739020067,-0.5272409253817149,-2.937785629514794,-8.033688046162158,1.3394348454799847,2.9577639989647184,-0.6525835712936724,-3.8620466879034794,-3.4905466723269645,-0.8973074639109042,7.994208975222591,1.9362222927110206,-2.9798583735216297,-1.7948812792617819,-0.6514883283542403,3.187650293528028,-5.940021777030069,-15.475922282931895,-26.693519775210255,-0.8692341630889872,2.0243084099230497,32.262075039778324,-2.3541573096690533,-19.326307176595414,-5.450660538063853,-17.38316997786441,1.7215055710798628,-18.454240926890748,-30.809217743517706,5.6155257820337745,1.1203460112621302,-6.741833018147186,-3.793658366680932,8.39449475254716,-8.586776275761205,30.417730875443738,10.7137551644237,-2.160253271014751,31.74315169313926,-29.103007198831047,2.356010376759513,-12.473229782662168,-4.751439593248784,-25.075740613692023,5.927154012634267,-5.529154594425323,21.022344118105796,2.733979986605785,-5.309269140680235,-4.4360014593535455,1.0782298817420206,-19.385589596935436,-4.896552466127015,-10.936824823340705,-2.125001377396502,7.076101556733296,-13.371755477831272,10.369421777064892,-10.814419778966743,-10.098264452984042,5.131889573238677,-24.225420998001148,-12.027724604930082,-3.7609216058608363,2.9316523749023693,5.860754744446424,2.3827642585726707,8.106430929586615,0.2164085400568343,-1.6495348787694821,2.160078084528563,5.796201982545552,-15.93989760846369,-2.7439482699213493,1.2302590650008636,0.17911924805768276],[2.9980865626005007,2.0713177832492486,-28.877980381853906,-16.513233042433267,4.512547691166819,4.514773378193564,9.811999415563076,-1.507567732825867,29.040535269338015,-21.28638480536531,-0.9095075463838682,-1.6245470611629462,-12.402671541107203,4.007689592314362,8.651402397245253,-0.9796308927608769,6.694400988967174,0.1438560800144923,8.863134107183653,4.462718382136694,13.754592322447284,-4.435914016628845,-9.911170158363781,5.170084316042316,11.94939253312097,-2.3628376597633913,-1.647332261516997,-5.941582435122925,3.775740622688953,4.812122729730875,3.1176357834622577,-2.5284634781821764,-5.766746169716033,-1.6824810885832933,2.2791474345994693,2.6372073563741587,5.589566961267602,-3.460650799292991,0.4497863016610119,3.2251899651275857,-11.788578132781833,-30.367994532229577,-21.058050255197127,-1.1741128065218387,3.407658020338654,37.230533908117735,-2.4254781611813456,-28.484831114487747,-1.8894268841248851,-7.945883456214407,3.208590840442039,-26.025105225474498,-32.359204864081136,1.5338844178484734,5.290297156357078,-9.008427879425732,-8.63524919248782,6.667941514364858,-13.396212138983097,33.76466021759461,6.2966964591213115,-3.077826840191094,26.496935333680543,-38.99284727894643,5.576505445621308,-10.235894115754576,-5.43999591906868,-29.817271952304083,8.444385181273194,-2.1523015895331317,24.898143546121446,4.549732057657655,-4.622366464783687,-11.21179329179369,0.532883915715998,-16.59672268334674,-0.12105401600950047,-14.526121459069856,-5.562929391067406,12.119429051321852,-15.209564200487492,5.7495644478553665,-20.932842813052506,-6.361639043219415,-1.9846192420917919,-29.406142784197176,-17.877091110509294,-3.3579189389919306,2.6157147877090035,2.309265723922037,-4.471229948301115,11.87079261322357,2.335789979986657,1.798617159880297,1.924316923977952,8.276568672277254,-12.482718364506484,-3.5269105032609214,6.180741117041982,-0.3985849070488278],[1.1104106116429417,0.6452467369064611,-33.73199424785459,-8.475580329508434,2.235131263399742,3.360507232988214,2.666166365700958,-1.011632557405074,25.147221474303972,-15.77593567570555,-0.25469717158157346,-3.3537090282582556,3.5683132656299006,3.6620617181993578,4.722969086505806,6.399350813168888,11.847681690960437,-0.543291728307811,10.266414344524286,12.52050571929119,12.056894358544747,-1.2973496375288633,-3.6301038656839086,3.062714086390872,8.163234794504238,-1.3550303080946897,-2.2836298755334226,2.3171876852487654,1.1733120493270077,5.623085335093033,3.363564615863327,3.102054918684559,-3.269679941469745,-0.45201770289568227,-4.731452432425298,2.3309027555767368,13.053722939839025,-7.681297793954998,2.7414618846676158,3.4692051733353586,-16.223712180702552,-36.942861175750835,-6.92472072081916,-0.2404070680576537,3.136807529423082,28.862086103154468,-6.267011498314536,-23.789349587186294,3.677428716416257,2.126507107561864,6.246733807390326,-27.7597170735193,-24.190299537613654,-10.506759138569665,9.548458301025223,-10.423408852677525,-10.515106395227594,-2.412508720281578,-16.83037794627335,24.985779581327446,-1.0094617951288383,-2.0271910655755234,9.719645453382595,-42.947601929436836,5.548475500198933,3.90471236158333,-3.021447782228369,-25.253931462116757,10.691731161631857,4.770409027747549,17.067204864720008,6.246245812055592,-5.738276027481606,-13.539454754403247,-3.2803092884890943,-8.134225082064997,6.271333060667906,-19.435951849941503,-7.989016891590597,16.43593618654172,-9.507609302927964,-3.063134371148545,-25.669114040022638,2.3310563748373636,-6.249310803418195,-18.28642731572466,-17.964834583000826,-3.365665217088349,-0.6928717247597574,-7.515415239147968,-8.059255854971516,10.724241227004676,3.1959030242153017,3.158017484041401,-0.934616297314289,7.090148634380076,-2.7765750324397755,-3.914303041741654,7.259999453929159,0.19726129796016192],[-2.015641250338817,1.502543172594699,-39.66649553846565,-0.36484439486639225,2.543299233670482,0.036076820430105044,-0.11263106729802445,-0.5654771684356092,24.74627191015114,-13.285663035522074,-0.03728486697121296,-5.221414631706284,17.931684053493754,3.9709099506902104,-0.5048379106925115,9.914927612697621,15.005728224072174,0.12578439350498105,14.045452454882117,18.87571311143973,9.864273081481947,-0.6902535774090389,2.0263721829292636,1.8668318093183205,5.377929503276594,-2.5132519811742466,-0.7279143196168205,8.237502968600761,0.584000761182966,6.387766336362575,5.455704173986578,7.902908308865424,-2.454684262366483,1.6367634685122023,-10.709722999371413,1.481179642614504,18.053314737142088,-11.812020142427519,3.5949789671710026,4.242143389512178,-16.75212664848722,-43.250134922802964,5.657585646042622,-1.3064183840976173,3.492995397693445,25.22265714078918,-7.663597253890395,-23.68267369728279,7.644784745468853,12.372761852649015,9.352545556334528,-32.48327796413385,-17.90971782304111,-18.59125497292922,11.900556179767255,-13.686060243373081,-11.099365173096139,-7.162255847391945,-19.020164329916447,19.100357396208643,-5.164079449241386,-4.326186716412155,-2.1151335371681843,-46.01221369284162,6.441752763044264,11.220937310624002,-1.0227073642144788,-21.478831652272028,12.134560869924723,7.967721391747156,14.421008281996949,6.835213451682076,-5.875559317924887,-16.661611230895314,-5.49079819387123,-1.8959300694177643,12.532267430825813,-23.64411728742999,-7.951773591347687,20.32712022051639,-5.603779614965674,-8.951622882947559,-32.29611596422258,7.949227551856669,-10.270568446180265,-12.970707309147018,-22.376566749297396,-2.912096196622849,-0.7046777335944556,-12.976485215188163,-12.673383120037146,9.683349223472506,4.247251826424647,5.108752887598994,-3.163203835449783,5.421314155327206,0.9755867225804294,-2.766883233177652,7.809139352257268,-0.37906123212842946],[-4.331073061894124,1.484548880980705,-43.19410435799419,11.886610593493897,2.598011820844169,-4.338039282840386,-4.652584362967598,-0.22781039119536778,21.394759588402728,-6.097569511388241,-1.3406421622453513,-7.224357927653773,34.810967148906116,4.756685403049177,-4.217888135547025,17.4740794160541,18.93678116917254,-0.5109679287243818,14.712285967181336,30.13768901255331,4.700341020268772,2.695050917699833,8.22836541942676,-3.0484665616495765,1.3315658658302696,-2.2956126054032557,2.3041760148143986,12.66730645793116,0.2698895538746322,7.706028544984831,7.287560774039784,11.002338692955243,-1.1822410277180364,4.15458571962378,-19.186550778691288,2.9489923360183137,27.256218020644088,-12.657761205156056,4.98008609126134,3.7814681030171733,-15.85986753803115,-54.11381217563621,22.86735354752438,-0.7110961255517596,3.1508464715930384,17.999551033436443,-9.953013389532268,-18.040123882596365,12.907333531147088,25.792687081899015,10.706376924989346,-30.86304058930178,-7.515653561837631,-26.24831906105439,16.19152130814128,-13.351063985539666,-15.539762465280843,-15.646664839447503,-18.739481872957093,7.323968385346647,-11.65932573680891,-4.6314989067090915,-18.029210224119716,-46.776085618191715,6.899970220157298,20.300618506948812,1.3289275183865366,-16.29011464172238,10.6394702471283,14.515471258770038,5.827507673160571,7.841502085424149,-6.090339103336974,-18.40297394233131,-10.027542171927765,9.039103429499425,18.721135412747035,-24.784144421386085,-9.480539215487509,24.30132734284128,3.3588972036631315,-16.269284508708104,-39.134327441772484,16.803561537953634,-20.54875345443492,-2.713881495695794,-28.48316045256241,-0.5772165886823729,-4.080790008065255,-21.48655530284829,-18.939189161756925,12.540394554801688,7.389698417610393,9.28852753062978,-4.710372186560332,3.6938985742991246,11.544715254234976,-2.8423754387977516,9.86997284984263,-0.039427631482812926],[-7.778708530645959,0.61650712900099,-40.22599691028853,15.015931802610092,0.42379742924289726,-6.428010334404245,-10.065357081565404,-0.8169086726269091,13.391129689210473,4.454403781766844,0.4435122317039151,-6.889347200502268,44.83491864020864,4.368946454812973,-4.255489496554836,22.85132785963246,18.6721577914805,0.1243123130173009,12.815110056304736,34.72875460276923,0.542527998013404,5.41073124874955,9.186144084637132,-4.258828164663502,-1.5832324157632127,-2.572304750613232,3.7463468890142155,17.5771803353229,1.0593692356841748,6.7753763495952954,6.831696769472728,11.992411458387124,0.06684745531430784,3.1978007047693913,-22.838944526495727,-0.380310520401957,31.175329011952527,-11.33002570323479,4.827310126791788,4.167669102577233,-16.6899904301055,-52.29649412248154,30.04909320623731,0.08086012763043167,0.8855784420725371,0.3228283663740993,-9.073468120192558,-14.19109550831364,16.972441028159537,31.563952854816073,11.908351515274475,-26.005418990785543,2.4447486386420945,-31.550228200832613,15.610209957790076,-11.117787177298743,-13.719742819078533,-18.474850713695872,-15.67292645460202,-1.387561501536224,-16.667332179230232,-3.303908605127117,-27.643819007728837,-41.19948668176811,5.234148099519541,24.877973787489918,2.656229277644008,-9.03815255380985,9.640209277648122,17.21869476484326,0.9050917885389682,7.7554709987582555,-3.2309275422351487,-16.940144952899363,-9.389345607208629,14.477316831830047,21.98666100230373,-22.275682090019316,-9.15403707666754,23.006319426121042,6.439212648272674,-19.21534087503998,-36.898801266809414,23.836579668177833,-22.434690592999242,5.465729089751769,-20.642212392811643,-0.020033979089076795,-5.573962247237867,-24.785307335895908,-20.649636650077035,8.823000122635053,6.462454660354107,10.510390261916132,-4.6393691633388885,2.508068836915559,20.413440475304544,-2.424915445880785,12.109122726232476,0.8531045543070401],[-7.614033237685045,-0.15401553703266616,-38.72011506187005,13.714851192541387,1.4117665834730446,-10.237457438815213,-8.62194539672064,-1.523378770897614,10.52002079082589,4.949794324875673,-0.4754389783474991,-5.9880678132507725,44.35894993287858,5.483022970570149,-6.373971970075332,22.1938619896486,20.87444880317717,0.5236826918058256,12.776348740621755,36.32898468786303,-1.9719820765054152,5.265630583458272,8.449887036430436,-3.061747508636357,-0.24459712161732738,-1.1522264842906569,4.146908057922956,12.863800646770827,2.2796139571590337,7.279245641040728,8.058583790689271,10.967027352429623,-0.6909550650792545,3.768737019931087,-22.14803537167287,2.7396784468761113,31.125029151848892,-10.117018610957926,6.117018817755735,2.7588199677928342,-14.521085909500314,-50.52351497520898,27.600823837535533,-0.8827510590669321,1.300440799144033,0.9234257941099057,-7.829355495782274,-14.76086712928571,15.50673788758935,34.50632473491511,10.498092578555978,-24.953342113750217,4.351524368501501,-28.920970668326436,15.275434920343347,-8.787048725670655,-13.68982210615451,-17.10006717663809,-13.435964666651122,1.156822034589895,-14.534965350869037,-4.197938033101107,-25.065546386026426,-35.595440191015946,4.257710974471761,19.753397168237928,3.116639239279652,-8.184791430858663,7.42413322818102,16.012977318523554,0.6075026644353652,7.919070480885179,-2.0852177542663215,-18.513213076638756,-7.741838914868405,14.862731186234477,21.67935763926583,-16.992035577393853,-8.895313100306973,20.932897173519056,3.5179514518283486,-20.265345521263868,-34.86761975324883,24.133079946357906,-25.10237593792884,1.5874549185912048,-17.65220071016667,-0.6328723176619648,-5.745969900043666,-22.404238706872587,-19.036527250071213,9.526462559769037,7.712443733022785,11.189752985424,-5.122553361163994,1.3397203858688849,18.66765299760277,-1.9016367633410407,11.645072423718975,0.1458158358864433],[-8.520264900749975,0.5598852386571288,-41.510205280965884,25.03363585363073,0.16389815916482944,-11.83109814834758,-10.30970000406913,0.4110204785290051,8.871413348689778,4.590673658364846,0.04252827694693683,-6.826876570129473,55.112371570971945,6.307079567253074,-13.318228576021665,20.846042301394892,19.626889929168055,-1.7892365700660795,14.51768089717056,41.308623743077796,-3.7145097070287054,7.449270212553108,17.412364306843713,-5.840316996043537,-2.811610627039297,-2.2349026997274537,4.846338690837087,17.775920151241944,1.4334225757526455,7.273027567225855,10.025804683860043,14.38627979834238,1.0022327029702736,5.955466256769294,-27.97428246382049,2.540933587246999,30.639907001275514,-15.41939980747322,6.859272414078968,2.475857627827876,-12.819794535956376,-50.46815014742114,43.29860016746623,-0.6321591463306095,0.7925575296404986,2.2467814851142514,-9.033308917544614,-9.766053848173195,14.600766552056557,40.62550525971871,10.785412825665036,-27.200991241659356,14.503823174812354,-33.046858246622,18.731822445327683,-11.85676903900586,-13.226959666241921,-23.284181394596366,-17.856184849099215,-9.494830718189375,-17.16112568483688,-4.8878470620055,-36.146674234182036,-33.66580398641019,4.185894122938568,25.799651813981963,2.9270799310479374,1.1075651330337992,9.630422976120542,18.164319664603862,-7.749665763323429,8.554005177901033,-4.118099113453836,-18.089309665155646,-12.318645248675674,22.99537184399317,23.125469550743315,-21.25579892049872,-8.382495763071086,22.73582515426237,9.660122036022733,-26.784746496552458,-38.68221834084277,25.290617385045564,-26.532818433906172,12.446868023662486,-20.804515491591587,0.3559678279041388,-4.506983232695745,-27.427511696035747,-18.232405426607343,7.419244984338572,6.506001423788368,10.639534305708137,-6.6585532870711495,0.26281532468859475,20.70960276515431,-1.7929517544015248,9.85157234619338,-0.26062813203320717],[-7.522513939545625,-1.7128340793843926,-47.60310075447099,24.86871004243264,0.8557953752452997,-5.1425638831508715,-12.607048138441098,0.5766472082736438,17.10387789046496,7.212741732279961,-0.8028354204513815,-12.505407687293925,58.44293697229162,0.8194241827696429,-8.391932643023413,27.481428127969057,20.817991648808512,-1.4408192733816116,20.609302937656803,37.296877560376444,3.32358927676052,6.530944791979491,19.230358652364146,-5.997372498855049,-8.469740804786014,-1.8771234133306636,2.004114534410395,31.12925642507733,-5.808058015756509,8.258018597811608,8.697758412605063,20.543039260596924,1.3339011172921904,5.821824009809984,-28.794107998005718,-0.7705576194728216,37.15585863612439,-20.06919324044493,7.881575793984464,5.686942988329124,-22.09136437822626,-62.82181139715444,41.20254827252762,-0.7073236278589852,1.5964384974872585,-4.115147119510359,-13.586024943418135,-9.07150301329717,17.537313210128726,37.37915367543983,15.147287196088993,-38.31758365833825,11.18235769696373,-45.97521068646461,20.78856055525307,-15.360536950786342,-15.163451691721924,-24.89348968974005,-23.254806641445004,-6.785405464978851,-26.85054887021136,-3.077511810477748,-45.67960847937796,-47.55445216261011,6.616942970263779,42.040409005530655,7.124429032177885,-13.838734662193456,14.420787579750218,21.59821132404945,-4.012142393955377,9.53988761450262,-8.243498290411935,-21.56600747923984,-18.04872221226927,23.59533017567081,29.343976928655046,-37.00479156154303,-11.704368336315465,31.574219005861195,10.283160511341794,-26.646886206536546,-46.330954201105094,28.5490521094125,-19.75910847798155,9.825379483378995,-25.98777865980226,0.9135354604932253,-9.316743320480683,-38.95193331005236,-23.421914900172762,6.4159435502213515,9.365933501417599,8.155534676676396,-8.14667624651512,0.9679789218875172,23.633748978295184,-2.346491348737622,11.269430301068871,-0.577727704261528],[-7.00433784610429,0.17873307626625243,-47.78522131680988,13.40789939683638,3.0062022243721125,-6.976405643646166,-8.876825794442292,-1.368964522315793,20.076672536325706,5.243046704812078,0.8328847437842122,-10.449776340597994,48.90182002995768,4.683368551595923,-1.3740094086973824,24.339817616659907,22.107962733448797,-1.2233879355132904,17.726129616055513,37.9851400267291,3.978261631289927,4.759141233143123,9.667783329127257,-2.221193397182485,-0.7195580625487252,-3.1406252198823252,2.2482211678959576,24.30603903212178,-0.9388067456967167,7.996389371311182,8.127164262653755,17.28732534801798,0.9592553520069473,4.302529652023369,-25.611231165490288,0.6702819902768132,37.64182334659036,-16.268514574011235,6.534842850027808,4.352444991266723,-24.664019625190292,-61.29928944583693,28.807634855471633,-1.1441245551458559,2.2554652072121035,3.6614821648011495,-12.090186206452707,-19.143991510353207,18.0532713440561,34.132508916579496,13.865846715521496,-35.59704293670087,-1.467145989829519,-36.03188396429439,18.548603481188415,-12.70068393506896,-16.24863781423758,-19.711741240918293,-20.854253920642815,5.267641128812625,-22.666284438762062,-4.682938391791599,-30.99086405773099,-47.5430455090268,5.912046656279797,28.236026905150744,2.9584545674181544,-19.280304093202748,13.31989071785,18.883595059646627,4.819463419457913,9.464281829644749,-5.987920098510163,-22.01364015227422,-13.208211514803775,16.491317571212054,27.093167866718392,-29.166022661070805,-12.07415931768101,29.288636176985886,4.318003148242261,-21.48817930589978,-43.456064566081274,25.386580126445438,-24.492130863940222,-0.7021411304690459,-25.729944606288566,-1.5671617562785891,-7.8854394861566925,-31.174505675002035,-23.16870616853396,11.925735418397508,7.965030805791996,9.980555476405227,-6.31165446071474,3.5020622688463465,21.334821773818035,-3.5406335605883914,13.61066747596314,0.3302014866355103],[-6.400866103882466,0.3068316620664846,-52.49704036623972,7.558313129718288,2.140657807454062,-6.410148475391836,-5.892274599089623,-1.5598927783034466,28.361390121966327,-1.8075844199911553,-1.120873769327448,-9.113593495390418,44.79019087445166,6.028297690367667,-0.15897560389030732,22.006614814752986,24.114438043586006,0.8957084282550173,19.912336250242724,36.457836424145604,5.7019145852745465,2.561787159446959,7.254837613591699,-1.4952502546302255,3.536428749117744,-2.208600122293342,1.8296557866085033,22.213259797119083,-1.2050281289238713,8.970506281378677,8.545831558479671,15.076619103111582,-1.50026185270785,2.9662283018843336,-24.66281353028307,3.668367719912603,37.742332316958525,-16.286995291698407,6.887866199606633,4.973924511647132,-26.139707640492865,-64.53110478594039,23.8888541236051,-1.5672792453103328,2.2765954804266166,16.81772167440102,-11.174241803368174,-26.004001684077906,14.66533172063711,30.023605651852804,14.037840691717866,-37.72677151878636,-9.65762974217163,-35.0751464480106,18.81530749445864,-16.99974079430177,-17.940110479235752,-17.44960010450231,-22.55430444892863,14.932189449554771,-18.49325390783044,-4.863207309479792,-21.918846571411986,-57.36812476763559,6.727260165502188,23.480754675961514,2.119634056168485,-27.222628172153335,14.649570510437094,18.26186115343546,12.861691507920524,9.654067254421907,-6.455305114110156,-24.091761603993273,-11.595678856344817,8.099527837465562,26.195966124885672,-31.363192472561895,-13.58870629713658,31.551321130944103,-0.4965659049026175,-17.87185289754026,-46.134633031228255,21.04950176761313,-23.73977682741362,-11.870863036903707,-30.24012830813845,-2.7597846293161026,-6.952853271062203,-28.885034202982943,-24.10512582066204,15.048561797686098,9.362343642824476,10.491896446852124,-4.303858966192621,5.671827966719308,15.017008671112116,-4.480143286563992,14.803969441833905,-0.280661459964294],[-2.8901589286813723,0.39539303400951786,-56.4475488960152,6.4554847528116275,2.758456117222705,-0.2765187790035234,-0.30815090287632063,1.7970747299799232,34.679611658666964,-12.118270257641186,-0.9946290720126181,-11.707223997139298,38.55262532583055,4.78698648730813,-1.9642413745174716,18.00611169992374,19.94088437409306,-0.4226671769107784,22.69196447076822,25.959096013940332,13.091840817558612,2.746776575543062,10.134469292063024,-0.3675457503367193,2.2452440092835357,-2.0509151769530254,-0.1211536149629071,22.23079477398435,-4.546130124619299,9.63274241265988,9.266962041270615,16.2524584333171,-0.5087572011171454,3.096246415090598,-18.710994975567647,3.2327869161507676,27.743742953533328,-21.978527227182656,6.617817048861243,8.879024617933712,-25.19080970211939,-60.06228014971759,18.931685503808673,-1.6091809556277517,3.018955703276042,31.820156880008003,-13.129272336006112,-25.450721936879916,8.826127074102986,21.46760795245942,13.607708314291076,-45.021700126047875,-14.433867529188321,-34.380735465033055,18.922390735777576,-22.10405790177244,-15.530470948815386,-16.49502142562144,-30.18158882722389,17.786502219383248,-14.268210525453524,-5.65522533110386,-17.144661206199824,-61.4415907778581,7.481176411501998,25.611586746790394,0.8475911289865558,-26.36713852559614,18.543248774296355,15.351489401163624,13.419163085900378,11.31685054196647,-11.909854824028303,-24.77362568847012,-12.912607485386316,4.625164141022176,21.226848379098286,-37.95639774348385,-14.02602082489701,32.03851899403302,-0.8288441026946985,-15.875690554148829,-48.831219416335955,12.422393400646236,-12.630415531066404,-14.330345983970524,-32.035485295842115,-1.4648430202164846,-3.5956710754469006,-26.735255534889376,-17.938526518497316,13.1425636125432,7.194930232589992,7.017370114702302,-4.771422379292964,7.212054723140416,4.669678290075755,-5.379625836936833,12.706859876933068,0.6302483457679239],[-0.9046228146005887,1.745554302415227,-54.46382375523944,-2.5471323591369233,3.990841807050351,5.574398300366198,4.131569207581741,2.3478042620782773,38.65025185210862,-20.816331926548706,-1.5892397880155416,-10.1395638883603,22.25626700468835,3.8915278650732827,0.1853809598422873,12.745845971037756,13.822445955796399,0.03607144306069879,20.947975227202228,14.316520059943006,17.367576289093076,0.07822634478793176,8.14310778056326,2.576465131757979,5.748462142012083,-2.6418230810533894,-1.1154023742159291,17.17581768319037,-5.757840384120209,9.876721795786882,8.399368820168535,14.827308653348515,-2.297021674622098,0.7207083105480151,-10.578954911842661,3.199434785749086,19.017513538112915,-22.84935716278821,6.136520777858425,8.71728767106166,-26.44077290892441,-52.439013380131854,4.772376566304531,-1.9491899267782498,1.7983914536576535,39.59585353318339,-11.351546715074246,-28.4940931606895,4.03407028987217,10.374158934897999,12.622083128709079,-47.99470125317493,-20.28095592538544,-27.850803435383447,16.01418422289739,-21.538654257890887,-12.039398246518338,-8.364723477098638,-30.071921864140627,27.080066184644632,-7.762491994999548,-5.637013367523028,-5.699690209209636,-60.89622909868084,8.382934833393197,18.604823082552173,-1.6609154426010526,-30.712653008082974,20.352015361776495,10.306297803589834,17.576840163830248,12.271535234366096,-11.035516252912405,-23.838263572328415,-9.17281379188831,-3.358046145748325,15.404976974377963,-38.50321987888783,-11.500773027815523,28.536843450825938,-6.518993302834975,-10.970174227553224,-42.69146271892659,3.585839995923273,-4.973853607824467,-22.515097363576917,-27.72807653584856,-3.013025433229184,-2.6401378625210707,-23.37976147533627,-10.89665537067264,10.496719844454367,3.517771062951751,1.6224659185987667,-4.079771015919955,9.040226216168309,-4.1360361612150855,-6.0270750555260015,11.010870272522997,-0.5243038771590987],[0.8016980806452765,0.212933840272123,-45.94162402550148,-4.004988262067022,3.3967770661114245,4.772720363116146,6.330797723632921,2.756585796002371,33.73507188368287,-22.232649380239216,-0.9834846117574263,-9.133681190034531,13.755440373913412,4.7564356366786935,-0.02434892892258213,7.209987262395396,11.102185692673627,0.3856915817485418,18.94645746458555,9.156331442745643,17.06956873494993,-2.088853012055206,5.343849977952036,3.7253340643092847,6.593634822611462,-2.073925187751951,-2.130120673652874,13.005329231458614,-4.738942315372976,7.541373930810839,7.560822563611524,11.556832200324703,-0.9483876979037118,0.08172108810205217,-6.844919416866307,3.7423241290633245,13.387223425052373,-18.639784300423038,5.652669670832608,8.731976057868103,-20.958242878501444,-40.037537361038616,0.44115886797878895,-0.6410004454861695,2.0535979126947312,37.77039905904237,-9.46041343841956,-25.404092917262865,0.7025696802189685,5.337858080744872,9.517296492481075,-41.0096836022356,-20.609254818411166,-22.419453292078217,14.329869751192453,-19.505701232465558,-9.232176347399356,-4.274030777494919,-26.302758881826243,24.732518020665786,-3.7625448941279136,-4.74309084697893,0.5562474282925569,-52.49016969206244,6.9977759104695645,13.087327172516067,-1.9074676139446376,-27.795007967111207,18.622412516079592,5.2856853227980825,17.666484712393213,10.924362137879248,-10.795328901343854,-18.433034587958655,-7.436020234730067,-5.657672982069502,9.264851035443554,-32.372520337545986,-8.996707690567284,22.71637391491441,-6.529737242497032,-7.171384039319316,-35.7898706499919,0.3744955734832712,-0.9759097167674605,-21.87551558570381,-22.833391295685676,-3.6335049144261427,-0.43295227397913766,-17.585132250688293,-6.4401808031005014,9.499317185500704,2.8761790494083366,1.4352866746955268,-2.196478780018534,7.346058503530292,-7.680387497921733,-3.8050297225214207,8.004466907848625,0.13871818549512177],[0.26116567544380576,0.38327296794887455,-39.943612972087344,-4.1316993635799815,3.173148988914717,8.346512197663815,6.062945724140398,1.808022050049812,30.862271497550225,-21.441676001206375,-2.021655750734498,-6.831789083422832,8.55016249371118,2.0754257881838276,-0.468106838349922,5.050501014691505,9.883894187393626,0.0790516050751647,14.872847555090843,7.20545519048351,16.241042665591888,-1.9888692507948273,4.532817994735348,3.099941656831184,3.0370026570718043,-1.2579282153940659,-3.193599429441606,10.673365432194467,-4.782321783895953,5.930272496865123,6.604490935877799,11.249740193258965,-1.7848803260535642,0.6931381461264273,-4.390190715788884,2.9939276740134364,9.74015775396678,-15.965864242019133,4.055056030611008,6.927644511165257,-17.103170420693075,-33.4279698030981,-0.2534369868836048,-0.1724104238377996,2.771590953373359,31.892424301215996,-8.406030284855863,-20.662764883129217,-1.0379660611178367,2.196501448835344,7.631520277528283,-35.549733815335046,-18.146161071470317,-19.056902613911635,11.368224928518348,-16.597746978511285,-8.69171455928098,-4.496533766921161,-23.485211995146873,21.40518004721316,-3.172711161112967,-4.396030233440764,2.26654215944875,-44.22445929381812,6.518075167480005,11.699524052862941,-1.564242780155311,-25.233356675747398,15.630312091515146,3.9756861820868683,13.735082334220758,9.040844156832119,-8.737917864256364,-14.93047368645259,-5.786487005309395,-6.116070334810115,8.291623733108443,-30.702700181610016,-6.905834497275986,19.764635641590445,-4.237068692791518,-5.627891561404177,-29.237878257180572,-1.36964089945999,-0.4837610938452515,-17.7773911656739,-19.23837569082958,-3.015451171372981,0.2150436969890498,-15.57230071968686,-3.223026200555342,7.132709662964753,1.9474434260755913,0.34645949551157856,-2.2846788356969534,7.277484400552069,-7.368685303260798,-4.595220254880675,7.082970713621867,-0.52975794313719],[1.531209588581308,1.024350215066474,-29.456868417493563,-6.231882296106523,2.7957390234088964,7.317468546724221,6.4681501402525665,2.1433275014122017,23.77513828129064,-18.098910435179498,-2.004437619792973,-4.247178789426847,-0.3438776176196967,2.858533067394205,3.7098204935886874,0.1945596342660535,6.63334137448306,0.2866400741091,10.445765182356675,5.65026860605464,12.202646747466039,-2.585545085772407,1.4215301157347409,3.607897862891978,5.492958618298767,-0.8818366027424278,-2.6203537361338722,5.122239675831039,-1.2092722611698896,5.152581208042849,4.188405035206555,4.420626218948676,-1.2408438054100366,-0.5311096039110359,-1.778152645537366,2.3284084738614275,4.433112020782279,-10.96003190086128,2.49114522822972,5.362604877321862,-10.698544757709618,-25.74308738725522,-8.311554942869067,-0.477849969377357,1.6045657298918254,26.010805599692763,-5.639781476928644,-15.625578203457328,-2.5671063711980597,-2.904652064850522,5.993344262527615,-26.349515452147465,-19.805326982960455,-10.337680066604737,7.052732884413908,-11.040634586486007,-7.0549946744215815,0.056665881824884065,-17.675458597306406,21.738176490370194,0.23163231651210497,-2.539785296155799,10.06427362762906,-33.39666835415322,3.4562812103214577,4.703179694664458,-2.539252506288244,-21.38617547701043,10.376278345660667,2.7155827030909663,13.881871348769934,6.318134686206826,-8.003978931140324,-10.056371433790094,-4.615134072655979,-7.742558004911279,2.827290215572832,-21.60793523832405,-5.14455889031546,13.00767508202836,-4.654062376009215,-0.38488757933751544,-21.755783503112873,-3.1537515528633167,-1.1236508536100016,-16.147080247288216,-14.24610910413579,-1.750439599723823,1.0718486060975916,-7.304594035151882,-2.67672408039004,6.500024329405185,2.166824040501911,-0.17150768089691987,-1.5830902052769342,4.570182180900843,-7.9891202995815584,-3.3801296431843437,5.748361104594849,0.37279538100044335],[0.8576429159269676,1.2011588883306317,-16.93045566969173,-1.3623810067491027,1.3976222621980632,5.8750996348145454,5.412627369400911,0.9014383933496479,16.117284699469682,-15.721164457122686,0.3451318206739916,-2.9551151408120164,-6.427351639006011,1.6914448939836169,3.71979840516706,-3.2353710389924224,3.271978387787921,-1.3627324325512822,6.563053554931326,6.346652039476617,6.596315714437605,-2.3625492919784357,-2.5093769456517214,1.9300809870513482,3.8799986491146634,-0.33508595845201083,-1.056124910433192,0.13006420056064924,2.091074320865853,2.0758443067113532,-0.541022507867334,0.5684463955578677,-2.833662049469674,1.7773653152479538,-1.3881569082284075,3.019550007394831,0.503800401559464,-2.2411923104811264,0.7502673216179927,3.2755944374012294,-1.4845620673228064,-14.973976144344562,-7.864598511234697,-1.3343085022534744,1.9069055120631444,21.152919636705366,-1.9897272597216495,-9.521790013097865,-2.994382879790312,-5.659634933393012,3.014398453878407,-12.97783430498748,-15.982758197769925,-4.101269173150341,3.8085717105173336,-5.11825369197648,-6.736369801110435,0.6684842898011027,-9.699712799011841,14.496860879401266,5.0698121650636025,-2.333009527072715,15.544569886712358,-19.37996305700138,3.390248576595644,-1.9895581025721936,-2.7515861338779795,-12.498746116055722,2.9168129834003107,-0.7130238650453536,8.197187546170966,3.3630252342523557,-5.112022904420233,-4.213083935995771,-3.470595578081176,-7.127697263821852,-2.5202359361496356,-10.642053246439236,-2.2474375889761506,6.017037334728658,-2.1406708752756747,2.634028072430148,-13.942559945542866,-3.6956839036649494,-2.0740981025140703,-9.589707926254212,-14.512505341957155,-1.2351403868670572,3.116054806730071,1.4279364371303367,-0.6226825334152305,7.649384716068555,-0.1306842297513906,0.9707243020176909,-1.166724004661462,3.2975609212818524,-9.099907854542526,-2.1275084049531583,2.704076557901502,0.2591008413487627],[2.3140708458165573,2.066548745626104,-5.30265508686384,2.778741418516083,1.0935258975596351,9.341943225086654,4.74225891655936,2.5038839307645837,9.211050898938637,-15.492578831065165,-1.3551075563945107,-0.5888009134685361,-14.812447065154654,0.09792411444153108,2.65007733082147,-8.246840578706099,-2.8536325947426215,-0.789704371053782,1.561554740342897,-1.305256804168724,4.698561166377045,-3.252031699582182,-1.4937010594829632,-0.25952407162787466,0.9707565305058993,0.43384442026689995,-3.061447717868335,-2.789770492250176,0.2714573069002419,-1.484761201211608,-3.6538535584042875,-3.6389747043579694,-2.8703127747123913,4.305375107811012,2.3319075475327007,0.9019161728591891,-5.934228395424501,1.1016733711649391,-1.3705083277432206,1.6147586657427082,6.870508597285575,-2.6847715741202185,-7.235800850381434,-0.6719459835885822,1.287116885279587,15.169134242258297,-1.397053564616687,0.8290606872494198,-6.87150357554446,-11.803886071912999,0.18786501924503365,-4.9621583393204505,-12.03864457750762,1.1158940713107997,-1.7540042340653434,-0.0904100086576575,-2.86262554208147,2.460773147095524,-5.373935035704987,8.62708042777281,9.753279195848858,0.791994402982973,18.155076273824562,-7.983275250075938,1.5267711397986206,-4.910699712258225,-2.9425553543787086,-3.5713133852304253,-1.8472512585898162,-3.0563893442585526,4.367848210270563,1.2103592367666083,-4.6603171553072835,2.7180183413533685,-3.4598261100684433,-5.681056438273563,-7.501351655272649,-7.47958087041878,2.0493638640456866,1.7033162872756054,2.4651811538165314,6.617831264391249,-6.907243845593025,-5.992283380130292,3.5623153397346616,-0.13757182517690728,-11.882507075320488,-0.8596857179647281,4.727279739141635,5.435106213034749,5.379990585832514,4.018019231503574,-1.0994556481626145,-1.668875252878361,-0.4456374606994563,1.652696304061242,-10.363419298722274,-1.5618049242962597,-0.9494414286418783,0.32590250185476805],[1.2075733394073682,1.1323277433196224,-5.9432951206379245,7.034804052773821,1.8283840762963803,9.953580644100432,4.758391384291915,4.437975604651391,7.8528564069960485,-16.28831163010833,-1.0984399658092092,-0.8667096090027809,-11.681460171531553,-1.1096762185207545,0.4771578116736412,-8.31956991229732,-4.202777590054537,-0.7864402336673705,1.5714972857038083,-0.6201800216041425,5.9043729760857415,-2.103294253837102,0.6146076067299859,-1.2723904121872254,-2.3428479393069614,-0.6277394857542965,-4.285100951441356,-0.8520195784794125,-0.6003641596859381,-0.1709260991975871,-2.5191014531804448,-3.080039487300632,-2.59215990442359,4.396855053475375,1.8604209686750952,1.7573103083577961,-6.611942765480555,-0.2442243739863652,-1.0084115500855266,1.9907166038091375,7.011332601459298,-1.094041383586097,-3.3321097460031703,-0.11604473215713386,2.4360264218857353,12.6969353430068,-1.0946964672217974,2.9323263101115837,-7.284458304981677,-10.905035687090653,0.22303816873056592,-4.345683990503069,-9.699999962975971,0.4139839083029459,-0.7745502129091428,-1.5928198825686188,-3.8382622985881714,1.423075721888756,-7.347153171539377,5.307936069014074,9.386170046620478,0.15534827720824126,15.28716731439306,-7.394254818889527,1.3408349244122995,