module.exports = {
            network:{"levels":[{"inputs":[255,255,255,255,255,255,255,255,255,255,255,255,255,255,255,255,255,255,255,255,255,255,255,255,255,255,255,255,255,255,255,255,255,255,255,255,255,255,255,255,255,255,255,255,255,255,222,227,255,255,255,227,190,255,255,255,255,255,255,255,255,255,255,255,255,255,255,254,237,247,180,6,0,184,255,255,255,255,255,255,255,255,255,255,255,255,255,255,255,255,255,165,92,242,255,255,255,255,255,255,255,255,255,255,255,255,255,255,255,255,255,255,255,255,255,255,255,255,255,255,216,255,255,255,255,255,255,255,255,255,255,255,255,255,255,255,255,255,255,255,96,254,255,255,255,255,255,255,255,255,255,255,255,255,255,255,255,255,255,255,0,64,132,136,136,201,255,255,255,255,255,255,255,255,255,255,255,255,255,251,0,0,0,0,0,0,75,255,255,255,255,235,170,170,179,128,39,34,34,8,0,0,0,0,0,0,50,255,255,255,255,205,0,0,0,0,0,0,0,0,0,0,0,0,0,0,50,255,255,255,255,205,0,0,0,0,0,0,0,0,0,0,0,0,0,0,50,255,255,255,255,205,0,0,0,0,0,0,0,0,0,0,0,0,0,0,50,255,255,255,255,205,0,0,0,0,0,0,0,0,0,0,0,0,0,0,50,255,255,255,255,205,0,0,0,0,0,0,0,0,0,0,0,0,0,0,53,255,255,255,255,205,0,0,0,0,0,0,0,0,0,0,0,0,0,0,159,255,255,255,255,204,0,0,0,0,0,0,0,0,0,0,16,170,245,208,250,255,255,255,255,163,0,0,0,0,0,0,0,0,0,0,152,255,255,255,255,255,255,255,237,34,0,0,0,0,0,0,0,0,0,0,208,255,255,255,255,255,255,255,123,0,0,0,0,0,0,0,0,0],"outputs":[-1,1,1,-1,1,-1,-1,-1,-1,1],"biases":[0.06418861798385522,-0.02857236834354864,-0.08358461910840674,-0.2746382669250463,-0.10729073897052992,-0.23712787051041584,-0.8790220138501085,-0.06933102389807444,-0.07411430456376703,-0.1309782617135037],"weights":[[-23.574338252691206,16.349460689015256,44.865891309301475,-8.333695939055286,5.430278548059591,2.882147819329696,-11.93802318307356,4.001737471974105,7.1325952289221215,-65.4093302767409],[-20.09104702085254,20.718385641980024,36.19721718194802,-8.11166146298948,6.764982084470189,3.0805274875135447,6.310080750161401,3.21354446116864,2.612310009555844,-57.26880714014689],[-13.604575393821023,10.623922334175104,22.144549195092313,-11.80442233375472,0.4504666860329675,-2.609624591936923,22.122720124813863,1.1100509793127915,1.2125497880598088,-83.91086186241571],[4.234521113898432,-19.352894552183418,11.24433168130209,-30.191046614462653,-6.608240514233204,-11.293995166792634,4.719070896415848,2.4974525723429086,16.183205672048107,-97.65853357932446],[14.6552423319304,-14.42351207407689,-4.873551259715302,-25.732743856523964,-10.512384012527173,-6.115258372292307,16.09941599988918,9.407637383351467,27.24841843462969,-147.35790065002053],[30.97106991022756,-29.364085785832504,-18.704719513489692,-21.268340062885244,-6.7996581280359045,-14.901968799771968,19.21537669783286,12.456800376084658,21.97927362522249,-186.94739039836645],[33.20956760758557,-15.462346229156935,-34.33618427079896,4.273263109645644,-10.444472663126577,0.19522340775069524,37.61111763247195,25.211769091596533,9.377446601619761,-225.63823817753334],[43.471429621357174,8.80857050965611,-59.55921790015379,3.1647717601915604,-10.73839690965236,5.209522661670797,35.57243813244967,24.776459927412596,3.131192803913481,-141.7498112800076],[30.016367869490846,2.858923206031064,-35.53656930881203,-8.113593828789678,-7.926669664801677,-0.6184421903141604,32.747801427783365,23.08300574122147,-0.5890948595408042,-126.31088582685433],[28.23046508414634,0.6295533787218626,-36.5086573202535,-7.307953353278827,-5.365243348542408,1.203067692687165,12.07532156919213,26.253968290827714,-4.1889128319106685,-147.80508713608964],[17.297057626273883,-11.305731341603382,-4.7677356679348195,6.3452959252096965,-2.125119285106296,-9.666896711209539,-55.47994294050863,17.281957021952515,-2.0802245665623786,-66.89488670195907],[33.19375754737646,-9.01842120537294,17.656559444977542,6.679157607043865,3.2162170600647504,-8.127717855342713,-79.92089765149484,3.540650829888214,-11.405834822614088,19.673961747394557],[50.18502997417275,4.989168540705674,32.75643238078169,1.557321702707802,8.320386524724439,-3.1189728963802055,-66.77432417790209,-6.531473395738826,-13.261579230276068,62.73070677443509],[34.1961788443986,0.29167406394349116,14.566833820842673,7.994346401343384,6.899590488965459,-2.1235439199643675,-43.214025757952164,-2.7784873097355285,-1.118346749020364,32.08804930905132],[12.390668843211765,-0.5446970034599682,20.918628185474446,5.318834615632778,4.910517478656644,0.4910917412754268,-42.805789024506716,-5.841641656200768,4.692035396570005,73.7518647609233],[-0.3460826798537975,-11.125490659496952,30.824159214207878,-0.30702154515828917,5.015858076582355,3.9518120806194887,-42.81166422157693,-12.69726336571511,12.118739055540136,102.64744140109067],[-15.726914162443144,-53.880239446390064,27.83565481297932,-0.7617178733969865,1.9387800894882552,8.404251128611758,-19.410218912809714,-5.205082501129372,11.39095839579773,90.8856129612095],[-27.998972568990517,-70.33269094816475,15.643552789057306,-7.625375274251795,-0.5397742386884251,9.089508152854709,18.08275839206277,-7.225053748421861,4.74824471797192,49.00164629772239],[-26.38705360245311,-56.741994620491646,2.5756511708267347,-0.6255005299200977,4.77781580246939,8.986214026257375,44.18879810621256,-5.2999062010816305,-2.3624340089266025,57.301882456380284],[-7.025965401569165,-36.356800371736576,-3.549633907995399,3.623007264123655,3.9331103046499094,0.9201373088988092,42.51900041548661,-16.21633443805225,-10.44506129871303,130.3778109712822],[-16.236422792556024,6.078735021508659,50.85254329746888,-15.646836849978163,3.6720435844419366,-3.351057259349704,-2.177052473531597,5.039139937666401,-6.699853244881978,-31.181420586606095],[-12.514104278662085,7.434359687520439,42.60808939976632,-5.273791917002456,9.799564767414799,-4.077864721500343,21.411002648322558,-6.422784302562557,-7.397471377222164,-1.548786792758977],[-1.759967826299351,-23.235120304358933,29.21693659851634,-12.483553689244616,2.675919335429454,-4.7663405833129895,41.6971031267511,-7.863006235996403,-2.12127642641117,-25.300713641146977],[15.653298609810058,-25.619880165589212,17.285065277422497,-21.07529364993449,-4.993733279213385,-8.382387829131503,10.946673381770513,-9.066855936960472,15.691306161197502,-41.20841378024919],[22.764561290760845,-35.14173226895962,13.430193546825071,-19.224470841261823,-4.128681771066911,-5.0880868607674765,18.53041244292257,-12.397234604199582,17.872396695399132,-64.02853666207271],[38.67085173516589,-25.356524250680703,-3.0186641106396865,-12.66806734955472,-2.7651026437543433,-8.023546175334253,32.66216935129927,-5.125165523971278,6.005440681366423,-92.6186181942185],[43.77754293540819,-2.9289078073759303,-26.31684258346455,8.942378085592617,-13.371943852808473,1.9769349681819193,47.54895458658057,10.699986731414024,1.7253717776211737,-144.3149335234534],[34.41372623216683,11.647568754347061,-37.029802779857825,7.416665730485547,-12.40326894479472,-3.923015890100124,30.94587462546691,19.893759353855728,0.6525085217483116,-141.70645497257826],[36.51807545594724,8.54727179295696,-30.978474184600604,1.743860777795941,-10.189058441685185,2.7330748729757635,39.12887750232327,18.525429165765026,-6.838924116309459,-121.91069152926659],[30.028501358667256,10.180390366371038,-27.70566751980853,-5.423240067079276,-3.8361712398358816,-8.690152505871938,11.276058801492773,18.22949772962547,-8.97977497897517,-137.48725123634264],[20.979527493657145,8.82039396792472,-9.575091588713091,1.4797275972887578,0.8862789618340269,-8.026657301424748,-38.45856808643297,8.308582018677836,-1.255283479451166,-39.9065237433951],[30.573075999351406,3.1689727322436094,9.756687884903064,6.750761887858094,3.1136071093659843,-0.5679915460411396,-74.0779549569686,-7.777220625216913,-2.6779510643932163,34.19901326104976],[38.140557862798026,8.611087835723776,19.291033344246138,-0.5198471747040626,9.531369571023452,0.07461040104936649,-78.34665115664586,-9.00435174867438,-6.2170136053143255,69.82069053205421],[34.77690386969951,23.615710908158444,28.134654425427286,11.384605979928407,15.419802090735365,1.046636482678255,-69.49715460124901,-22.60692846345705,-9.155469448850878,131.02485677687272],[30.2482896641122,15.00705216114199,33.59171937463906,7.058846118518523,9.113068375945941,-5.981045454411743,-61.95152965876061,-15.95793301344112,1.3475406500395728,120.59178517282126],[13.300774575721446,7.963864330729091,29.408596312250726,-5.640981744127372,8.102021102866722,-6.313710016795036,-64.0252142449745,-19.367882772926045,11.823284281751151,116.89217752067778],[-1.6315677554538994,-13.495614110622347,30.87073491846434,-8.948357046996417,-0.2215418403293071,0.04505768087200394,-38.549493248704074,-6.310854976983717,8.381419562912223,86.40480787031827],[-17.66160753029309,-41.561815522121044,27.53938449065443,-8.15589375904674,-1.796657308901018,3.5274442582426113,-3.657932175208104,-7.188125892387662,7.861562649858492,95.8391256080013],[-28.724694077923186,-54.351467069666256,2.3618892699708116,-8.971794925998834,-0.36874870205668414,4.3796094537311525,29.9081902760028,-6.481013657324017,5.432791679562558,57.83770645452492],[-22.6361307609724,-37.88384999974292,6.319303788489259,-8.591928342450903,6.289395371874723,11.348741876751633,31.01372926513185,-16.179099404698217,-1.1382351270447804,86.98517607256075],[-16.158600670650927,3.456058229120356,46.745920750076166,-19.925503949801513,6.043665251930162,-3.9106287540264266,2.298524080279515,-2.3028595457816117,-11.170177762714843,1.1661289121586202],[-7.68934443876619,-25.920039857252316,41.251659982328455,-10.586850154405216,9.723801641783366,-6.148991268900737,35.10090848639818,-5.252559944752608,-8.301927761802006,14.609212428427899],[-8.29063728621482,-27.31274454950041,43.38096553703066,-10.3273667622924,3.459133180490032,-2.169104953007629,33.34695353081147,-6.184400220281401,4.4854123845159,-27.492841266831537],[11.1158729012209,-33.25060508467798,21.359502311574108,-4.234417496970745,-5.396179373000719,-8.56716610100351,15.423411424077768,-15.566701780441159,14.687048881553524,-31.285508501606728],[18.292088725359843,-37.66413547012581,-1.2082998835190284,-4.601671650776642,-7.899564200860448,-8.324983236046108,38.59748734647809,-12.946156225416393,14.157152372955855,-57.99889226555557],[14.639128101548605,-16.601784832142005,-20.819866362914574,1.1921930653538553,-4.109064581974868,-7.081348486304756,61.359382804016505,-5.910880192684237,-1.1697252549848347,-66.6450250888365],[8.615319413198119,-8.170893889494657,-25.617445551373834,8.896231848099012,-7.250439184370444,-2.5700916881081075,56.781529711091885,0.8971388660474707,-8.253619642140993,-75.83179091302132],[11.719250859793672,12.49683718647458,-26.057411675667222,4.002407528628163,-4.35043285321563,-10.136461324550714,35.207952781296626,9.590711675976879,-12.16085860460348,-76.84589320067758],[10.007110601141775,15.4931647128254,-5.344668196168299,-4.059764654775933,-4.361278198571228,-1.435977137259847,12.024412402879797,6.881591138299444,-13.331971918755567,-61.066408847965334],[22.672688635194294,19.710512905392743,-13.246910923753017,2.1391373264528104,-2.3526938841891076,0.09009863767764457,-4.565153596927212,9.048897919072607,-17.909756907074716,-58.1604323440185],[25.464148386720442,15.365991361927856,-8.225461772257766,0.6032269686111785,0.8851562803791958,0.3464087212089219,-46.04436155750237,-2.119100837541264,-4.600098330026922,27.054457760246695],[32.47794748872835,12.433080080869958,6.780883360260913,1.588937480475624,5.265252004012744,4.009540022977248,-66.44449675775911,-12.159238054521657,0.8646167365889782,93.19517808854233],[44.5709435906185,10.214483505619942,20.475872380078993,9.992424021566913,13.23395859078633,1.6405353760882235,-74.21425019919526,-16.300579391840014,-2.7130476005496784,142.1455011100118],[45.172557000994274,20.731115325796555,32.90716751167357,16.1937861186058,18.465523588483794,-1.919211713767017,-88.9926981869294,-26.465057491383934,-2.63676398925438,164.31348801074236],[31.95331274659871,19.279888754880947,33.35001707959805,7.76624071419156,16.349004524052365,-5.0403410640680475,-95.73904606247783,-29.175396931358506,8.497139021694693,176.70566897220755],[24.4814618894135,-2.589386884837663,30.12919695402188,-4.288010150563777,15.57143788420713,-4.976827823818794,-75.65595264126055,-27.17981164935752,7.478792648988549,173.34898075348306],[5.43007436525634,-5.998175182073813,0.03075733815878691,-11.1458388694638,0.016326000814473503,-0.6612313279604061,-35.81615816809829,-4.335414439409366,9.177528863429403,79.33113869026735],[-1.8711609952476864,-19.09239208250173,3.4055113734227236,-7.687093238372756,-3.294340573603153,-4.239859233124613,-14.71728267770074,-1.0748917666850974,4.676045659170534,62.73702469820283],[-17.46458171503281,-46.34615089625238,14.844690867316977,-10.569370977390417,0.8418921353351965,-7.877105209422859,-5.475721448765174,-7.930774101711564,9.764984996865124,84.76241362701805],[-11.323086362459684,-40.467622452911854,35.524614385225846,-19.954281129084855,7.255631915767175,5.974576756021043,-15.60575883973697,-23.607949824188402,8.606515161119875,126.81875885776078],[-1.2513444685023738,-37.5890633512553,27.02910794477326,-13.895541624686633,1.835730976879476,-5.50657830577496,-5.253639942205964,-1.3126739085568895,-7.760868523910968,18.88744855119759],[0.5303826868848405,-48.31166875857539,32.94763414096547,-1.9110263344182874,4.0618563386396085,-6.605555047770922,0.7290241062807626,-0.5406320686102117,7.99459445663822,1.5607709612798741],[-2.076559137318978,-42.15338617486625,26.481779693498467,-4.629730175691491,2.4466946615221317,-4.2799829326691645,14.83705618274927,-2.871972672813657,8.761439064281955,-6.328786826559789],[8.768136511256383,-41.09918641915808,5.04191049806922,-2.5514780692614156,-4.062829567594123,-6.007401036957513,11.414589457085546,-13.972803299434464,2.5311481647948177,13.923607744525203],[10.401406192077097,-35.90342182322136,3.5824498930483473,-3.2624799547789767,-6.777569060684314,-7.943802879628161,16.213349652247103,-12.95883248609205,10.532600814778538,-12.078699643822338],[-8.095111870386347,-22.142400765691722,-5.23545970254287,7.136188444854108,0.29070378396161406,-7.003448093350445,55.58291157775549,-11.845330493693453,-6.969046223434591,-20.177299488927552],[-9.96688422544338,-16.56516995271689,13.112870674767473,12.788751957733618,3.070497803759394,-2.5765712601925848,23.4764527075719,-20.057209578308143,-14.497568810617365,30.953550722515892],[-13.58694031411503,5.938923182212386,1.805253658535562,11.92762269920681,1.9783441021371302,-4.154219788841425,22.393374060071988,-10.68493668388907,-21.804122755854568,30.657545532956103],[-16.17058422544095,27.901781759191454,16.901011951595894,6.451853901181536,0.7627084712464421,0.8276285811241065,11.677073507135102,0.8135793380026792,-15.933213875476747,25.798794842383167],[-2.406414512017361,29.684832843878123,4.153945672305419,6.94708420378981,0.46461098194001915,6.461469116737411,-0.8226335893260496,4.97590098773514,-14.700283704322755,35.94343335810385],[3.005973842621625,29.04691388607035,-0.18225162575401224,-7.984787108493007,0.27692655985023235,2.9069269560920072,-36.00036127211914,-1.983141869905588,-6.507258121878506,52.04785145728931],[32.08703851111213,19.103232142176992,1.6196322164138859,-5.309911770412107,2.0067988758056208,4.296398120467335,-47.70857707053993,-9.677427335555054,-4.711767285515638,98.96758723465162],[36.19736805499343,51.00519366059403,18.379916806899537,11.890763178390989,9.992652277174724,10.986781840487202,-42.69650272048671,-12.903939843314067,-5.920460947217843,130.44840468878547],[30.75848250683149,41.064170960412994,26.6545519546067,13.214024520466085,13.216086784043458,5.12434601015966,-55.97051269406472,-23.66582478571952,-3.4091610101839986,140.19861461636808],[17.55498802117716,20.472433459103176,17.274340493257476,8.720961765678963,13.144689157925832,-3.333870189546641,-60.91633966571944,-24.699050010019803,6.8586867645522585,133.34158744313174],[15.910026220895096,6.256711485316278,16.72637096738811,-2.3748578860536664,17.989321162851066,2.14635131685231,-54.67487996714867,-24.728095642567652,5.4605605910218955,131.1564438788167],[1.9608513714314548,12.114734692284744,13.222887339884108,-15.27319813173034,10.463860175751353,10.272957356555386,-37.2845461163211,-14.529408308885635,2.33256905884884,98.94552160685612],[3.2716671053849975,-12.303798681383032,8.302110460111214,-11.30543912870356,2.9042399652628856,6.24301817477803,-28.33863493189319,-2.7030320942952346,-0.1452651431573539,72.90997693719592],[-6.336010101798674,-30.4665383319894,14.103174405839638,-11.989642176364379,-0.5525620694624183,-2.0063259880277826,-24.783938798592295,-6.555853526194033,8.720392952712663,67.94419726226336],[-14.518556847568675,-48.22979175215062,30.196535682046722,-17.636920522096087,2.0629930375515477,1.3503440574016732,-28.873531884029724,-6.171858745486787,13.296304734924068,50.747401238188615],[7.372001115642962,-34.20303949187619,14.539122279080578,-4.212535690306084,-0.9134841912411823,-1.0972289900449141,-5.689714080784867,8.747434106365652,1.209747143570478,11.576445083832205],[-8.316583430656255,-34.551801859424124,5.212033441787155,3.9440740967920354,5.606733055303633,-3.6362068226807795,17.82024590045513,6.81121799442355,-0.43645081024370075,4.687700914564127],[-6.786092211275376,-25.29079483705623,12.966789893938236,6.493241643782576,3.2469865374167743,-0.10491590140461897,4.431672747892598,0.8957273958370414,-6.882886952860056,32.82270791743635],[0.22231089991248634,-14.410866865449131,15.035684177594701,17.70428360557533,-1.8010144898569955,3.5550443025131955,7.774844872029137,-4.402379778506573,-7.363124714664394,26.794323046772558],[-1.038528923572675,-4.492677177754961,16.385357557764998,13.13635807198207,-2.5254451683136865,-0.4099060800444756,12.503820872216421,-5.108062863493789,-3.9809051085052922,-33.1061937745462],[-10.272921069347268,-1.776367074734666,28.18829676294803,5.764187679992909,-0.5580564280287955,-0.12350859571169699,19.98557420963126,-4.458376545384249,-6.771178457204961,-9.460762933762696],[-18.32690964608279,9.89516581691349,28.943863803034798,2.533813881400346,5.099521398279255,1.586592450210931,-2.9176913036392116,-12.338832639909013,-12.99907029627043,24.813911020810504],[-21.468266187492144,34.63842402715506,15.541280406771456,4.867662050856524,5.253886443188032,-5.142243719394856,-1.6874845886286431,-12.00144975555049,-13.705028179766717,44.390148402096],[-29.809311143805957,63.90046840670967,20.66458283302019,-1.1563891301165632,5.014607590448502,5.618376421261276,2.47439691167458,-4.360146210174254,-11.791109597987322,62.26437877208858],[-18.18201978773369,25.981635317911735,15.614141692787628,7.895412395257047,4.661014739391426,2.5704057262989544,-15.660742744479933,-2.303397780040022,-2.7159783563057283,77.67298238084194],[-12.088277174351541,1.063905489066736,7.477061895311283,-1.8911175126556588,1.1122313763216016,-3.6200975188675106,-21.81199255981583,-0.9161956949273504,1.9396147059137157,53.66152831884095],[12.66742162300378,0.38914550637754086,-9.872851447130321,4.321184056714371,-1.900614345295343,2.0387488898936947,-4.293697244273061,-4.3430815805143075,-4.560785009886186,80.47457751777257],[15.276466986355828,29.95870038810072,12.78358418317698,14.189166850755479,5.8588268843700675,-6.408781939942022,-14.318328502104835,-12.415660072466999,-4.985965936503272,108.82456820739145],[-0.5738596674018444,42.62201792355682,4.3838229210060105,18.670831631616085,6.043787244478849,-4.955199086800615,-16.751393513933195,-15.59906464995038,-5.00746155681751,64.06490932262773],[-6.836605708598452,34.89126110841949,-13.731022185826735,6.610275133879348,3.539901834738304,-2.690664494506743,-13.340355505457858,-5.056248930599019,-9.653623633246402,21.418240149539557],[0.33606910548889163,23.453782743060057,-5.419451607093216,-14.106142300403102,9.348970752425748,3.428104338509977,-18.27168025280931,-13.627381323262723,-5.510404328700911,33.463541437212584],[-0.049320067966782115,23.066599204481303,-8.752568090597178,-12.709773285134181,2.7654172556827388,9.236154888930402,-36.9091588029385,-13.724820834951455,9.423015167373725,44.829136996130885],[-5.679413431899142,14.79881075294474,6.346941901562956,-7.128484190392375,-1.1089107169501717,1.7769582161094106,-40.78638962587718,-6.1044612870141775,13.605089659400722,16.309690681994862],[-8.992847884399328,-16.333733323337352,19.979226189704885,-1.9687984331104804,2.3367427827176477,-8.864340643559007,-33.07716485768057,-0.6874422181533236,4.02264493247611,24.855807045908623],[-10.925806483186692,-31.227871272092354,35.67940641252444,-9.955413543474986,5.395977662124596,-4.738141390129187,-37.38499926772414,-6.4004661225529,-1.783324869176768,26.098498626212862],[6.771387726573204,-10.618738310450555,10.65098415382556,-4.072400981777165,8.111678306180066,0.7047129720431422,-7.945389801668508,15.790904144239533,-10.239367889136943,8.799068303371648],[-6.777130695963736,-12.224308629814542,2.013901160487401,-0.47217452872112864,8.328447798884218,3.0680800689141843,1.8140350252080952,12.081841973477013,-9.451341105620886,5.040578129567946],[-7.762466286965085,-6.482139438261378,1.9035913304887657,10.951477332142508,5.2770654794646195,-2.1771747230284575,0.6694234168088059,4.577788135913801,-7.158149001702912,-34.67348518003641],[-18.30964370719014,15.718030899022207,8.050124292215795,15.76304329437754,-1.4572443868171663,3.1839009611279145,5.7194381277634,1.0847521053556062,-0.3252799232217409,-51.55660467167549],[-16.19129876784032,27.604816427684494,22.979906949056154,9.797644997110874,-4.7905668968841955,4.220931754414389,-2.64782991753117,0.0970343340357365,-1.5951081608726638,-81.74422675320614],[-32.62014417491492,39.31983136107609,30.14703971720044,-1.567219027574937,-4.1593175257570785,8.059648136334856,-1.9437483464201066,0.20570194943376433,-0.8049704544812503,-62.4518862399874],[-28.794769456943758,16.675569155873635,27.145500011701817,-4.250340446414221,1.3573196610450646,4.129342436423613,-11.930091049993637,-12.837670260412073,-6.261564608737277,-8.258309172863227],[-20.045214428903463,35.19098597083442,30.4843258000352,-1.5515993212980497,6.196587738605509,-5.008588572991731,-5.040251223818463,-10.621313631660236,-6.048813965063497,34.53828466424608],[-35.672888371368,54.32441984017796,33.322661655649554,-6.7322647741631885,2.6233517535350246,3.7040236587565505,6.007898828236402,-1.2044013191206147,-2.7457727032347394,58.15258323364674],[-19.253711104215288,19.690729775893562,21.92985001748184,5.538543669965382,2.731161173650348,-2.432251013562273,-9.008501575371024,-6.005539108566063,-4.317633864675533,92.50502467794543],[-8.136431839416021,-0.7847633987693975,17.18463586488108,-6.7181141182313295,-0.17585638361316894,-3.5524458046035807,-11.517586476997119,-6.586126279337741,-3.6423423058736315,88.46692925473768],[0.42502295728202116,5.034768953506874,5.852769374505942,-2.776983463672088,-1.4982046537334155,-0.7102849946492651,3.105200669311297,-6.012371968942269,-4.275979688650836,84.61386697353642],[4.306597561818581,25.308368130020956,3.1883828119854587,10.196710514739532,-0.14505964823735942,-3.2236677739551824,3.0943775194141265,-1.4565872173078438,-6.072293184412498,81.31083150775783],[-10.132081954549431,54.295091590347944,-0.46232536209003683,7.149320928184814,2.2407603053815035,-7.368350409147432,1.882185980586954,-3.035815056462866,-8.386382789845754,37.027590718047875],[-17.876467105947583,45.0854598575364,-16.319373344401466,5.936156708035144,6.1379846632813955,-15.148497911056399,-0.6875399108094998,-6.188804711073675,-14.356721145242469,3.4831042711976576],[-23.88491351168032,47.97826781199223,-23.411658048345934,-2.801371430536216,5.557950374372386,-0.7834085006953093,3.8533881468311457,-0.28356380722067775,-16.8516955351085,-14.773039918210527],[-28.274729558286147,38.43260304498074,-33.85424004611312,-1.7078638477215624,-0.4934907123352379,2.1586324989896997,-14.75488919795387,0.2637219127189062,-1.2339782834902704,-52.172066538048995],[-5.123992611941374,31.199734378190737,-10.765198804571993,-2.7684014763356597,-6.881159203505812,3.168510046341791,-33.03579110524277,-1.6428874620425817,14.435095827840703,-21.747528954656275],[-0.6549544288390486,3.2582046820036368,12.787097536057495,-6.51473653381771,-2.4557268769716116,-8.140388876702145,-40.950256001779415,1.2670619775044185,11.360532527678503,15.396705070130285],[-10.030111986206489,-6.745573341216911,22.999930241536326,-10.56569546414232,2.154677337679281,-10.86846068343545,-41.267195765500226,-3.561091497395784,-0.014131201290608636,12.54080194111269],[-5.690332754941825,8.279698141328016,11.61410381327474,-2.6265708850567018,11.430461917973988,-2.840526083925327,-16.031799061429446,21.536863749949415,-8.16581487557353,-53.336896729509185],[-19.855037655160586,-2.8644962462759995,1.5264177960648806,-8.016779885613772,6.506347012329214,-6.231707204355533,-2.379643158070941,17.746303352414873,-1.4101075109618189,-101.72403340254641],[-19.674662515941176,-2.243558628170098,-7.9555403559255256,-0.17002732702038773,-0.09748783488028481,-0.24771304188675514,6.852694641644705,7.525654285143454,2.6829522001424992,-99.30383884820519],[-28.857998212705716,0.7338912186644051,-18.851606416395562,-0.6083291702197067,-6.6349297407466,1.233075570654561,0.8222912466002964,10.463751852376014,5.446291233581198,-138.78548319115475],[-24.646238888629448,37.52501133216591,-5.921299328558602,-6.3667215587992425,-1.712146886288026,5.332981924790399,-11.133119607174544,14.225857344091374,7.04164133709582,-126.72547295314106],[-36.56125301737493,53.671880936004364,1.962173805007707,3.722311773499441,-2.4134134389929858,9.993561972682834,4.20437033661882,5.44029809170348,0.16418791582496312,-74.46778983088684],[-31.83984950102122,35.169999732925355,5.826896479376349,3.7897093964143336,-0.7115515784265656,4.122844856812601,10.739067492722583,-0.5457178774306898,-2.5939759984046407,-11.804442482997448],[-38.242147480606036,55.60875818335311,8.892779929842158,-0.16103509650411005,-0.22877030099655973,-0.8260920626980375,23.11162569401192,0.642299079443009,1.4670708638924195,8.92562114255505],[-48.753849226971106,53.644015820331795,15.592750047635365,-10.919234800860186,0.26954498863338344,3.8696070967135956,30.457412992470026,8.042504147798125,1.3341767517419545,22.832459029369726],[-28.081041494480083,14.895762267076234,14.336881539269136,-11.627603103355908,-0.5363125651663504,-0.7289542134092915,5.134370581785746,-2.3777257808329924,-4.187547762779935,75.53692487828187],[-20.27982055680856,0.12633152530843023,17.75059066982846,-15.588525599836315,-2.750571194108655,-3.0799061766321563,2.3638229308655223,-4.653854951022659,-5.454393289794888,85.58122786213228],[-19.47284504988708,14.829085805324356,14.996344867228723,-20.221238807354254,-3.142535419777675,-6.652114757975755,-0.8734708264662273,1.693762391344438,-6.501861643878484,36.56575816053076],[-17.027858493542514,13.464229882165593,8.309728000828517,-15.554502774265018,-2.930758344490512,-1.0772475000587123,-14.91465170555018,6.322929968866753,-11.491325444313306,22.290174318092692],[-21.955872402336077,36.620124243024755,-3.637401238217547,-1.3289459288305105,-1.2512783705643076,-2.267752851516881,-10.531630438533414,6.731322084497726,-15.083690790037389,2.9512832617147966],[-22.039908964803196,41.516821192928255,-19.331617291667804,7.449824842180253,1.7680386662004104,-4.661714992646242,16.363008976790727,9.126450617158891,-18.464465715674024,-28.526907547292186],[-32.516899776606536,38.47602174776333,-31.01535040171993,1.0715933102728883,-0.711408445493471,-0.7084393466599626,33.46186383753883,21.00635921745844,-14.345949756247963,-86.83175962175078],[-32.249680829586914,23.600145777362993,-46.24217618275637,6.24266236875809,-0.3377768415747007,-5.622717482746056,38.1733203455156,18.773586945719174,-12.301612707304255,-110.06478419947992],[-17.520997212536937,20.19705250563828,-25.99829471837543,9.910243326768907,-0.25206916745226765,-3.9472653063857264,-1.0022998181214104,7.2244872183200615,-0.5602498751363262,-71.45348983881148],[-4.651555505749099,15.75190256405089,-12.93239907353749,7.784417486789711,-5.709708877456952,-10.45892827839692,-19.955085974017525,1.7977657589486602,2.996939509634286,-19.64452375259487],[1.7062257908646716,14.080326804494655,10.208625864511216,-0.2569201376393908,-3.907569686794097,-10.364449265540758,-32.449825729663566,0.07866941857745673,7.066510771324896,-6.618213300230925],[-18.14853609019539,22.322806360685345,-1.2499643710240589,-6.148102399807992,4.8023441672286,-4.964672025760964,-1.220520939953155,22.433340922117154,-9.631087873578029,-107.930115345306],[-23.244125079781544,14.602628759188374,-6.625235931998199,-18.138397824041906,-0.8249654977887586,-7.737542311105703,1.846934875608924,16.548197152548028,0.24640061378594544,-128.07861754822028],[-10.678286186766245,-6.997927895117598,-6.212085132945478,-15.07752775997322,-1.2434233481525043,-10.839015714072017,-17.697977265945532,3.6309996280852483,5.988487214279542,-106.40164421896861],[-6.336995159519254,-15.829465116920678,-4.6185944047088965,-14.588351875649858,0.996517238438564,-6.081850717025856,-34.02065633700103,1.2252842187667667,7.3627793727897926,-85.90604252438035],[-11.247038336506046,12.463402717270496,-0.5250825398234114,-5.669777128286928,-0.43051302332657493,-0.6277459173163409,-15.996917204811059,-1.9972458001961668,2.5779794837821455,-46.286824391246654],[-23.344750281938158,51.68093533459335,8.257253038347855,1.6656514518291006,-0.6155408569592132,2.168705348070496,-7.840054377673596,-5.908565732988301,2.185725602655076,-3.1932936445378233],[-43.41981091965545,50.73137761274824,-8.849105369577343,2.9567356227263533,-4.575649471064554,-5.6479248835420774,27.669874034456917,6.548030305086849,6.152384763056901,-81.51445337095066],[-50.18089739938454,71.56252769210901,-7.688358299343016,-2.4700793469757114,-3.121504282490274,1.6641590578152854,57.99629098590464,14.556177761124856,6.417323993199698,-95.10126085003219],[-41.44380860842818,60.90804642671244,12.084301620350844,-13.959694492427563,0.08346724051305301,2.6826115218447737,43.1586197218914,12.301729390554357,-0.5685881180595088,-34.100969337649005],[-21.75742304046586,39.73733588371807,5.047699352260225,-10.699973978815594,-1.934860868065423,4.787627560870679,30.49282756374328,16.786785929846257,-7.884147070510605,-10.86847515639367],[-21.800961495121502,8.060354891118797,-9.562857936810758,-6.747921555487489,-2.7361299979302705,-0.2654866624823968,34.47727445766131,10.29937108426587,-4.923916976748958,-17.398623945107737],[-27.07241017973772,-5.773450851907229,3.8566567461291217,-21.222727597251623,-4.106028033656745,-11.73870495968454,24.553934557800773,19.42741701956503,-6.404849893376305,-55.962419006481824],[-28.26301403986952,8.90690664421605,10.596181969451747,-17.447128820317594,-0.8795388059374815,-11.668308553762163,-0.7317791129862888,6.707849730631632,-11.967685782968868,-29.48911627330812],[-23.395790495464922,17.700948494219585,17.89146496530766,-1.5515688476586,-3.1564067218679344,-17.804390512949166,-11.015061307345823,3.707361720135966,-10.040916142310653,-23.150130553979047],[-31.749569757031992,26.983820532185778,-0.2065401082224596,-6.457165047467282,-5.734583720568711,-5.987132915033183,24.879091051611933,13.50476939868855,-9.45946705742299,-72.99690222778624],[-35.46461117747834,13.498657468332391,-7.566257779445829,-5.540336642091878,-3.9960839166337547,-4.5834212138879105,43.29274167527979,14.05657195785188,-8.438507874155734,-108.18326750876686],[-34.23335248365266,19.7992398463816,-30.344543485024925,1.1541505333435849,-1.1262006594629923,1.2615997955427047,48.70760107451135,13.704889339871764,-15.34797661936265,-100.04391337383987],[-23.294301135668622,21.155750493798617,-21.239158199669298,8.531453471749147,-0.10999877623036705,1.6712595624410882,20.74046477034848,8.045605494857597,-10.742581575072437,-81.94145038567459],[-15.274393888474629,9.122559685931728,-24.628895204476866,2.106485714147274,-7.597145349406699,-3.308011090166675,-2.462934055478659,7.105019428986898,-1.139832837998883,-51.23843560999063],[-11.678164288739126,-1.657553611113685,-25.847814126548535,1.2317920445140624,-8.180705760808333,1.1390657532903348,-10.301102162117013,10.69219639300778,-4.194822585665067,-53.59156401094772],[-12.989570900965917,26.662913244060288,-2.9175820852543572,-15.778520820452652,-0.2835798442518311,-16.492919562686588,1.8292935244922852,12.316268042749847,-1.4435559077348785,-119.85435286320245],[-7.7785832938907005,21.753094951026043,2.568662912850696,-16.937123008129657,-3.645864821437603,-10.72182673078753,-12.128754955546956,4.924311402828265,0.586491859843135,-79.39588353504851],[10.711639743188048,19.12725181405416,8.84991630617042,-7.882592208840098,3.0308396827710213,-5.197356514186226,-37.00719391352786,-6.881724639315252,3.719304586130852,-44.489928456104636],[9.345590086049292,10.035076875805338,-9.462624289241422,-6.071092664488422,1.8722817727369967,-1.1682312082500643,-57.572172243073354,-1.5599214837261817,7.600200933490424,-78.37039518775906],[6.657759951871309,40.05008984852049,-3.5154304083532457,-6.034807716173661,-1.0202350401097846,10.28437837379293,-48.145413711860634,-13.977478210394253,11.892691620043312,-43.94536411835589],[4.91605870926846,67.3880358395683,-1.1906568648448077,-5.44426162514004,-2.2344738130978663,1.890181898265027,-25.723750614059874,-17.126932064299858,13.69613190346806,-12.687469884465258],[-0.9964696151491259,68.09456925734504,8.393727921510049,10.17376720951428,-1.7631775977149016,-9.255981187028805,3.2848153552945125,-12.378983344997073,12.32453523621228,-12.506472790956163],[-25.575589229012913,59.61848180618576,-12.100858703089601,0.9018372674472476,-0.3097890254506775,-6.253190342856658,63.60357824394371,8.166518907153351,2.7398315322274733,-110.06346393145616],[-36.69526303428156,49.061073878818625,-19.77441772778271,-7.760732792910701,2.2088457539845607,-7.422408574824703,67.5758316353684,19.35965914844049,-4.953241122520191,-129.2802086264904],[-19.142212037823743,31.371975927399024,-18.084452003034972,1.4206732797181492,-3.424289095915927,-9.055770715376559,43.42044237575382,24.683085497439556,-1.1503750806467252,-99.86816774919718],[2.2064611587775698,3.338612202562415,-26.772318041753262,5.382990079579829,-6.486607356556937,-8.37652531655098,44.387916707968536,11.734176053506244,3.865966804866239,-62.97550450522131],[-1.0973898763980892,-0.8898221471643075,-19.069341461956707,-8.900607141531212,-4.796918348325989,-9.672915890750518,25.915425128769726,11.619277128169381,3.3322779798974365,-81.64892989076368],[-13.908287472761574,-1.1014533268061775,-0.9165662203929779,-15.175050628631167,2.170822999269443,-16.64677599719305,-23.338712009185393,7.02189725782452,-5.043831998863786,-33.92269110043627],[-26.979127262813673,7.997040669348113,8.17324448994376,-12.352425481337804,0.24557797097347525,-18.55998087587362,-11.240041660497067,16.915075843183313,-11.937787972501221,-39.368592507038784],[-21.770866886665758,27.826220598874418,-4.486226153024675,-14.26738215034887,-1.0409483191154776,-15.936327972142365,13.330599877953366,8.896448796039042,-9.234254904861604,-47.54953032376409],[-35.68533704760893,29.89172478967399,-24.395010824821885,-11.681174660860377,-2.4676812165628816,-9.558564777602413,41.49286821817842,17.762913612100217,-2.525669425401693,-106.74082776670757],[-42.67174864178915,27.602462160676918,-24.299183631891978,-7.736026166448906,-0.9756769623807856,-2.251710886208027,53.36307047516567,18.516896642959132,-7.966214327003966,-109.30509263245898],[-30.495863239722446,16.18797584471692,-11.020079079858963,3.812150172478736,-0.9206243298404757,0.4086925126154064,16.717758740047035,7.552915281469253,-7.289824286016352,-53.78872429574918],[-25.639786388454546,8.500793635780894,-15.146697205549799,-2.183879418435038,-2.990918004894833,5.167126969239137,3.986346124166933,6.647422727883093,-1.5730558186330525,-63.33873637181428],[-25.994354208886286,8.197775078562938,-25.84323761525365,-7.5296412464571825,-5.156344838492807,4.252458885335926,7.558530990693312,14.277365633329552,-3.8449783771197654,-69.96855575159229],[-11.159287915651687,-1.890201445760184,-4.8608114540632,-13.03220292280115,-1.744950133210543,-18.042089087233986,-1.612808660974788,3.192173775646756,-2.3948917919441906,-111.41151947540574],[2.716108858817654,15.782712304295814,-5.514454021951728,1.3648159469507533,0.7153002935513255,-5.068659266818577,-29.982103095386766,-4.247327465936079,2.6209993699935565,-40.36312390793642],[7.677956404860225,21.159829792138652,-13.411990461127866,1.9291152784648844,0.4047679819362419,1.3363693494090594,-36.204901948309185,-1.6441084282460539,6.28962055521744,-33.08374183589596],[6.3318685016031955,24.987858054582695,-6.42159382676913,-11.904530662539704,-2.468652169239132,4.616570482504166,-54.076790260823365,-4.453167045714005,15.85643565867969,-56.85053573109091],[8.079694382060199,43.18588896801442,-3.2852413253570023,-10.66307508576102,-3.3610292692516186,0.2733605631204735,-33.807692792266344,-9.957147737523124,26.50565476963038,-42.86378174814267],[9.73182612923691,51.86725976398134,-2.0307129546334064,-6.66158270825493,-0.8405844257206581,-6.677245901668051,-16.516396678934818,-17.79121295470551,19.129358794880094,-9.505409497155917],[-1.8599820298646923,42.65770433823086,-6.65279606252009,-4.700237809766343,-2.225233904782148,-5.4390040760051415,21.33543574367427,-14.29547468426603,12.511070963123812,-7.865586906756191],[-23.795152344419616,26.098510634622254,-12.237124493801426,-4.080218218198849,0.4079708580706121,-10.395233259794221,55.05433156421892,5.089997015884008,3.61819827837126,-61.797332510050836],[-22.995747265696373,16.95017635570056,-22.03718109133555,-3.3091110016921883,1.2675516551650594,-12.761737740724486,43.11872211735031,19.290393088595447,-1.789180709506313,-81.86036950073529],[-8.663823978815529,-3.453243208620843,-34.67314625660464,4.490073613311979,-0.08631146373200088,-13.02729050769661,33.99090099051852,13.840366458940492,2.3641588201440165,-70.83501443665477],[12.490558409473593,3.06849352777357,-30.124265374428695,12.923788148911516,-1.405233500591376,-5.31914442514038,12.291204122650086,-0.7506892296900525,9.076906363671245,-8.405259343350926],[5.638343497474446,15.82415305907079,-12.9509104105841,4.5611719750860775,1.9553251907661657,-5.572255302509614,4.171753520767651,-0.9155052650601844,10.543108567804701,5.780323139579795],[-12.387530424989441,-17.410597509898533,-21.203015975794116,-1.3354584926085942,2.428259925568687,-11.525082955211024,0.045416003594548775,2.435444227534123,6.540344284656991,12.183556977507015],[-14.765126324484434,-1.154585178615202,-7.411866013260546,-7.901372457042519,8.002227885652204,-5.369458790712631,4.512253675287939,4.7688925506575455,-1.9882395476648942,28.23820941509789],[-24.858395768569142,21.182151311522674,0.7048804888988164,-11.40140950392721,5.207321552999033,-7.034926726541934,26.117911147037976,3.2601961812770908,-12.781012293841574,-8.53658605032492],[-24.22918149070217,28.855435675848202,-20.06231879345571,-3.264776198770401,1.8589690938533285,-5.332100764799923,43.34418666326321,9.744684112897577,-10.872983553869147,-48.280364106941974],[-38.020105708566405,28.570958763742397,-36.767980777600705,-9.777698469414723,-2.906920942416428,4.349181677573328,49.77415374966302,18.397321110132204,0.3350030618125682,-73.35912874664598],[-29.7686099301231,20.07881825669822,-9.127833511767617,3.5275585358899826,-0.4586485616012909,6.086264606500211,3.8095591699244307,12.784098956090814,0.39054549358314194,-50.849102125874396],[-22.121400042399245,15.750591340354282,-6.819190499263266,-3.8671378464888067,-2.687784256648847,6.589019977854451,-7.811788646721465,8.210200525240465,2.855416583946415,-61.8540833547825],[-38.60776816529154,16.696611989898873,-10.171705460585587,-12.32031655898745,-3.5732676797050353,2.3052539256564812,-10.09286062002028,12.20465567374278,3.290740605797998,-97.3776688200525],[-11.719923822131257,-15.03123485977432,-22.70787120026836,-0.2164645959304008,-1.0344977741692007,-8.847113615334326,15.04613012861917,11.14693376203751,2.5078338910804567,-97.2103237001249],[-1.947258839899628,2.3285100916258834,-20.380320239551896,7.599724633553586,-0.9365686596386635,4.20339501184388,-4.16181590815066,-1.5094443771816537,-0.6405713953847461,-6.3221062186723795],[-2.3024901165006915,18.47117656759512,-23.738957083685527,0.1019010553155835,-4.402127260692781,7.9235748109556265,-5.396571053068709,-2.4761229224371535,5.299207649121885,-14.51866779506593],[2.8000368206814583,26.52656252131991,1.9259609195987837,-12.075794293577692,-7.4442971299668645,11.164545543032188,-3.7627499171696286,-12.944069715143858,17.067012322711207,7.41413142468202],[-3.6189838284806157,44.41913320760216,-10.781524393984704,-11.541419231025383,-6.757769299334302,11.351895556565132,2.356493523970187,-11.97785754339555,19.4042290435709,15.507205611976111],[-4.45769002575807,47.87807336499054,-12.590308875982842,-2.440868469076867,-2.1262743804650723,0.03971336994507375,13.850558499395513,-20.67119971964302,9.29099746793502,34.86139035243694],[-22.726489144371637,29.938254524018628,-20.590522501803186,-2.9025734698316312,-3.305168623798211,-0.6089212879156405,42.43253296604088,-7.166475645049754,9.713459520733862,-24.008098735828934],[-35.07948371409838,15.333517629650066,-25.551619612384265,-4.924384728696123,-4.430939163220395,-4.970621852522849,73.07965794115864,3.2068223878647157,-2.125001676698826,-36.56557072784477],[-7.236638170411531,-14.380394992365447,-28.267439908924167,1.2141320280044436,-4.785556834965051,-0.3373081661667415,56.55021928618462,7.885171824648166,-6.973070967886188,-2.8422150373650132],[-6.0482875277299035,-33.75593479489182,-29.33949537315436,2.807519410597897,-2.3091774741076505,-10.240840710758514,42.525066089101806,13.464045393603127,-3.5856466582077227,-34.869754815153044],[7.085206454922108,1.2473703562812468,-19.263970770483276,8.18123586548818,-1.9951185410066012,-9.889243255243198,16.946649535282642,4.319867569149371,4.451290043728717,7.862403601436942],[0.8232217721982596,9.644209401865206,-16.33880307743359,3.583522906512823,1.2461870965078656,-14.165099462009325,8.549380245012676,0.23256038228354858,7.171403801245254,-6.652614980933306],[-2.8931437528836326,-23.443914389640646,-21.68954978387015,3.403360205991726,-3.3389607246122357,-7.884706810405605,15.157422633497164,-5.533990570265622,12.152620081464628,-17.303048150838137],[5.042152796936553,2.1368906056717516,-9.577215379774648,7.080055372577826,2.075700887027216,7.693834077745775,11.38422166143329,-9.54241058579786,-6.746425440852442,29.042042743621746],[9.354330674088175,-0.27872460311419583,15.601698479534011,-0.9302639869408084,3.312428726947065,5.256330985625389,9.208744338108259,-4.928901462262446,-8.61031796508485,53.322848683699114],[-0.3390664291471833,6.342935035437889,4.124732562882976,0.5099516110608235,2.2113917113099277,-4.830316804623328,23.0155534962943,7.390426016072004,-7.066191027609238,10.209237358556324],[-32.54672904815155,14.495328927461335,-22.794147688498608,0.1993385139598282,-2.5348096199913774,-2.775106802188065,20.5359316126392,13.029820611642744,-4.578270418969227,-52.021566795029884],[-27.11809039096707,23.085139331711932,2.3029669482098982,5.4257293567999385,-2.685262550083743,6.0634910526623615,-1.7588270232387029,3.716149007254042,-2.3984671941769027,-39.12063683621341],[-18.575368898835052,5.084850243178515,-5.802224973013093,-1.339303456011733,-4.307264908396125,2.566497184125217,-13.674530296886946,12.097161426052253,1.3407635464925847,-69.393276235908],[-29.32299572294021,12.530192670475179,-20.03505498522638,-10.67237128715406,-4.534702182268332,-0.813003291336599,-2.6215865665939515,23.59604662232607,5.391066268781731,-131.85428243770906],[-10.959354130568796,-5.589534346405633,-15.298306072940482,-4.791790592062002,-1.1550913669852472,-10.181751576074014,22.846120242971445,11.799753942886953,3.834817448121215,-74.21898183043203],[-7.531748615546252,2.2120791657060375,-18.53407172840057,7.021375739925869,-2.7476717882258743,-0.44946675945696224,4.026145371422607,0.04615471545390347,3.827007537305998,-23.21685626799829],[-11.633393472447706,16.929450983988477,-4.227956906268101,-2.457586114691271,-1.5321359670181685,-4.135355953425625,-9.139267947744672,-4.117207052996892,9.159458379510315,-24.481917957896783],[-0.474745907175323,31.546532043103277,38.75398172798708,-18.905860283979894,-1.7043102368952328,10.278315786432072,-26.91782063538343,-26.19141353386439,23.184277884517094,63.24507575400523],[11.995596709702589,47.94421463359123,9.903715930023095,-4.798780806321499,-0.5187801186584272,7.68753589204143,-10.619205283075022,-19.899622784822853,8.740419915205788,86.8869936936774],[20.962265048047858,55.228624286830964,6.542187762985865,4.657155395637994,1.7225990423476065,-1.5655631184990315,-11.510434260619505,-23.924643661085423,0.9870645612162089,106.84792017224737],[-11.35943944676745,37.988313202408904,-10.185679087950719,-1.8435415771787855,-1.866621043278624,-0.2956525972674261,12.145279263480836,-10.03561700331555,-3.152726917218484,13.439143929081599],[-16.4681444853687,13.495269534157547,-23.145466805714747,-4.559494740995127,-6.104944587169084,-1.1264022732452357,47.198851483819524,4.67379746056671,-4.401168143947713,2.2484411714564496],[9.693153794981558,8.129953764241225,-21.88079530702532,-2.204805152132728,-8.511173444776604,-0.3735249223780963,38.211453080692756,9.733327106696471,-2.9605600996592933,31.001859087523012],[25.645631376120754,-13.395987184867339,-16.217352997627103,7.987300056241731,-4.9166472815707385,-5.014216255853795,26.936761940165614,5.96071652450325,-0.5599796627476344,37.91434409593978],[22.195714077663975,-5.079886209357325,-7.416599341718977,6.333203934671022,-2.3985258044125186,-6.431250837244451,-0.7879693309103685,5.240142154307405,-0.2859412509764478,51.159448607515586],[26.111165380991494,-14.705480153075893,-8.502099820208391,8.057318723952399,1.0529796054937681,-5.356228287896023,-3.4868359715393997,2.7595115954849287,2.619249392275025,12.044712129809714],[30.907303333050496,-21.46831001364004,-18.15613878010249,7.009904827432716,-4.0333782988407485,-4.077616157242624,9.541650768122013,2.158301742581715,10.398262552045964,3.6075049268998747],[35.91964809818649,-12.33867700748212,-13.134253205669584,13.290816133883219,-1.1995192478425603,3.702580916489983,12.709705647400945,-4.440237260507627,-3.5192734603482907,51.77571882670454],[29.218664881052895,-17.702088579534887,-4.878871400290844,12.889488849022168,3.16357292316144,8.686863464202782,6.081953330579786,-1.063736258097938,-8.337057334035851,74.96366385761958],[12.002918329415655,-2.2388727773632544,-2.384652906969193,3.7123469309739408,2.786269668179115,2.98094078634195,10.719947769813041,2.526383247699886,1.473298193300644,66.06106907940804],[-17.365430933702978,17.349292764586956,-2.4539670108010347,-0.3072673217853661,1.321792371070392,1.2523182479558277,10.465750354751002,10.81172653291369,-1.242094508434701,3.0095642538734673],[-28.133633074654387,18.507046402892144,-3.727263669100199,-0.6499039538960829,2.4914922525151293,5.627558104286628,1.7414829339656648,10.541393992100467,-10.10853092916973,-40.077219056828724],[-22.228104465558907,7.880429700873716,-20.44854759418265,-3.7978521345359257,-2.090570313702804,7.751261207719153,5.291622365210141,14.355134132054298,4.249006246637318,-93.46829927815627],[-26.22812941846156,3.4678839627966793,-38.95053520117086,-8.326943538029688,-5.09335326515107,0.5646249558578599,8.081180905514772,17.92123152424113,14.33006447508754,-146.14026198392094],[-12.28264945379864,9.638258481711945,-27.08010305550808,-4.7633711270566845,-3.251173112807515,0.7390915839838832,48.66614993935641,10.689615929394733,-3.082873288620004,-50.39011232089936],[-7.955281988708912,27.23173385949352,-23.1099755165827,1.918152319496764,-4.619255001914307,4.024638870393936,29.63270578311018,1.9799486461635996,4.488796931917103,-28.936160472220614],[-14.419209447674204,28.57085466488293,4.711820375480164,-2.711588080107828,-0.8173041988125165,2.6175114372937047,2.801851920901165,-7.00700611755534,10.614534839372052,-12.55746780927571],[8.179434794405404,42.02707108412875,30.721614881094794,0.08019071428757293,-0.6684962840746269,17.938834066351326,-15.25315610993553,-33.51345077424298,24.633310356367492,94.37764787099786],[25.762261106985633,46.5097494402786,12.354758388551772,4.909772172103258,0.929456720859898,19.29951954544639,0.9352998166377,-19.166965781167026,4.824256614424421,123.85452818025168],[36.866000920312594,41.39777372682603,-5.315509965698316,24.412923465419684,1.891593624929878,11.595437861485163,8.937211834333144,-22.567040944514105,1.5826971052745282,127.40643020963657],[18.55863953975675,4.231961627709155,-8.190733989611735,17.941792874332876,2.513752560694418,-0.9837573529433585,-3.1440144254334244,-19.152251696772133,0.7161395697862255,92.94157041448494],[2.9148004243037553,-15.148831250465971,-14.695956027961858,12.929459907559844,-4.039827071893119,-1.0235608937383731,16.46978671977985,-12.513772010069605,-0.6948323135687263,71.97410621182358],[23.298440092507377,9.42384119008137,-18.2337791860276,11.09369087234019,-7.050990964745588,-0.4029747795314088,0.8702059313017368,-6.89075099023394,-0.7276921229618968,102.36999586530355],[37.2343569009691,15.450935187913116,-17.51296539402381,13.37533101275738,-5.514406908265595,-0.9457271061170422,1.7867555780225821,-0.6255002976080094,-0.6412059930775483,84.90106883422328],[48.83130074421365,11.197680637339554,-12.212162622538605,15.077181386965563,-4.792752027119679,0.07730141167513598,-8.257016993453709,-2.287422519762315,-4.361197166995886,95.65150065833684],[47.62686531123536,-9.193812163305836,-11.146613547174004,6.261527133807055,-2.538655872276451,-1.9840361319912547,-11.303214263931638,-0.9203801210199094,-2.6389656760755438,54.37264503499757],[51.52405906850694,-2.6997859069179357,-12.888988991802552,10.571021356420383,-3.982729694620004,-0.9424687173484275,-3.7456604308111365,-7.672813429366381,5.9033594355584516,65.78126238124408],[43.04602441056524,16.563165871722664,-33.75055191985816,20.341231777620294,-0.9139355221407387,5.843465914390647,46.07389970660714,2.5907491474397557,-5.294999418158751,43.60805004039573],[35.3083650369902,24.586628515499793,-25.42445848003334,21.84115763809187,2.3152896741191706,8.46995769049975,46.79774817757751,7.129873487341852,-7.120315606361318,56.00516459248481],[5.778833249673703,22.751190915652487,3.4145909493106865,5.3231556212829485,0.23846636276498323,-0.704167930608237,25.214838550291613,6.843214854354823,1.812448608747407,44.44144370366902],[-16.077234148821713,17.920633721474175,10.177037937901037,4.792211633261264,1.4101369392746799,-8.815649642448586,12.532824290986749,5.58876717367054,-0.49373987929677343,-4.691710392673278],[-38.300863858430155,1.9804604189876602,-25.775543674368855,0.6164099454834971,2.9478789836238333,-10.563972708804828,18.92553324134663,21.897792582247696,-11.506568807281043,-98.03505720979548],[-23.656471834914395,-12.56064811411928,-32.54991682044488,-5.049459972724637,2.2850047242126714,-1.6329612771023094,8.060449317410798,17.10884144395972,4.355303371804587,-91.47416999167558],[-23.882424762552915,15.414350517402092,-31.277034562979907,-9.340202421051938,1.9489482085502476,-7.366543994524262,-12.171467931229746,16.831924126215956,14.672103938303469,-115.66149028648647],[-16.64256554553987,9.68895988305299,-26.6122682067785,-10.875881046711104,-2.826306047449735,5.511790276921624,55.272592225508696,7.315711970065729,-4.425490540463025,-43.09009797363596],[-8.819762850762226,18.5708935956764,-23.588680244961186,0.40025558351384277,-2.8862435949964462,9.726850634947493,43.69416161718197,-3.0712295680895405,-1.7208985246906272,-3.02170295723018],[-14.612951871595225,9.343196407479747,-4.460586191171506,0.5404348034607972,-1.5390136464325506,12.52441159292873,25.184442520734216,-15.64084646563103,3.463359452528654,45.02529217828688],[0.5989179463658364,23.698166318371914,-3.8972863760918903,8.258589750722189,-5.520086528598664,8.112678928873342,11.541675926058595,-16.165624979659512,18.666227309768868,50.52726029996077],[18.15396107153823,26.48950392557039,-2.022229517527044,7.415116362729316,-2.315916268666902,17.12015514395044,-3.12392948885657,-11.118477681283272,13.89173997756457,74.70433796735146],[41.59489694707137,27.725320593111146,-8.512820282092864,24.912997982571614,0.551686861818273,11.118234124067548,5.570743926114973,-19.80369925314581,8.469100078212318,97.8766169524809],[34.874370476787334,10.75521742780325,-2.5184836528164896,25.91105547157892,-0.9613762837447464,2.665625776119474,-4.308175841624257,-25.07830990173282,10.36950005732994,109.1227906059131],[30.189780588350654,-12.684161743882383,-8.355660213605907,21.904389205177875,-2.148025828873221,0.6436397003015564,7.334604515421758,-16.945390842338988,-5.27510470847172,91.6164651475764],[25.923559749907376,-1.1287184801669656,-19.346126102052718,18.43301132630816,-1.7797037469204835,0.7840121446102086,3.9939049760047887,-1.734575120307502,-6.0213823379352105,86.54369005524268],[34.07014493308205,15.167694173990158,-27.32249059324062,15.170381247119485,-1.3837348866748853,1.924073056591095,1.9679588917008863,-2.0549296282736553,-3.2678057736308883,71.89668239134441],[34.3743086096579,17.91194880616416,-22.60583697381468,9.495215058114104,0.14450856560613137,0.5711019040466487,9.81005386738692,-3.552686405417459,-13.729776099333353,60.68788239418183],[48.04000303936946,11.488081324544858,-25.78208406140857,11.76193886267458,-1.7187849359751066,4.725015485777723,14.36441447242178,-5.3747490865202385,-13.036195886971443,42.564563317112174],[37.18422304027059,17.540407135327744,-13.997504442164626,13.625785573833097,-1.7650295352685623,11.92909755629147,3.4931226637326227,-4.826381021737469,-7.801548802223502,57.849138739837734],[34.25443450981726,14.679066129536839,-22.531863805780286,11.211472482227357,1.5294351817662926,10.976062678241206,21.860174420681023,-1.254673262565122,-16.89252150737968,59.03449088691551],[22.537014606759037,14.83425980499122,-15.851548325924663,2.6691529241515695,6.435101084014355,13.818982239223022,41.65076387959602,0.7750516868981372,-21.063685722982985,58.538746289306665],[-5.3642417118516565,6.1828635448447775,4.70101944549584,0.38420124078730267,-0.24852636567991085,-1.0622109373379454,36.485035696843696,4.35132217316525,-11.101750798303561,61.01390855424289],[-33.275549027376016,8.273106576453895,-16.725622931861654,-2.838386663036615,-1.9670556744871133,-0.10818830843728577,52.53792037114234,20.43010214326782,-11.928562805100988,-30.13166631596946],[-31.597204591444157,-4.555501101322914,-38.95873713401319,-4.777491505014089,-0.34263078770930305,-3.2288425678895645,47.45997053617574,21.016843709916262,-11.19917594072333,-96.82913190663062],[-21.670705093586857,-6.756150946863075,-25.236570900892453,-4.65359675131868,1.5779079336299846,-1.4815478008086282,23.663791071912872,15.125817339390247,1.709287171635094,-87.3720806879691],[-23.91720399560862,5.925923599367916,-21.666628387418456,-2.5391690516988965,3.143152948811081,-4.026166853460115,5.252287347800204,15.60399103943306,14.883049081134207,-108.76204186942086],[-24.270729706394192,4.00520967903533,-28.103542281067334,-13.386138535422015,-5.08257631826254,-3.0290910991286695,44.468655334828455,4.771089033063426,-3.415355748867423,-65.2890381301654],[-14.410312453109052,6.871263503720215,-29.644605422649455,-0.8122608762072042,-6.444384120412321,4.8892784718504085,47.90431937079388,-0.08864311619527855,0.5014779571315884,-34.94556898283392],[-17.424043355974078,-5.386061666303567,-15.413545238833292,-0.791873417576463,-5.610664338243073,12.521684791217128,36.98169295582871,-16.01409261804699,2.910061378912554,18.55312430429575],[-11.635990878966481,14.944211065777134,-7.948267083974726,10.374709585013594,-9.07054467810506,6.717806335187425,23.912551332101273,-15.817472060918744,9.556010058575739,53.91265320710243],[-1.3514322115528523,16.378359869684758,3.1811962407972545,7.503874857248397,-5.852541064480004,12.724948037947986,-2.7777068977526094,-9.36261586273208,12.529965248702268,29.23203687922587],[31.47244536769711,10.284477941641711,-5.856957511218817,14.990450010039806,-2.801725391765523,16.2906791926443,-1.3198153448247163,-15.323628273886705,11.911627963796674,58.93882460415425],[41.56136458924795,-1.3241466423596364,-6.547717156338666,25.577989727754453,-5.967307452816813,4.969072982367778,-1.166031533142681,-21.821183521260394,9.361855606436052,75.45449190443237],[44.57640678176375,-16.213654662935287,-2.9549675054737743,25.389243565125597,-4.706784416599779,-4.526090512969577,-10.17793895598976,-13.12991991485193,3.488483497397101,69.79123804780178],[60.52480633857545,-11.90236332127023,1.219653567981044,22.133429153301968,-3.9783629378219474,-6.6991072754037715,-25.467853923203645,-9.166174899576363,2.652683890782645,74.28250149606818],[67.51763813916257,-6.2158326716081955,-1.8023466046129157,19.05420584212079,-0.4004225643845787,-0.18385609106362094,-34.50219800947238,-19.789695117014865,4.166979404802771,98.07671900338057],[61.966589453108114,2.5935842221627494,2.418823357556224,7.5560592546676135,2.6480305958086103,-0.8307270285353052,-30.012441219723996,-17.101661207309963,-7.023757264736804,99.66098750183403],[61.4095713271529,9.10108911464063,-9.10087419976937,6.429185340342098,-1.2678967392942062,11.326160899793205,-8.867063591353382,-7.249687340563976,-15.780323475885965,70.87445495655054],[46.8455576341906,6.738542541512036,-7.8756964171364325,13.321771931619928,-1.6762072106183157,9.324788507067478,3.872829279766806,-3.992787095020879,-13.641452691421591,77.74941769085352],[39.06729335420706,20.004331071997278,6.2424365255231065,8.758368628594747,4.953441251639221,6.330237376609731,0.0005733618245017582,-4.744283885573872,-20.190214299440978,89.38237447212828],[9.657703562596163,-4.4382452195818045,7.523054201943053,-13.33716815456655,4.862993942795676,8.504583721870151,8.472388877693202,-1.1026893477516737,-14.230313301983356,32.08522715660623],[-5.394599234556081,-9.950891293376882,-5.395297076400137,-7.844429884634745,-2.385616387174427,-2.7866668420825116,38.314061045725964,16.226912237665058,-13.098005813866644,-16.0510977072104],[-22.541559388888665,-4.682967667751747,-17.51789284846563,-6.6573857795668605,-3.0282394979223812,-7.508043216563438,56.125546202364795,30.903163294154826,-11.098361959319504,-77.71876651355039],[-20.522438370443254,-3.5644641408211744,-31.761760660542198,-12.939623081835647,0.24504462080197478,3.7681979765642306,49.35566483307874,26.560212424280124,-5.064898653911412,-109.58911740249447],[-18.824158782922016,-11.07495153263714,-20.965004456785355,-17.28089446957713,-0.5856948450259339,3.2925656614131804,19.630250128107726,22.378907526714798,9.444355278160193,-119.27406481382779],[-16.135836813124993,-10.742332446880317,-12.520653805627811,-19.848783783243235,4.524575877273982,-4.244710451693495,8.833335982420317,22.734523660097892,6.724101590562899,-114.75831890390144],[-25.560974420315294,19.572974464357063,-23.965373655708998,6.030074231753761,-6.926450334160164,9.875353724738542,43.373264562561,5.279870025769361,-6.843336869454963,-47.26451674183749],[-15.698676182987377,11.646930854043825,-24.585335863118857,5.187701164363354,-5.915020389653284,14.306991033097189,57.827537003047844,1.4555533968940357,-2.9487822827716808,-23.290016763776666],[-19.825465137954804,0.6406981186877279,-30.261600206406357,-2.849277901934365,-2.6859480793444916,18.45406620192323,61.83644661828234,-0.9622427516535683,-0.6850883262468557,-32.473848544928074],[-22.414954883918142,18.185650108683422,-13.534308261653118,8.33834169668084,-8.30708534387182,6.888840905647616,30.940219311787356,-7.921162050490352,9.359401046431836,11.608726743526004],[6.082889294039605,15.44104438849103,17.661608740915906,10.232855228526189,-4.0020860611690185,1.2239606433523065,-26.416521753272058,-9.734642889065103,13.173068427284818,30.567750598446462],[23.131486653601478,-12.728418098255542,28.18184367982547,2.043553860662081,-5.115501286440333,9.245998178111492,-30.897039744884555,-18.80368462423601,19.785687922670014,58.030888919990254],[43.50487023307854,-1.4967787515567552,2.159506660577527,22.15154696901794,-5.028703772279559,6.636056004053472,-24.0782719063272,-20.95987042864061,8.99134601230305,118.01624471480459],[42.08794445817342,6.6722927951701,22.641396079679346,22.030710185185935,1.6917462754463009,-6.575433039387378,-41.05921711286066,-14.932744707502048,1.0655236999198134,123.8612788640973],[47.27283807917764,4.533499121402851,26.488557143607043,24.36498000552107,1.641506196590633,-7.757991644180384,-45.05077112506251,-13.948790371272564,-0.354671716623758,106.72221361982533],[60.67607257689671,8.63845742691199,21.394890774401357,22.918116738563395,-2.020137102990638,-0.5168584944122576,-51.12730444098773,-31.44090944431931,0.2514151529181241,164.72777084748583],[57.3828297922019,6.610414321367961,20.696198818601154,10.54283963618758,1.1123606199037048,4.628350081040777,-42.04374231766937,-19.30964855684948,-7.118473849623411,157.98221752837864],[56.87952264697264,20.507291919451166,20.875126159509424,4.5056429181523505,0.8564916503325889,6.113684894742547,-24.664762017099516,-4.034696330559935,-5.008886563722114,98.37478757392759],[52.502643734165275,12.797343169102273,31.396918962512835,13.244260283961514,2.76588692347755,0.39432185509341733,-32.59036355409239,-2.40010402521689,-3.2997023820984244,109.19975914355895],[33.64718955451964,16.697768967809115,36.66071428987267,8.212987071768898,3.1343435735699385,8.217894178527276,-9.359806511040876,-2.7496559141260026,-7.521608494339243,77.82993642695575],[-3.2029064947440866,-7.1539254098295135,7.982557704432883,-6.007894271016802,3.0361135456379604,14.236225741782137,36.64955336111498,15.042147468794608,-20.994483673610606,-19.069610820616067],[-16.4962160241651,2.7368748144387807,-26.053591640622084,-4.0979399886897445,4.475967602421368,5.291032827814217,78.72950949225826,27.22606496931135,-26.020218065488095,-84.50423254814793],[-27.43884719733466,3.0422940757631087,-35.95138274424205,-5.13230939630724,-0.9318104581984467,5.942469298482489,77.16719890526186,34.51178765380217,-2.316980920765533,-112.1192472770964],[-23.989582570674855,21.39916237937457,-25.251737250973466,-15.12449971377883,-3.3140248073620593,18.578814864211363,57.83160247746179,25.42351325696921,-1.2577226817105107,-98.91808696252751],[-20.105109491827953,-7.41053783069386,-16.80053842733992,-26.27979045350468,-6.559586707194876,3.6004727597225465,32.51387059591956,27.39780097806665,11.810833111993025,-138.26220267513798],[-15.685778209633344,-7.763636423199591,-12.103682905201492,-16.80839544508447,-3.684134651361774,1.7908588014058937,24.907137512700984,20.94073950913537,7.709687703053044,-113.41414957695534],[-25.821038527634055,21.877033620076716,-21.21103901812118,12.661805840115354,-5.2856186024018665,7.130167385131448,32.294050015177156,3.346309607703314,-9.45567164627808,-41.255906543475206],[-16.94029048977811,0.7419517718470037,-12.091720431445015,16.108484234638127,-3.804015661240357,2.8825753143998947,35.97445828198462,-1.0470598454024336,-4.565551561210948,-4.26863070622029],[-16.40789772569522,-1.3001742878717466,-14.265034555156602,8.40512491275435,0.1040636481807147,5.0255371055332,40.19474156174405,2.3341879864367807,-0.4717877411970812,-14.410913946579528],[-13.448748508655557,0.8446293557158818,-11.667744584140914,13.206734881134173,-3.894090120724744,8.598450785461196,17.809662404357045,6.7818882572787125,4.479255545138795,-46.42814227289144],[-4.895126023392454,-17.90476134293638,-4.489670391415982,14.34108308564259,-0.7127522716313286,-9.838916746908826,-30.230518001381558,0.3484613144371469,14.678380119562314,-44.35950108766454],[9.18421632080734,-23.142064887082512,41.762812113802866,0.7629456298492455,-0.005936937238811584,-2.9486443355949383,-66.67017419023394,-23.694963811194796,19.791734147903743,24.965319468059988],[23.58172733415116,-6.701120062787758,39.70409366928346,4.6859864790054555,2.7621350021271773,5.515092271816178,-60.45781155263274,-24.56028941819374,11.91075704514911,105.97668291355068],[31.71722077996647,8.452878590302554,28.493118449273393,15.871081253646766,6.977304497865413,12.007536409135575,-60.64013854030023,-19.05200497781862,0.8423120072140359,138.18703546467142],[47.63681399929884,6.932976933430372,37.65639322531184,12.79485556416154,6.391615345465337,8.557898293083289,-88.38968512086612,-25.90237179255995,2.868920420396269,175.66343393756648],[43.40984652974065,11.784618935235619,32.82194169868254,5.099828808702138,0.2393509930198067,8.522150098248579,-73.85095510132547,-32.37902900978864,-8.201793716620951,202.74720920057493],[36.514573641502295,12.809146379050047,22.43302178966385,6.043593306336975,1.7382421565071324,12.196169619823221,-44.622257567333136,-18.37207553358912,-15.476225939759287,199.38974904032526],[31.05773507738333,33.34091733995018,13.56299409776888,0.9470517451700223,-0.34393931877537237,12.433514797263348,-3.679699078533025,-6.903149575645181,-13.689667354420873,100.67828379910623],[45.29245013899529,16.02853052941849,32.66639527891957,9.915076005341875,2.4038835556904106,7.953783415242042,-15.250691107927649,2.0080150959098364,-5.318897026142288,77.01046793268154],[32.98744580949106,18.0631825518706,17.03146754450363,12.136356576766007,-1.324125950840305,22.45952698277975,28.69928383040872,5.977497001052794,-18.086670893975295,55.12716083941348],[7.4226980158643,0.9716675740321106,-20.02615539191254,-0.17256015252593776,-2.0839998357637817,19.133667405817725,60.72051727814017,10.778477856786145,-23.686613760374378,-7.119409780596587],[-16.943577890778222,10.979515729148297,-38.57887019709753,-6.360583725192754,3.1273914698061733,5.4483129448449255,73.49891431927017,19.405585164352996,-12.384796320173546,-74.38614052046492],[-25.879015885145026,10.73417954262741,-32.38609507887549,0.8673629220175596,3.037380812207209,8.688905797812547,54.2029510546034,16.610343850884178,3.447960020331911,-67.20630648581721],[-31.826672621137284,16.17912765349221,-7.832291742105039,-9.120458658886216,-0.8379609649653779,17.283147109174674,29.717804291934247,13.272150680941573,9.267445207048867,-91.66362058954049],[-31.139117253106168,-10.936590915480043,-8.530773715735483,-25.761856834611873,-1.4665247896642413,4.842218629886217,40.250164471148686,16.44798058854506,8.991230639633258,-112.27515219490421],[-20.725661413989148,-4.459096323453432,-20.386589769039144,-8.763792745177943,-1.4511908923828953,-3.3935975707232524,24.301260926878307,12.621694388021105,5.644682441492462,-87.32323519120831],[-28.12606612810575,35.61255380871559,-12.690849988967635,7.852966755429101,-1.8072217953415721,4.858555591288527,24.260377163322232,-8.663063357754,-17.90757248843193,-8.953343171140817],[-23.73386423491924,11.176698596241168,-3.2645771577289153,19.660549378373506,-2.893966227660668,-11.40542259760001,16.86073889318498,-3.7242180979291053,-10.409565242007645,-16.428112827643105],[-18.59516922430652,-9.087060497361383,-6.148657859816766,9.583817443552046,-3.260043647461528,-6.576862502116854,-4.145412072099459,-1.9816978348099814,0.6441746967236821,-8.92913311412026],[-23.242090355257282,-28.76366408276271,-3.0754859661332468,8.55260625263508,-3.9445934215600733,-10.301804237293565,-25.87909503346271,-2.777206856777862,7.495881473417525,-57.525855871423715],[-19.40169164837526,-31.18319349906576,8.726409745644775,4.208884677459286,-0.7032855586412136,-20.835242264373083,-49.26734938625171,-10.143151797665803,13.990561055649211,-41.81346780017972],[-15.796289882187,-15.048837078958154,17.242997031907976,1.72741370243515,0.14386242835532023,-15.213888223770562,-56.9298707867237,-21.85942910191919,14.604163722304834,-15.995696785077758],[-9.461292361694433,14.868422366008827,15.518138840621456,7.217831311018568,3.851920181323717,-6.684041265246104,-54.77713749703759,-18.005556842933757,5.7019023147184535,38.925798506892356],[-1.3544415766319673,23.27617820656324,20.970651626360162,7.154372492095913,7.134183438121256,-3.2265671380680647,-60.12058895384708,-8.689620856622197,-1.4989877070484712,36.08352720531592],[-4.05489792276758,9.657994645901308,29.474110174451674,-12.962702790866953,5.225596950995232,6.681364447519102,-77.55719280516466,-3.652156688404902,1.279227440334359,43.1855151786596],[3.3779310313272446,7.681359067363318,23.564273388611397,-20.68148011285906,-0.11016230360363036,15.869472568911485,-49.991607416315794,-7.454448604938106,-5.355668117903975,64.205562831842],[2.9338075902677225,5.390344979482894,15.908363956838942,-5.094949690678217,-0.04805610134073251,12.25576269654793,-28.532693792998273,2.724502312474044,-8.319318619579464,57.3608858451455],[-3.637329419794166,22.532587045420904,6.094426386589251,0.9907951144646541,-2.999616958738467,15.049543705098822,-1.3750029381735211,1.2250236790912914,-9.265494503898678,5.335571968811481],[6.400689843338414,21.87441286087296,-6.939390458118491,-3.884598284338885,-4.010490065627151,12.45263951015555,31.524699909383816,13.48661570755516,-8.01029333372245,-18.059496038760084],[-7.021533518459674,19.452112681128646,-42.107916946127744,1.6382637493148127,-7.002956403447631,25.97413421058243,89.00228443240698,25.905434117622445,-16.257288962964278,-71.10047408580192],[-24.017293903148996,12.121298131503575,-35.27994313286377,2.8267507485726306,-5.549283658716861,17.318515190041683,66.41048634655861,23.430688612833535,-10.788969844330806,-59.38385146090972],[-29.28846188976054,6.249094822518471,-26.562084741050406,3.4474989876272644,-2.559681132433306,-0.8661539273925918,38.608952521625625,17.153654967739048,-3.59862818644512,-83.03144030300032],[-28.72240361828031,12.783689705799652,-6.423290028841714,-3.8693131909232727,-1.8573087239703174,10.269407099201917,29.78812023680193,11.647864178246135,6.116386726368462,-71.29175349810109],[-38.07691344785159,13.255635325755284,3.5110050118948393,-9.303541158642965,-0.5542471369324127,12.304944226308429,25.330514733741552,17.107571393081823,10.082275094534145,-91.62584628469098],[-33.52348765328581,-12.203394069506006,-6.508855690998085,-11.66323750458463,4.442507985968173,1.5728534215021228,27.60738835112226,12.173464742810237,2.583541899170734,-89.01706717662786],[-9.030682044559049,-35.79995051521236,9.57017828905078,-9.538742441136229,7.009918505522862,-11.855471617593569,-5.114544757149837,-4.495011162481798,6.2246283863918235,-10.669299463715372],[-27.522852852332715,11.001105379285612,-7.120144417469791,3.528397430066945,-1.6745107596357474,6.691563540189664,37.13742366199731,-10.99256778929705,-15.506747188552346,-6.506458181754994],[-20.776873532317925,3.7149779710498443,-8.086961211527276,16.462666042287186,-5.539946241017373,-2.854793903671944,21.230644174099144,2.527301498737253,-11.157339596588137,-14.803372033477814],[-21.735403375909325,-17.651691587178853,0.5342290786960804,8.724903825921709,-5.270084529763977,-11.330969561184206,-8.074116326635847,0.09916541450759427,0.0771411456791988,-26.746898371141995],[-21.035448073687117,-28.333810849887097,7.334785451611805,5.904880436516686,-5.810177230998326,-12.707301538053548,-30.651557374752958,-6.179475148394952,4.73053388303649,-27.277372867512483],[-19.434148798418914,-30.408420003040323,17.251193727535036,4.972344240653,-1.6571275025856556,-15.628640832750069,-42.01467371424756,-16.595138900930507,8.869516910753857,14.124129300424821],[-21.90052442765247,-19.772987877561288,24.933486211285278,-1.5212226139456388,0.786622205020877,-17.396561076797873,-60.32978225959822,-21.71355595362382,13.06994803761557,7.23383132247382],[-17.766296107691414,16.06500823920086,20.28439238246564,-0.8656131368339215,3.240216185528642,-7.7387653133140955,-53.827665751263574,-9.144938246986662,7.573041551883315,20.473428111545797],[-12.468947482870519,26.593014496256647,15.350457617095463,1.6093831979709843,10.221302886142432,-4.630251156420123,-49.469921321648954,-6.715174881883313,-4.722599213400017,37.95538177442661],[-25.957424296468588,11.687933526166754,12.013965370689998,-7.710244909653157,7.1306266969295695,1.2744799569135181,-31.443829058086667,-3.6006040458015964,-2.172678590694163,38.31564585907553],[-2.422906704000194,6.299807382876568,10.85510783726849,-16.663018636823743,2.6675874869712177,6.80391714626777,-27.94243039617179,-2.2201639478581456,-6.743417210568523,43.94596674104278],[-0.5351520997682166,-9.637784680908574,15.695459788182198,-3.3726451208699677,1.3111488089781282,3.7464228003051865,-20.5941648948524,2.7495140078351876,-6.52925664541308,21.526115752906417],[-20.873328622303518,17.794355142159016,-1.85042557221941,-4.407806088031861,-8.400864532017454,15.14115596408637,15.307985661725318,19.921694762538788,-5.894517566354514,-58.660970131470144],[-6.78225698332495,9.944599690522173,-20.186222396583318,-4.313646577633399,-4.293697439095619,13.744022696938565,37.861534945840326,30.211302015015853,-4.4873680449567805,-67.43870756531072],[-20.357814398899404,-2.131690292330479,-34.97982191449273,-1.0525359998461128,-4.589705217386182,21.077820090371855,72.18672450192477,27.072658740077895,-6.022986555130397,-92.48397748979389],[-31.709214923245426,-0.6148597102553945,-20.654119288627058,2.2289610614688264,-5.093091653042891,12.200151336516582,49.89146413313754,16.030883823105825,1.2412199165522828,-76.92390303743589],[-34.06877446783282,12.86348775381187,-1.397239074123369,-8.912996566522647,-3.391161733820538,-5.541488044414101,20.82088223029292,7.749566284869619,7.984503427684685,-75.53113204086402],[-40.564770526965205,21.15701205865228,8.090797325134826,-5.6637439136972185,-1.9078973925891292,-2.642078011473856,14.706262211833456,8.614096309988312,7.844636071747465,-82.69008335112731],[-38.47552627993927,5.649878814356647,-6.364555107673646,-3.1687445000214756,-2.1666129998853765,-5.465679520819994,23.7324364317536,14.838267564444754,8.078783857186503,-98.06618326496945],[-23.189936755727445,-33.529608688552784,13.614135625562676,-7.558424315581723,7.082976378732798,-9.134264359033772,-17.982440644371916,0.8500930989681469,6.89517724490633,-42.53065849647353],[-14.39699304438618,-26.08766826538724,24.801543207412568,-11.999216987028921,8.26467470516919,-12.935073385819484,-37.392709496512104,-6.062023915859548,11.315934432790508,2.341769530473148],[-13.008972472888463,18.94643538710528,18.488457131227833,4.792233105216912,-0.25706050069311775,6.565197427997682,13.727270177678754,-12.09612910071858,-10.68503703833907,3.03225549975067],[-21.59030153980714,-17.337493434043154,-20.24495581957934,11.727472901271122,-5.312609459416846,-4.091039172750252,47.01602952080389,4.08389785542379,-7.203925441834277,-50.18242097077178],[-21.336262396732927,-35.076048898859256,-19.422009726511966,7.742245236737888,-4.388856600301424,-10.812559569371368,17.11194235903954,5.93825896050858,-7.6660144790060105,-53.038065077416526],[-22.96758261925982,-35.87007998991468,-2.047346928680948,-0.5842174474405356,-3.7690473634008836,-12.070248541810741,-16.739753546436873,3.3581726874380182,-2.0688679706876063,-43.63103899563394],[-27.204347942505382,-30.91146351629958,6.392599864729136,-0.1842379001376181,-0.80617215346123,-14.416895101362151,-17.30226211460592,-10.447675610990299,-0.5436229081023033,13.002221395823485],[-27.76897826064555,-7.114540301414135,21.76231170544497,-10.390834611454249,1.9071190229749841,-17.291375283561514,-54.168421809085714,-17.70098891346303,12.024100729027602,20.604238829059238],[-32.10846689980602,15.7738405572977,8.806451842625785,-10.740204605367836,7.272547471546468,-0.006090457627866891,-42.16269993572051,-6.283563323611139,4.837015194344571,37.24490467941865],[-33.9661744671772,26.886764799494973,3.751642729442094,-4.8182316574094965,11.17130755751765,3.293605690335137,-33.76231349768805,-10.816508619505056,-7.2623048241234756,73.97194228672468],[-16.783201348446124,32.415043179946146,13.585358043121389,-2.4477878807321334,6.141657376727397,-0.9511107594938013,-31.97905090065012,-7.845400091287508,-9.901361407928798,81.07693845629741],[-2.218331663315349,16.252128309278323,-2.8775330902541687,3.0056940661839375,7.795785245427378,6.170140270838196,-16.493184816817305,-9.95397397737824,-14.206494648767945,50.49503359293864],[5.6704441329813555,1.2702535460469837,1.77857271747145,5.736319646515756,1.1113420669745142,15.928440104777179,-8.52992374215817,-6.814872268443635,-10.182369956837066,49.94357924791524],[-15.578954085634036,11.271679987707333,-13.205295163124806,7.688196872652651,-6.346685258821344,22.519721430693878,37.212221989367826,13.18239026326198,-7.511485215034654,-41.31997608333026],[-10.20141469638512,3.0441082360739644,-20.66695187559392,1.9784993936745718,-10.310397223932389,21.285527250337935,46.65894008555011,28.9155575521324,-6.379767553511088,-59.520579553289764],[-9.773630442912308,-5.099446597267896,-33.420233435124196,-0.32682363461322045,-6.125746122051999,22.169951530766372,63.6603695435107,25.638299162199818,4.815631459052346,-75.60811251946905],[-29.643923641583072,-1.6093301158098754,-30.69279909728215,-2.2568188142178296,-5.725821095423869,13.218225661620723,62.23388298667585,18.887154253586964,9.290284381196807,-97.63015928030282],[-37.53057681649569,7.32031685591547,-15.254336321388099,-7.094661169788726,-4.411596383449368,-6.066022218145167,39.185349383746875,16.935707634930548,15.79399529800857,-100.4731990151104],[-33.95796387574955,31.60767543083364,-15.547850875956504,-4.257704042028205,-2.175338274834523,-8.259043626876997,24.638299220199013,8.526015888179224,10.269969089923373,-82.31724571744196],[-29.470879941907498,3.7252290366912444,0.40217820540975424,-2.237242968525862,0.45588714148848913,-11.822826297287383,11.609025294903086,6.574732810775038,13.221167405226856,-52.083745765148514],[-36.68865722670499,-27.280481679984955,36.15305415357713,-8.775460130579193,4.981052960078438,-13.646913291851188,-46.87723776978172,-3.2601750956574795,21.22563552109526,-50.54228758857421],[-35.824541867791666,-15.89363909831885,54.816770951736245,-11.349835500012391,7.338334291268329,-16.46338412211177,-60.70785519444101,-16.09633329957418,17.912222181786245,4.933392298439864]]},{"inputs":[-1,1,1,-1,1,-1,-1,-1,-1,1],"outputs":[-0.3412995702880074,0.8970942250417634,-0.2371907285880462,0.5804970818825063,-0.4912409695363984,0.9340636851378759,-0.7588162611637861,0.5997849016609105,0.3552228762103831,0.7632287076702753],"biases":[-0.5289063264974665,0.7576613373444596,0.22792676536705497,0.220181451172392,0.028719237864837148,0.7847131483191806,-0.7755976351877902,-0.15783159765248422,0.12242751116204321,0.6763515428018221],"weights":[[-0.025889251210223813,0.08374485059904586,0.1492096443447971,-0.5026494504129669,0.15460730510452697,-0.11636785445215998,-0.06480381381111784,-0.34581434270041533,0.04655593871898594,-0.07401418403418965],[0.21494314128611508,0.5330289138859615,0.06573683110062477,-0.5717273430041557,0.1817453644165689,0.3818628518037211,-0.023395901278756223,0.19790111469954255,0.13678916829777976,0.37538460728834494],[0.04914802359841949,-0.11993117965787835,0.07869057435353892,-0.26305895607336427,0.2847849828415292,-0.13068536771202768,0.04268021542101777,-0.1551312347140477,0.03780170588514238,0.016215303801025257],[-0.013903690927682035,-0.13841844808498954,-0.1030346436013604,0.0765021528225282,0.32024487894424036,-0.14784886231015595,0.10858650946084776,0.15031560718490522,-0.11988633172828612,-0.23974593389803597],[-0.0285161474094041,-0.04263033696650557,-0.2227917385634342,0.02575037839306344,0.041123732742312104,-0.012151405173074236,-0.020678667691378064,-0.24250799299379044,-0.1116211644135378,-0.33981104681453617],[0.12496243128755859,0.15126548980035365,0.3254630867975414,-0.5200254525064048,-0.12015282781650674,-0.01666635188014696,-0.11168104956642207,-0.5957356889934142,-0.010686265718870725,0.13093179080131076],[-0.14789021765211777,0.07273285600150613,-0.33846787288488756,0.19466312211077016,0.45312255058128836,0.028286994745415576,0.04924170605483338,-0.11815202768461332,-0.22318651637115944,-0.18068655583588514],[-0.034051381138880954,-0.2100500633238703,-0.04403305873599647,0.004109938969567116,0.08802646541587261,-0.06633070115346737,0.0023715419757825485,-0.03574338114947058,-0.025665456820418785,-0.2549916499851934],[0.02165984760240043,0.0067574846407544,0.15890494769508334,-0.1485673158531242,-0.18966049205062852,-0.022977996459846148,-0.04729590543134564,-0.3477175915079572,0.04458203060675709,0.021602426085697624],[0.09004887149449374,0.13847265736996656,0.03444239840323877,0.17893197529636182,-0.0255770199190335,0.14122899683074389,-0.11633329833857281,0.18232885617788377,-0.006627038491779482,0.16747180276688398]]},{"inputs":[-0.3412995702880074,0.8970942250417634,-0.2371907285880462,0.5804970818825063,-0.4912409695363984,0.9340636851378759,-0.7588162611637861,0.5997849016609105,0.3552228762103831,0.7632287076702753],"outputs":[0.00392425237141086,0.5480181167137748,0.439528380241523,0.08598359558019197,0.12760295866155058,0.820133891455865],"biases":[0.7607251880045943,0.29520641061215763,0.03074002851376,-0.9031475285152101,-0.3801967371853456,0.6204576673164542],"weights":[[0.22829488535671108,-0.08054246596261296,-0.2844392198656691,-0.38991895475037686,0.4586962734723885,-0.29391870263618713],[-0.5532586450619048,0.10523299683051171,0.223541824685247,-0.3530427888503058,0.2516902370490519,0.6215555883549524],[0.10998273248224241,-0.8521268613453273,0.5719688038024977,0.5615646438379304,0.6811667966859264,0.8641625971772053],[-0.8110279553518409,-0.1496258828158847,0.35301413968308304,-0.17069639242501583,0.5162645815995959,-1.1448831913065372],[-0.045264332269552524,-0.3834518790189538,-0.28227162278091844,0.5073260623962907,0.6148458080174798,0.24224340821721993],[-0.7193716635988737,-0.22858878341371172,0.7610800208492329,0.06843933928506975,0.04727941116951946,0.2820427385336147],[0.4289956060817316,-0.5044375979109723,0.45926680776663864,-0.3335888371966139,0.2105129815195943,0.004659495899104374],[0.3272982210094449,-0.5497375201898906,-0.3852101827046904,-0.11300884623524243,-0.4908188498387538,0.8097362963870531],[-0.3324695101578156,0.09496393534893799,-0.6930691517673031,0.5655204597867631,0.6856153080492533,-0.4051172337082701],[0.7124198517425014,-0.846485606714536,-0.8089392200659303,0.7032058143129104,0.13361869639404056,-0.526513693037732]]}]},
            accuracy:0.9751666666666666
        }