module.exports = {
            network:{"levels":[{"inputs":[255,255,255,255,255,255,255,255,255,255,255,255,255,255,255,255,255,255,255,255,255,255,255,255,255,255,255,255,255,255,255,255,255,255,255,255,255,255,255,255,255,255,255,255,255,255,222,227,255,255,255,227,190,255,255,255,255,255,255,255,255,255,255,255,255,255,255,254,237,247,180,6,0,184,255,255,255,255,255,255,255,255,255,255,255,255,255,255,255,255,255,165,92,242,255,255,255,255,255,255,255,255,255,255,255,255,255,255,255,255,255,255,255,255,255,255,255,255,255,255,216,255,255,255,255,255,255,255,255,255,255,255,255,255,255,255,255,255,255,255,96,254,255,255,255,255,255,255,255,255,255,255,255,255,255,255,255,255,255,255,0,64,132,136,136,201,255,255,255,255,255,255,255,255,255,255,255,255,255,251,0,0,0,0,0,0,75,255,255,255,255,235,170,170,179,128,39,34,34,8,0,0,0,0,0,0,50,255,255,255,255,205,0,0,0,0,0,0,0,0,0,0,0,0,0,0,50,255,255,255,255,205,0,0,0,0,0,0,0,0,0,0,0,0,0,0,50,255,255,255,255,205,0,0,0,0,0,0,0,0,0,0,0,0,0,0,50,255,255,255,255,205,0,0,0,0,0,0,0,0,0,0,0,0,0,0,50,255,255,255,255,205,0,0,0,0,0,0,0,0,0,0,0,0,0,0,53,255,255,255,255,205,0,0,0,0,0,0,0,0,0,0,0,0,0,0,159,255,255,255,255,204,0,0,0,0,0,0,0,0,0,0,16,170,245,208,250,255,255,255,255,163,0,0,0,0,0,0,0,0,0,0,152,255,255,255,255,255,255,255,237,34,0,0,0,0,0,0,0,0,0,0,208,255,255,255,255,255,255,255,123,0,0,0,0,0,0,0,0,0],"outputs":[-1,-1,-1,1,-1,-1,-1,1,1,1,-1,1,1,-1,1,1,1,1,1,-1,-1,1,1,-1,-1,-1,1,-1,-1,-1,1,1,1,1,1,-1,-1,1,-1,1,1,1,1,1,1,1,1,-1,-1,1,-1,-1,1,-1,-1,-1,1,-1,-1,1,1,1,-1,-1,1,-1,-1,1,1,1,1,-1,1,1,-1,-1,-1,-1,1,-1,1,1,-1,-1,-1,1,-1,1,1,-1,-1,-1,-1,-1,1,1,-1,-1,-1,-1],"biases":[-0.1206902736597368,-0.7368515086829716,0.6424546119850068,0.11159865248151575,-0.11171853442045074,-0.5630636741626961,0.424257427857304,0.19968221649909604,0.9939862072377615,0.8940074412183835,-0.5318808876657118,0.9261810251297056,0.3695209533139331,-0.4410851783412375,-0.8618340201390595,-0.6171493042860894,0.7045742308143934,-0.17524412571515402,0.9363952762152268,0.5043293884503608,-0.05517851409212608,0.05131727084820578,-0.41809600453182577,0.7321128493545241,-0.661287567929999,0.951387090582306,0.914169350359917,0.2885062251188885,-0.5963461451618668,0.28074846412183074,-0.9774890527705872,0.9211669304139457,-0.4309448757841217,-0.42926862759053863,0.8945756678992397,0.853998075448043,0.8839229270469282,-0.49583272479815976,0.2782480687349694,-0.17825279302750205,-0.8119582026871787,-0.817474791364385,0.7818073429245815,-0.3760006617548635,-0.14004991099851313,0.4998995404206656,-0.985575921182307,-0.8322590593282941,0.9601796025933758,-0.3845330727469168,-0.10297955851096466,0.08728624254645521,0.9696250538067577,0.5231445499273805,0.4801824086892759,0.6369284378131166,-0.5798347332946426,0.2137405746141401,-0.38860956350938647,-0.3442256010809639,0.5186519843208958,-0.3685674995348907,-0.16012279289268735,-0.07311860060420404,0.6208654524875282,-0.7268263324753722,0.9162779673328182,-0.7737224307895769,0.22970750295488096,-0.7941311210658556,0.6824921756985644,-0.7749645035683292,0.7328893892495293,0.41094217570281066,-0.9577563846373214,-0.7550122458139212,-0.6463109545430602,0.07268959131296499,0.17040851594954898,0.9683289364587223,0.34011190478537273,0.05200444436850736,-0.7417398654530829,0.5934451042697128,-0.567350787603037,-0.754389014479372,-0.13003176801434913,-0.5737106814136477,-0.9448557771651727,0.37922536709151483,-0.9385394770905954,0.44488285011690887,0.671624862286332,0.15206813959864815,0.11718455030155799,0.8781391887473832,-0.6896781826745226,0.13685107109692288,0.28369755559420573,-0.6757110780853143],"weights":[[-17.7971686238491,-2.4584282989099866,-5.161055816491498,-0.6063049491386785,-6.440758459967092,-9.649238372143472,-0.6355612202724668,3.433335025759197,3.5360129922409578,-1.4323139605240187,-14.828601411284554,5.087914414777586,-3.0160688015633106,-6.204297512535171,20.48518295035473,1.7542216676966136,2.46466714240105,0.6283238607931004,-0.25126824287091415,24.102448101019633,-1.751271445517131,24.771605559747915,-8.747080874195925,-2.483703479291955,-1.381311597453257,3.2475320315818417,11.597725509782494,-6.648148619460795,-0.276628250098411,1.6957486417772925,1.8176661776267202,-9.50632679754123,4.834342602893842,1.0412659123532735,10.378865963390288,-5.52892945915964,-6.452260731993093,15.095973422601276,2.084253218062396,0.6790433134369857,-3.5027669783124193,-6.547868852474836,17.184887118388843,3.1388956860969937,0.31327862720097477,16.27578484410713,7.812050540790905,5.674813896941522,-8.26383184780273,3.834073004229567,2.368132998881344,8.084528201511299,13.18750206243086,-7.004314791841526,-3.6925590009706593,-15.79301117951536,4.05616112067141,0.069808613610897,-4.213428092725703,6.041191196223845,1.0431116873162871,-3.6519175844212315,-27.86831936679105,-3.071101998475793,17.919698711053968,1.8835286321901037,-0.76130526996712,-0.7135455042962386,9.418834790474692,5.691585544720277,2.824085430982764,-1.2215023349280427,1.12260147588001,-5.111510446286804,4.789287805928215,-2.4576725596254234,-8.266516162285408,0.49047662045371004,12.079100138046742,-5.068573739889562,9.295266171657476,8.23584383815597,-18.934266078761503,-17.138553674960928,1.653507233824139,8.511813476424829,-6.471492839292252,2.399689004527907,14.70634603433164,-1.3195016547501968,-14.389549066165813,-5.3574700036735825,-4.655325503766174,-0.2558504043592813,-4.631138687254553,5.54771144596202,-12.395662299995386,-1.7754487513556585,0.35802727965885983,0.33927026397693044],[-13.98930160542166,-3.953463166585785,-4.718698354112748,-0.9295005675559396,-8.55090218798863,-8.88286713510954,0.5972368372207979,2.483628742574888,3.4887716994572955,-1.2042833341334538,-13.896093156075919,8.20259852540186,0.15898948095363577,-7.659994347083446,20.835839887875256,0.22749137283969859,6.089639767471601,0.0756853755254494,-6.429202980146331,18.20636249171905,-2.7894900965362126,24.320654353867596,-4.5106732390499955,-3.296487598674711,-3.243370211709211,3.199840687966379,13.759215106267702,-6.86989502232499,0.01137267817356345,1.2114952374616024,2.4682256883365494,-6.381651528228386,5.494661688106282,0.7498218544601246,6.3795409647701105,-6.698180881989496,-7.822610704078269,10.907190023711406,4.825740563928546,-0.6388098283060428,-2.5736370681631695,-2.6195701412165486,18.03695351263551,1.2196690801157752,1.0908991559187764,16.869572321537092,7.900377294382159,7.36621781315547,-5.379320280414422,2.559789588061093,-1.35835706027008,0.9651879748281406,10.432299811333252,-8.617830102933771,-2.547482357921724,-15.698371212301533,4.001401616325458,-3.271171408546017,-3.061137865304436,6.608029906506635,1.0452331494445464,-2.6733248119412703,-24.567220513356165,-2.9154255251854426,21.257133207709543,1.1517426384609728,-0.5075303906110146,-0.22726854152775064,9.003591806057544,4.815058664424749,2.82677519693157,-0.5674269272794128,0.6011164782266575,-5.246462753014657,8.140587213193236,-2.609366647381096,-9.337706594498671,-0.5746430094854245,7.695480505906489,-4.616819957055952,12.488673349808149,4.315393338032397,-19.14546409022237,-20.63495072383411,-0.1386032025047242,9.894692160020524,-8.065308755834831,1.9337080105660818,12.508677865883444,-0.21544575619224443,-10.51768614719014,-7.820373771624261,-4.984694486703265,-2.0167332850132493,-4.881617843473676,6.246032576251382,-12.576432136334327,-2.405377372524575,-0.12306354476214627,0.04313967482213668],[-13.68500349559066,-2.4347346040358224,-4.80114489105204,-0.5914810269155631,-9.306257708751689,-9.550225753705515,-0.32377132999559294,5.97050638216566,4.497361819466045,-1.9815885379008855,-13.525260873720423,8.270878432941345,1.0585273311586627,-11.17519615558083,20.915570706097224,2.486358650166118,5.55786905793872,-0.8731710105342237,-7.322436466922182,10.954703589542502,-4.8398063229646455,23.872625533957716,0.549517559559415,-5.4827293043107455,-3.3891685249812227,2.120036099225998,16.48829418668206,-8.524245593220991,-0.2435387595966024,0.10179140237593641,1.5079991078050947,-2.596456824574679,7.587008201246823,-0.8041047092450745,6.016803284691927,-9.178832614049767,-6.908477072430113,11.73129863445169,4.454857883210783,0.2825241367953133,-2.31496634688163,2.4118809958898204,17.86639571326468,2.617090891843261,0.5944270892438241,16.367765167262682,7.523575633739338,5.533238963733968,-3.758669143179085,1.042909577814556,-2.3770227684875787,-2.6972432469603187,11.3813410018898,-8.081868305374142,-2.9573154043192726,-14.5587614927422,4.819887662455195,-6.631588777267398,-3.1696858841652378,7.329785985622888,0.08855118087063714,1.084033554481944,-22.734293048215054,-4.218724981886909,19.26447694421454,-1.8264740948759077,1.7415521536632832,-0.835423397733174,12.349911819282559,4.1985698309181965,1.7069778747147268,-0.24708169115108444,-0.039028762759082965,-3.972160388142501,7.7331892635635135,-3.4482604174310176,-10.47709593957893,-0.9499695069312323,7.598963804044031,-6.870198470462356,11.769103885032349,3.0109639820595704,-18.566558065750094,-23.583490927992454,-1.1769187581705272,12.631971041339598,-8.364701467167864,2.9964488192954266,10.202798524573728,0.3537259882549854,-5.685198019136466,-9.067454691820622,-4.148967134813361,-1.4896819536216006,-2.962099571237246,6.290102744433673,-8.446669119247176,-1.2347318693231326,1.3027857589205285,-1.1870206055818995],[-11.9167641984094,-3.7137654349507265,-1.9921746058451504,0.948029333693916,-8.44232525034358,-8.820801668188688,0.5158105046251231,9.10731960118369,2.899048669110496,0.5143016236153275,-13.064480416780292,8.837823502362488,4.149924266886325,-12.58354743863625,18.738212946941445,1.5929476375053995,7.36580653951655,0.10636512222600272,-12.380290726893824,-0.3610396126035519,-7.378875567673252,20.797305633145847,7.43078987765629,-7.067296523680376,-4.82541372442466,2.0228659773213833,17.609890207950208,-10.611860299251282,-0.984646783672809,-2.7955707860262553,1.3351493218142587,0.08903744071107315,8.111903922200629,-2.151049892122556,2.625970121448414,-10.652908243031296,-8.692926237196621,9.54387511523412,5.514336464211976,-1.0128714657433229,-1.0025060926951226,9.551405529870628,18.260289538230015,1.9036276466128352,0.1561929295785009,18.133082893889792,7.300994502166013,2.0873269882918217,-0.5752724651211739,0.03333880329637721,-3.7623767587379544,-9.119562870067554,9.877901353853678,-9.174167080573131,-1.6122056637668933,-12.232850248500975,4.3589921004226895,-13.98337375133404,-4.078196110463149,9.520606629484025,1.1603626826557352,6.074299193938413,-18.094964076995332,-3.226382173187628,17.76188477800067,-2.3826254153276105,2.112597463735998,-1.950301155603587,13.777258370183898,2.78800884314798,2.042652815697382,-2.3686922391601466,1.9468045866062649,-3.669071735535339,9.680492434655134,-1.8318857023444157,-9.17527758094735,-3.7243929402917657,6.170283098466748,-6.722445184487163,13.00227533763719,0.24451220173819782,-16.89682420716965,-25.800551786228375,-2.7764834206217057,13.043866981649893,-10.73508505109514,4.246448395370529,7.31399141692915,-0.34968730703169504,-0.8962785942149022,-9.828178676559126,-3.801729616487039,-2.4519535914745147,-1.5491009015935349,4.690727915770379,-5.902409982600933,-2.3262253182529133,0.56604888301573,-0.610458031648458],[-12.042135616152132,-1.875984095328199,-1.2585044963174075,1.4919656592168729,-7.534161955304804,-9.251639953809912,-1.0839387409511763,12.707570209088626,3.033629548015698,-0.16097352517122096,-12.083081004776256,8.19725852623681,6.326363208487423,-15.847327342027423,17.368524361398133,2.0999873938406957,8.422427790383148,1.0085871562509117,-14.724037626887947,-11.97410615179452,-8.979708674292121,14.651054873275369,12.169753635751512,-6.987900011377623,-3.9510763017821513,1.3487298998404345,17.883735101076233,-13.851032319596804,-1.2237407301645626,-5.145155653568485,2.6607686889276647,4.746983384123771,6.524467009684294,-2.1890219541697813,-1.5970008139371104,-12.110137404509953,-6.673574584282668,8.209175056968698,4.395586365607099,-0.3955142894890389,0.8233996287915675,17.60170281729364,14.74147926139793,2.803694547408899,0.0683491614835832,17.480938909216384,5.6500977605774505,-1.997522517390142,2.937159170750393,-1.9261610834642793,-5.737652795770287,-13.66585792357015,11.663762027553803,-8.153017125783954,-0.7560815977366678,-8.749502462866543,5.329792876944533,-21.453370463916134,-4.158923126511167,7.911484326849163,-0.03761911922605403,11.338962733883479,-12.059732639484341,-3.9251923756687708,13.819348551279566,-6.591696742204969,4.242462779182181,-3.6172742125569806,16.229325824462975,3.490077046206572,1.9683201094126856,-2.0867158717471583,1.5084102495000247,-2.308730820739033,8.86087666859063,-1.2870282730363904,-9.473931599633657,-6.561297262059804,5.133776183430437,-6.844240557386513,10.527620005906543,-2.466906151637361,-14.695149652315664,-24.796278422564335,-3.6805290926132166,14.589728087518187,-12.228045648810523,4.926030718900382,4.491597710165489,-0.4378475867417256,4.800182383866564,-10.577093419011458,-3.753962862750066,-3.1838703339256145,-0.21733043314957512,3.675703246821999,0.10398680645206775,-0.5245581391721168,0.669780028966862,-2.233833027958323],[-7.354722860253451,-1.8926928138247754,-0.48958292741660375,3.064944360559053,-5.835808295831839,-5.791752591961388,0.007810353883285251,14.261526420885811,2.4470310718191297,1.7744206803194782,-9.009215472129467,6.107009822296858,8.596253612640227,-14.710808295917824,12.138531178605216,1.047323233368273,8.242943703867663,0.27254779046370364,-13.793702404463971,-21.09949847827951,-9.280806353613997,7.777484739902234,16.96096173842737,-6.510840808775841,-5.030652157422878,-1.8921446198581235,17.128488353972557,-13.743002396182044,-1.1805749509726795,-6.575348748292776,1.3939157981696495,7.102779624968451,6.828266912282261,-2.6226285924085224,-5.419386760069938,-11.727282030323947,-5.961777666732843,7.428680673640177,3.5588216239798394,-1.2021083360928377,0.15556149157249521,20.008033817640857,10.131756112950377,2.668832131232381,-0.5096581369831444,15.859689271255618,3.5820772772753995,-5.564344564201644,4.364234619992212,-2.2462336120424733,-6.0562994909932595,-16.67109640395259,9.420526157443431,-5.99570609164586,-3.3647117913583195,-3.0196961910295896,3.32566303089129,-24.856736058265902,-6.370960420867555,9.293415265518354,-0.4199297729170992,15.831617894092336,-5.8005096449659295,-4.241873841302926,5.617232152615098,-8.606537759699943,3.916710255905174,-3.144062186215942,18.961308245070384,1.6524583383196583,1.470887264304234,-1.1096048702859584,0.6968815613164346,-1.6754476853507358,5.831214407407629,-0.24567864938678505,-9.000754670395597,-7.8333073764220265,4.452438386337039,-6.4644506880069015,6.901801154080685,-4.983355172794953,-8.96574438896218,-20.3825133543273,-4.65725954280088,14.288845797793334,-13.477235754377165,4.830233935766989,0.19928692771419215,0.8151010120385664,8.881379822368393,-9.75193141097307,-4.051549101426529,-3.977866023502885,2.046660274840694,2.174963063652183,4.369021968329919,0.03512917080107912,1.1916348201392044,-0.8663763912266247],[-5.994385242677956,-0.35333372983701905,2.0814621542806164,3.345129400380309,-3.887589867945383,-3.8367977099356376,-1.2485666239542283,13.58677877331623,0.9287145333874681,2.3935099755488563,-7.498674376647346,3.0650579522345627,9.480640078261242,-14.373159427585504,9.576667000877885,2.091020868593399,8.629797646470193,1.1767881573459642,-12.44306471160516,-25.782866823344825,-8.789084624819766,3.3742513479766343,20.320820716613223,-5.601393462325713,-4.016268269986317,-1.9761994141896466,15.602402327253177,-13.33916852748381,-0.1074817004785712,-7.409612166600436,2.1443189937681026,9.917866869768089,5.2231413289614865,-2.8160508860615736,-7.495973659957052,-10.763283772376814,-6.3560685520278195,6.554375719188257,3.3515002225511994,-1.7333725445690207,2.2380256944080474,22.880225137826447,7.133595023621322,1.6476225587441427,-0.7144837934719399,13.13803787403485,1.4139497099495146,-7.088137448811176,6.3075763729893,-3.888482896594543,-6.544095505615454,-17.66855623358979,9.790112446680135,-5.450123773038573,-2.2934251006754383,-0.6569411264682421,3.0156829979627577,-25.644904068029724,-6.149818257405633,8.26912704187456,0.5679563537146509,18.512888395151343,-0.6965589973715542,-3.7217581639581105,0.2531511013502968,-8.549104083483503,2.9598639497790766,-2.1655484837838683,19.099438624037862,2.498154269059853,-0.4538813877603674,-1.1343551185837248,0.028770638669698527,-0.6278128072961254,3.1062399147194353,0.30950031559346214,-7.050044503501183,-9.274785150535024,3.371999821383496,-5.25152198967993,3.565431650962084,-6.61997650489541,-5.298292899078215,-16.489044597642348,-4.513189188087481,12.71254828434777,-12.792634581158866,3.956388124778386,-1.0819126548829678,0.39449335284851383,11.357386335173407,-7.534466171625333,-4.587813540718121,-2.5826854149595633,4.194106147855581,1.4246448146182464,8.391254969296204,-0.9806930246180504,1.7703179916783003,-1.5158426044992455],[-3.213602387882801,0.2585439828179172,2.3470248620191785,2.873985966667018,-1.6119673127428826,-0.867295980903513,-0.695441260711433,13.998353721277091,-0.8448618311622963,2.264331562871952,-1.6485172865151902,2.531124451629719,9.029116168957705,-12.428263385392697,1.907845469960868,0.6737631518028677,5.6081504629310395,0.40636066750116917,-9.293009754632754,-31.65554054116233,-7.582046318682358,-2.96658535087441,21.60240797245059,-4.663020502033748,-3.099177802164029,-2.371467420585261,11.600845280586162,-12.458273303963477,-0.009133922226000497,-6.512790155188981,0.41722420515536984,10.724939237963149,4.47055772628709,-2.3662066743142223,-9.11927223976251,-11.033887536696206,-4.371732116883403,2.3835682414110537,1.1453198464981256,-0.622364634604784,2.0327059427108765,25.545665483760423,0.3823811742634806,1.2456169340792969,-1.2392592209285362,8.147420581331525,-0.2533111567572523,-9.858721315522635,8.502361160826727,-3.557590772154186,-6.480660427665141,-17.45331922832536,6.556850246218289,-3.977243734535415,-1.0822721126865416,3.292932821545242,2.478076105412019,-26.06538386406082,-5.033706650948945,5.113847164532805,-0.30182080213298945,19.01050869092079,5.16231295381209,-2.85430303804294,-6.090415550597532,-9.022165114964505,2.906970459279931,-3.1081207227371026,17.315617795968162,1.4753196498393852,-0.5063292521759547,-2.441029907127133,0.5599335153953137,-0.07887623591776292,0.5746360163202251,1.145031449998912,-4.318552258066956,-9.720925459232491,0.9613455814676696,-4.403350734957219,-0.2278449169367782,-7.605010604163236,-0.4722119990842976,-10.591560277983815,-3.826982112234626,8.844763255109157,-10.24772226432256,3.6841329789459785,-5.77944023650504,-0.6226285968135344,12.819978529602265,-5.677834371890697,-2.9684470302136297,-1.8162829238783877,4.537360404684146,-0.8221185936528007,11.475428397191724,-0.2944002140971961,0.09125458750966374,-2.187155046653736],[-0.2792441802631388,-0.7919914690575905,2.5382308093914316,3.4073152832734674,-0.030628752993262728,-0.18601666503098813,-0.7308802091188633,11.645748874650655,-2.086283215481545,2.012189905178183,2.372162818239147,-0.311048799314266,8.331778667662238,-9.651818079118415,-3.9347543065195203,0.7711670482196201,5.800464935401981,0.036188733040669455,-7.723324782065175,-35.916433294302244,-7.375225835654495,-9.179350987277273,22.419289010576495,-3.975331178201254,-1.63982599336626,-2.9702662250426437,7.467321302140257,-8.149015135893995,-1.1633063846841953,-6.912185317776879,1.4693902620858406,12.172785319439445,3.7559029625885123,-3.8350995613141046,-10.231961006632583,-6.75478159180449,-4.789493052997235,-2.052460803099983,-0.48950354890684167,-0.23902936148697831,3.402919026072768,26.976478167504062,-2.4775631670400315,-0.3640438567449746,-0.5970310817114622,3.5321993316616385,-3.4702194663886847,-10.831577595267039,9.456558425224022,-3.901529060636306,-5.714243990020115,-19.18362424885661,2.770438225333617,-1.7346222130411675,-1.0120493167129183,7.995995839405345,1.3981568149415362,-24.032283612007998,-3.736223443073871,5.703081680772254,-0.23352165717914336,19.407349966027223,13.615599901880005,0.18090341728288145,-8.950050623079521,-8.601977279498938,2.330168537034405,-2.358160471464628,15.622981596329428,-0.7049704599108233,0.16106845012366636,-2.882060086720145,0.6788828192349762,0.9152840099594747,-1.0888481801011358,1.5868805105459058,-1.4954450811470452,-7.93383155370121,-2.833698532641164,-2.518451259189935,-0.20018527059672395,-8.12754944859545,3.2106619384226525,-6.253528855211697,-5.677008791660587,4.97739171732075,-8.21086686068653,1.8921395744487406,-8.127659657284598,-0.7412037457737705,15.804669688382704,-4.34888984873534,-1.7256877820061003,-3.1058468439297515,6.127867628200558,-2.965519659344316,13.631550493901615,1.1573327758072112,-0.1686407888511318,-0.9535388602050856],[2.993780722917355,-1.945093771332085,4.130132978662326,3.3416253282766237,1.4668298842132368,2.565316820649361,0.6344848272517001,8.523664399973589,-1.2845592062990898,2.6648938487542067,5.695961064287697,-0.40509500142791155,8.296325228661734,-4.703755251343353,-9.77789061486256,0.42066719595493357,4.0855890275557005,1.1970051785604345,-3.754437085742845,-39.258129391726705,-5.957475495358752,-12.65143259158419,22.855094149473118,-3.7738152972271553,-2.4483873760852033,-5.2227561237093845,4.89475763621782,-6.439975923424461,0.6451684335937389,-6.745763856670563,-0.04175426021959846,14.881731286882204,2.7385641602923196,-2.377147110713134,-13.032048664322996,-4.189367921805982,-6.804292677786262,-4.766790638385828,-3.319904337207522,-0.2432040708472721,3.3412063341070026,28.38790671946157,-5.409643620251824,-0.39299445179498727,-1.3854867519630791,-2.637008693554001,-6.213976497259077,-11.47133748112163,10.60544989776175,-5.06966288723177,-6.166088995699969,-19.851259364280978,0.7435381741993982,-0.8165803794364976,0.27388374502244006,12.003853076631868,-0.32195668509554654,-21.95278650345013,-1.4783336281521071,4.503764391138773,-0.6438581541374236,20.201157597435753,19.113089652365407,1.4975714439934356,-10.80592857609717,-7.515626634842977,2.7602929389863995,-1.94760084946443,14.425069966931568,-1.8615226473410709,-0.821862607836913,-3.3032287471008535,0.37252491147877587,4.3068258797515515,-0.6494338241028014,3.9780575207726225,2.8157599208802124,-8.197694585651329,-4.775294630308778,-0.17160034972694033,-2.123987185347874,-8.735568521645538,8.521682468690637,-3.5971333226869207,-6.717224571238802,1.2428008429533624,-6.096213460415263,1.8524347158980363,-8.98523304664169,-0.16626314648701815,19.07651947468199,-3.5528178085316617,0.22260227737662006,-2.5479240708051063,6.20164543651861,-4.421297126657904,15.898812105454276,1.2245097262598958,-1.1048845367816595,-0.687047042139075],[4.146058389792396,-2.448678181444734,4.073878699360298,3.9722302031416996,1.3393620238845545,0.7430526477650663,-0.8440793129500785,7.736475700230706,-2.1179246415659363,2.202807213890873,5.30218840155499,0.4397317468182263,7.780008199798187,-4.880486100376932,-10.637328703205252,0.532579538180503,3.4877115333574853,0.4006478616789959,-2.604262579693208,-37.027984862078775,-6.5500138173036,-12.65560433134523,22.96920767505321,-3.459425719426917,-0.27034048214867196,-3.6541806378403217,3.9377858587042995,-6.296725597378261,-0.5311917211775093,-6.651745018497871,0.3651768681623701,14.720265612692288,2.0532571959800108,-2.178438209334364,-10.12410179137647,-4.136135144695579,-5.920049185574035,-8.516431332406864,-2.5776976813259376,-1.0562261761885554,2.844408812212099,29.72901469121693,-5.486181271400597,-2.236030304745651,-1.4453650854937552,-3.646863241119265,-6.220239906762777,-10.021351445390424,10.453530089133944,-4.372567832000151,-5.730390987564068,-19.844174606936164,-0.17994873009455611,-0.2560873105643559,2.3409460070878576,11.143776671051546,-0.4298596813330371,-21.468045138180923,-2.1026884188504225,5.342292542242569,0.2398708935326045,20.84865025519426,19.238824366051844,2.6100082807854923,-7.699550525382514,-7.30277717680882,3.7127042340662055,-3.5651039494010375,11.972784701171394,-1.9968886514209172,-1.7708269471303268,-2.7323323755539013,0.9578705677542679,2.960923147973793,-0.2888731674955301,3.2825366868155283,4.038272687260904,-6.397090343076224,-7.077792061050094,0.36904991624244615,-2.7431382728434417,-9.131585582050867,8.405405453100704,-3.86924947658974,-8.216225476040036,0.32667153490855566,-6.802549108239322,1.4638797544435622,-9.283636771987684,0.6258462892348554,17.793450628451158,-2.7404037021225958,0.47916126151851807,-2.7132176967992017,5.958649653639791,-3.7526068982993146,14.705027136573007,0.6095919597117152,-0.04260384133696772,-2.2428683316474434],[1.303458419826903,-2.072010087918891,2.876369447663729,3.1842981279961506,0.05197392570527943,-0.4024918561173192,-0.9423951973260457,9.007227217303152,-1.9971644405315854,3.226819579906191,5.446594334876445,1.3041660786950806,7.863414291687808,-4.873662745335594,-9.501691240575365,-0.05140681493353762,2.659327279076711,0.9684019798118197,-2.937061397330141,-37.1103077209115,-5.62104805800041,-11.252120959736393,21.756602806378666,-4.268476261733939,-1.2047477085470675,-3.9657955960772973,4.2718444356144305,-7.857656695313387,-0.029022783618916848,-5.951678665135234,0.26475524731633343,13.596308740358333,2.0127782205027027,-3.42106452216249,-9.229940037572403,-7.166689362533967,-6.60895773398711,-7.90658129195963,-3.2260704627631576,-0.6115368934886888,3.5235938418667123,30.67639300403203,-4.314043302631604,-0.4834060847900583,0.46624237219186393,-3.5544703982429016,-5.19145817235138,-10.918818211648887,11.543985341400314,-3.155234256227558,-6.274763072209601,-18.10142495035381,-0.14948804706619015,-1.9382871569189397,3.642078604700549,9.782114766736125,-0.0083057458597959,-21.435336798766148,-0.8650231178357651,5.813582650267064,-0.7009923056872136,20.18673059920837,16.86918928968325,2.4294417059484363,-7.155486405220892,-7.921693166009758,2.016099799072526,-3.0608487512871534,12.367137583793562,-3.3599722621513695,-1.0392692915231674,-4.221861309696327,-0.44538431702201475,4.712598040415427,1.1711452482750653,2.4802997750820364,3.9794780910961625,-5.759685374146413,-6.578935757261884,-1.229548562367767,-3.7734139529140687,-9.642626893304742,8.386752113268878,-5.665624016511586,-7.8507917709381125,-2.157093090784194,-7.498854167685941,2.107617641374862,-9.041407528547635,-0.5181166581279875,17.066043013919998,-3.710787637225931,1.26820038422167,-1.2208744187264242,6.311479169713308,-2.610534954617187,14.829088021519297,0.652893969841291,-1.3922446946255398,-0.8949186625231743],[-1.273273699376002,-2.3613792038357717,2.9985080608685744,4.1807244768574,-2.400902043917169,-1.9711610472386674,0.18118584864617684,10.61366364377937,-0.11235272138575148,2.5482292814936764,1.6583620224716877,4.0380694449065615,8.539565713382606,-7.750986725374146,-8.174700428388686,0.48983240066484585,5.110551330533372,1.4281281088022075,-3.9996704622837878,-32.021091698629924,-6.040223735324687,-5.399342220615548,19.98921015292068,-5.21911609213344,-1.6438158087724462,-2.196404379690125,5.602884922758518,-7.646696402511255,-1.0499345506190985,-5.609614084636469,1.7671680513169359,12.604110267613988,2.812192818243805,-3.3242407500464717,-8.101076219291684,-10.504190718809378,-8.59575672387383,-8.608638543568084,-1.0497973474933762,-0.6595973599271342,2.967231144730198,31.981030212121933,-0.3433708971338343,-2.055841281003221,0.6513772566485072,0.8205731503699859,-2.784053694576168,-8.006741061303257,10.959269343485579,-2.569934296028317,-6.10313710508522,-19.499840330170848,0.479987653255163,-3.2882999438788345,4.722161861912254,6.497784671175872,1.8005477763112212,-21.97912335571251,-1.8374036741712776,6.059138414210852,-0.44765467526224584,18.97318350520769,13.505950363176813,1.5210543442089408,-0.37185074568132903,-7.897444517137836,2.784292262873478,-3.3365421065255405,11.716079166350283,-2.7219178486039066,-1.7473108615864594,-4.106056090587581,1.7854547851240472,3.206972111594246,4.939131580924599,1.4333889153428738,2.6220297089781828,-7.026303645473153,-7.959783990401933,-2.5119717813417655,-1.765275584124874,-8.112518826180358,4.724661383777016,-10.445831186939627,-7.440001674391757,0.20684219091067596,-7.405549461203539,3.747447189640765,-6.911599265592403,1.3009635408217817,15.172727693986875,-4.363326726043418,1.8083412567802708,-2.6758735501892525,5.451454160472298,-1.4275580481688441,13.874339804076808,-0.45708746979637827,-1.865216845338144,-1.0909485255185747],[-4.072542010813733,-3.6960910684278536,1.4100713628407147,3.0223718301033915,-6.103739295926098,-6.015746920304842,-0.23658286396108041,8.954822805187971,1.352884889576184,1.9973045384604606,-1.0159495852886442,7.792845414664301,8.183680930796822,-8.803151939231658,-3.769610247496261,1.7624539039087062,6.943796374729987,0.06508211353372546,-6.462875727689825,-27.119051463518982,-6.621266923271661,-0.49608730373557897,17.855116618026948,-7.322774369784644,-2.7928407907790875,-0.7374431400112474,7.598673645036781,-9.803199122649382,-0.0034505942105475715,-4.79169434112327,0.8469063864493109,10.718616961896531,3.2823405164533277,-3.39613005311759,-5.079113836424965,-10.702560346389829,-9.579108811008469,-9.821833661340001,1.3506031604678765,0.9389023364874091,1.8167091165800122,31.610911409591214,5.317704819355637,-1.3675015007227411,-0.7996087335061091,3.365563344423658,0.028224034661493404,-4.858744270409215,9.83336683272073,-3.1720135889651,-8.300986471618994,-20.07928253555081,2.167234825433703,-6.570256592194578,6.070656253098575,1.1750751429342272,3.692755635485594,-21.599772032110145,-1.4262934894280184,6.991542698938399,-0.34441987448024936,16.71599203540982,8.691794057823829,2.3921258226660904,7.718729585989159,-8.492394203585429,4.902288938919157,-4.912699757514951,11.369116218233186,-0.8195623030564869,0.07805047909800242,-4.986883764425328,0.766652876195715,2.140315732898184,8.621101149638054,-0.4442792872778756,1.0059773549324056,-5.360190758894818,-6.776952856241224,-3.296210366898709,0.34501508695089256,-8.625775691703348,-0.918639335261253,-17.370721880533356,-9.247030811331301,2.1872872134509036,-9.328735350872218,3.750047531922463,-2.5843138250329356,1.0840278144942128,13.491053843554074,-7.096451526853588,2.060044598423113,-2.0762368064630095,5.0648896248229205,-0.6494855645180769,8.80290568776511,-0.39832015016100547,-1.2264340357052814,-1.8535172870597247],[-3.8019642075391427,-3.7429143138709424,0.16112333665725256,2.4757206553033675,-8.299106978713434,-5.3241218331019144,-0.2965391320147164,7.995502308620531,0.2659521801287213,1.3769765920266515,-2.3982679819122614,8.821861762186412,7.8610252009835255,-9.333050847078386,-0.4000624457009821,0.39717867560659215,5.788019360475422,0.573298747380534,-8.763671679743949,-22.454781739913034,-6.293714584661024,5.161428836349453,16.05825089805961,-5.659657168210053,-3.4468117747631557,-0.34168994348696113,9.89426178985824,-8.428375756373761,-0.7013985488470503,-3.5430345174032825,1.6560644746906985,9.421295916563052,6.3492475514268305,-2.1418162080535503,-4.437638644584434,-10.10290456744469,-10.230399408532962,-8.40668206052501,2.145672422228393,0.9913863460518209,2.3118244326909587,26.652222634935328,8.522240165471146,-0.33537022377470116,0.21923217925328872,5.1690783497898085,-0.21820934232458775,-2.7134754791065276,8.762191735248841,-1.8015855432340517,-8.454312996184884,-18.848914058520116,1.0974087831026345,-7.572034035247282,4.12522437033743,-2.20348301082124,4.097895641838603,-19.677752838343196,0.24197556801902642,9.103860203007494,-0.019623335349468935,13.952491453233378,4.974149770186799,1.9546097016314825,13.159366788847846,-5.690164223044304,4.214646818489641,-4.583324940089162,9.903618663934411,-2.3746503240634356,-0.32060847871530346,-4.220473114822454,1.6879715265590194,1.5957473972673615,11.507148362911899,-1.2203088606665642,-0.28488640582336194,-3.8684007765067547,-6.58126933437255,-2.5325833917769525,5.304926095212555,-7.162681798398144,-3.1358727248040443,-20.31313174885836,-7.506505511057634,4.631922607980142,-8.247373616965398,3.5121184565010886,-1.0783899267893797,0.9297434330225942,11.772144396488038,-8.969936214030797,2.2253089532031263,-2.41597433180679,2.3311304680370943,-0.7964076401745934,4.933054973774654,-0.621825476808144,-0.6881793465540585,-2.0110245038033794],[-4.829784329015191,-5.779080924351041,-0.5760265412467399,2.7051011736978245,-8.009230828120513,-6.455448310160392,0.6396569329492835,6.346545334534815,2.820056044068312,0.43621799276480694,-4.8327414520526375,8.13139418275908,6.372552410788949,-7.347710694455597,2.081184955536835,1.362985248825888,5.372754916929286,1.3872242850506407,-5.132389257452611,-14.057287908533077,-5.6314920388052725,8.708322295672048,13.501371110105014,-5.7726582025690485,-3.742159192054481,1.1520993295160478,10.019634701877427,-7.2163166675667885,-1.0315040689279429,-3.292869333445986,1.8582786001320537,6.695115537512285,7.040818781739601,-1.6549703011025785,-1.951005402842059,-9.074682640646829,-12.663474966595771,-5.006882813632309,1.9925681604056016,-0.43764400834754924,1.7261808404762287,20.457303824625534,11.64162734177935,-0.8293446223300862,-0.7049328108173519,6.111998982310492,2.408056730855553,-0.8347678596582897,5.898327900278669,-0.6260320774936159,-6.364271917387197,-15.323659278255743,2.8677182984393617,-6.849568821928063,3.6443505556959956,-3.5468114960407857,2.5364732671688395,-16.174930142357105,0.15160580071470006,9.709047114928836,-0.26269396097869974,10.113664769158428,0.06140066888080415,0.3901900047632927,14.314332939652733,-5.1466625006181115,2.9732503961005285,-2.866154551572493,10.854039429110816,-1.4087554982163433,1.877266246295376,-2.850665183540141,2.045457907639785,1.3457412216818883,10.119453541080743,-1.7389135259484216,-1.5228301015999641,-1.169303088305435,-3.5751786002500983,-3.525336703423814,6.772903073221616,-4.286658835434233,-4.650574185678048,-21.100349002169676,-7.677712477053436,5.08098067511613,-7.64551510425917,3.798355785114575,1.6781513731408089,0.5430452188107017,7.971845326483242,-10.035310272975606,1.2129595240053472,-2.7441005930923335,2.130765303733891,0.344911496281335,2.2390056786460866,-1.026069264801139,-1.5226383117702897,-1.0214216130326779],[-7.456550669318437,-5.977133061832024,-1.936623812524326,1.1191096466863935,-8.214990433939322,-6.675139651693997,0.4779518376928649,1.9895059839760005,2.5110351628864476,-0.16244796337599635,-5.0126588531173555,9.104627224415083,2.3860609626294984,-3.4551346577645075,6.327946529566671,1.1909094771237712,4.5978762450819195,0.5543430250077023,-1.224423417073946,0.9777765557427807,-2.4921187387877395,15.772025838374855,5.887278413756825,-5.6142813494348385,-4.060189237594649,2.018818525257218,7.484260864287833,-4.874057126628732,-0.6132916749093558,-0.17824389498806456,0.20423190942799252,1.958374911126929,8.28147495017124,-0.5879372420856656,2.9321931345949412,-4.33946072657199,-12.195632807294302,-1.4993947118709423,0.26558241146942263,0.10782988915361454,0.8037265365134201,10.673160688140646,15.252041588600362,-0.45853061429079045,-0.5410684814636186,6.264675470251393,3.9357465502401072,2.652681867591654,-0.11524587503832531,1.3580071115948216,-3.679240525942356,-6.262625124168777,3.4483935673482784,-7.7267909269137895,1.8379874695858915,-8.5889115072969,3.617805765495696,-7.8657362349094475,-0.9139185685124747,8.902833779591255,-0.5521781681461827,5.13312649803197,-8.115672792109258,0.1332023713097306,19.009896998916826,-1.2912987822743678,2.6916960278985966,-1.8365007182207762,9.193662689165532,0.20852786733113693,2.0143512173879765,-2.957017142893817,2.031382283193121,-0.9499518297033899,9.674605829662053,-2.122844278268399,-1.9736055912846928,1.9579690049554859,-2.143548630380675,-3.2644565994278154,10.806458340313172,0.9022332020166994,-9.120718680682938,-20.600523941256615,-4.431587488278292,3.2463468237831963,-6.015778410593038,2.325018344188634,6.058717672666177,0.47154821817492454,-0.4438858291458605,-9.386848596107939,0.37577966858094286,-1.1903279480479982,-1.1834417250081877,1.9743180846940018,-5.703944084401347,-0.9765817307288218,-2.1019960523598327,-0.828315586956049],[-8.238623972517631,-5.465234335346812,-3.679370188746416,0.8769709305710637,-8.245001845885222,-6.490543027554749,0.0486042283906303,-0.0696329773220947,2.7396900804726707,-1.1213122470445591,-6.113081043989436,7.531140704926675,1.8392478529924774,-3.2448814265730404,8.384214612537962,1.530658840699909,2.509972093840088,0.7543601579427365,0.8370798879063671,6.972654221773094,-1.3509886722028246,17.12182892843855,-0.2476949345461735,-2.805074250419445,-3.3382348205864965,2.6012221436002476,8.888978352960875,-2.641955249969039,0.7561878193706002,1.250131887433615,1.9244943712883216,-1.6324566262305826,5.746299132864048,1.4134782660510499,4.436196941380909,-3.2984219330143,-10.373496881182279,-0.8060300582300576,2.2823351563249683,0.6108101804171208,0.7893843628989865,5.0131031567512325,13.362310515224857,-1.076673615491233,0.69243538365291,6.698227424846943,3.004155496003895,4.8160316463752375,-1.4281258128904495,2.198579734325988,-2.164266044675183,-1.9298742280620105,3.023382790323663,-6.351553598763243,2.556809654449688,-9.814538037529417,4.100022719152766,-1.520699180347518,-0.036272876954432064,7.850714093700944,1.0651111293189575,0.1277344348110017,-10.709034889798502,1.1350754651562147,19.238437596016936,0.29701289656633295,0.7743824241595668,-0.2710815555550017,6.087846435535827,-0.17252381137324974,2.4047847049227116,-2.0355328928456498,1.0675491441764418,-1.2660291128067698,9.899585887561539,-2.6365424488151366,-2.5039227089905345,2.6007996139415783,-1.0877807526866086,-3.651070083640194,10.447157214623802,1.069562131214893,-9.896416183078477,-16.497467280335908,-3.644364463670344,3.9493943358291475,-3.5071906281409824,2.3795167681312916,8.24403928038581,-0.9102321308870877,-2.9489395912934144,-7.467058682064918,0.2970712686881359,0.2010337878095713,-2.5976591316303255,3.3097728300989733,-6.348955153523458,-0.807266262202276,-0.24713578116671722,-0.41901418297387455],[-10.047882891473288,-3.0245190535191506,-4.15512319598291,-1.4095867619489504,-6.047476131405373,-6.497632879045784,-0.6811509935076626,-1.6348158444210468,2.0044495524150503,-1.8057924724728955,-6.539959426872998,5.64715911956637,-0.832778469168385,-1.6858238270609696,7.193331121847241,1.2344389210949842,1.4365191189150992,0.012195805791797682,4.297497449695738,13.08675796475175,-0.10638579688967961,16.44625383374478,-2.291311033433719,-2.938701275764407,-1.8706353898195438,2.6984793814582835,5.995596072444795,-2.001907985201979,-0.4664952070892818,1.0025189606548106,0.09168387118429568,-4.5797325144611385,5.245094599468003,1.8753322833201025,6.762825334539306,-2.5778762050665036,-9.101225446358026,1.2539899391544183,1.6334771947446565,0.5931575312801891,0.3196403892285347,1.0509824912614794,11.603022303799634,0.9673657962290143,1.0002811518120203,6.365069267817129,4.837457177865651,5.750608426654176,-2.8247151628827303,2.6759317963772253,-0.34290062088931744,1.5993843988151992,4.385284443216579,-4.447625469621945,0.22368583279288073,-9.18773223763271,2.0312530653349956,1.1914925661815015,0.903972815095633,6.969876267911584,-0.8254405670631311,-2.4195058532617906,-12.585733008334557,0.36474684131048474,17.619365165090027,0.8895525191891794,0.44985308628228454,-0.4156063165193427,4.474207471871498,1.8243324496079003,1.7723405284488007,-1.702750382625214,0.7010807532618316,-1.0286272960377518,6.751126425327049,-2.0500828384266856,-2.3677469058470595,3.16507939900004,0.9869005807163136,-2.4709451676279195,8.18424618631722,2.5763717888803668,-9.747940758986717,-14.33331723163091,-1.6067551572600056,1.6654474445352234,-3.7449532896109328,1.1005220615159599,9.329826798669071,0.952424768626985,-7.392751693783674,-4.4628810102962575,-0.4187833891682901,-0.42195649191764806,-2.8505571589026166,4.007489064703781,-7.203652324071158,-1.6053125437482298,-1.1859582087345186,-0.1787075083925602],[-13.243863125238956,-2.4248052108342626,-3.7394192615913093,0.009542285230728307,-3.3699805469201705,-4.979683877304662,-0.6768149291140874,-0.46871473326899743,2.438818245553786,-1.5510238335030517,-6.411407871714473,3.506682581815989,-2.81863435685599,-0.40204480409897914,9.955242816565407,-0.387150164378782,0.6941746721537874,0.15980236911060414,7.755036720343811,18.680180264671073,1.069935194108628,17.37131160654775,-7.660437841198317,-0.6697536288013048,0.968012483705885,1.690007374664001,5.330616708506575,-4.297050289061936,-1.112253843449851,3.767756836434763,1.3992656954954519,-7.395296436812637,4.9101335651896845,0.5142161819009727,9.16392232021773,-2.651756347123293,-6.010268469971578,7.097007952800107,-0.35380672979685873,-0.1390957797852448,-0.8027096591687803,-2.2342361098808796,10.5813916750474,1.0708450420725837,-0.39040968668816717,6.820345256986167,4.608930075558487,4.697020887987847,-5.3938779373298145,2.3728285038144095,1.9842366413583172,7.901494495699639,6.739373148831235,-3.5580452448583597,0.013634629834273564,-11.157067126541715,2.639323268173709,4.82256753098621,-0.4521262469498855,5.591829259269354,0.8303313800354704,-3.5714488311403962,-17.38384452922451,-0.17902521001222,12.95714837248424,1.7513018522919876,-1.4659807431482006,0.020150028741852156,5.157546684070109,2.950561746152527,1.4776770282104819,-0.9910766862978327,1.2661931754034732,-1.0607756488336715,4.569329411413356,-2.176909591308952,-1.8644458551021175,1.7107914724490754,5.169055702621921,-3.6967639314863483,3.9731275358885343,6.741745849140657,-9.842367002420826,-9.575598887635818,0.6018661851597789,0.06869431176677362,-3.616894112752576,1.2821105931504486,9.942818533095988,0.5919517238479451,-10.45783350910376,-1.8454446715639163,-2.081657219286548,0.4840570181600454,-3.1688219378976483,3.439050379347249,-8.937355188176147,-0.38631063642044455,-1.3139751620589077,-1.1290678123451448],[-10.851398337279775,-3.7006720153208805,-5.104557914930094,-1.3747978183541816,-8.634741614836305,-8.643608343731508,-0.6582771483857225,1.2347999169952244,4.415913287300423,-0.9326798859829202,-10.89610297972883,8.352934059420692,0.9529992972771839,-5.107579041704438,17.8959584396848,0.40153712200298236,4.388575663808741,-0.2155140516329594,-3.631846439862921,17.898749538369785,-2.2808482168165956,22.605138601128527,-3.7536237732829694,-3.9657810013078643,-3.079800229817991,2.990203758849849,12.585777699273581,-4.465611566628686,-1.2707986593303089,0.16702149941467634,1.0280527380967095,-4.491877249847572,7.975592653409981,1.6132917139022258,5.260193695279227,-0.9647846524582042,-11.071832400849477,10.118649964094356,2.977592677039618,-0.8029250743900939,-1.2362116619955652,-2.856232065715677,17.90176430152902,2.054337580319266,0.8837681995404236,12.071313848510263,6.810236168691137,6.763827550646909,-6.982877834940197,1.9754529110221553,-2.183055495590575,1.5669328010155856,9.374765579364343,-7.063237561510835,-2.319959405226685,-13.884008262612378,3.4531435494721987,-0.09695213218458408,-1.337309872373953,7.778584761841326,-0.42107360072552596,-2.3304627430749996,-21.029119785413712,-2.9366794702722383,20.08741459746282,1.7231424214828495,0.6587885721641068,0.4270861333487415,9.083311807380579,3.5131104444163377,3.1267987018212757,-0.7099170090076653,1.2478982422904126,-2.624107647390802,6.417564919927235,-1.5760969962890565,-8.313757734555333,0.5598925342322613,5.548542182557863,-4.750364230389948,12.830994936037746,5.137370811050919,-15.45753174401311,-20.306216163305837,-0.8376097203696291,7.990915953738044,-5.864920022369734,0.9789562968532103,11.601499041810014,0.6472860571083504,-8.0509257602682,-8.450138148145726,-4.437253522999786,0.23145984967034086,-4.9096300053205155,5.934211637925012,-11.013456964704282,-2.4629276661743003,-0.5643130561882956,-0.9782171883127021],[-10.735349857514802,-3.7424357194800213,-4.2692988667306935,-0.6119676822107664,-9.453172088688522,-9.57395402332886,-0.6465353196520975,1.0763652832278165,4.183468540165939,-0.7406758104219796,-12.395250292747141,9.739862717582458,1.3527930281757004,-6.403163814485002,16.045242259770717,0.40147029173818205,6.269126893487979,-0.4811240711786256,-6.637085402181045,10.878818327671508,-4.9974496676840205,21.9096407435127,1.0593824795678546,-5.410127618562612,-4.424471134614524,4.2453527989086695,13.478690164783757,-3.2344903315136513,0.11816332253118218,0.8056686388708777,1.2699310596220925,-2.0441289026061322,8.056410726264447,0.8547224532396177,4.564419617337862,-4.156580171496416,-9.38509618551969,6.029813974359655,4.779727524062769,0.04878035482949516,-0.9226909087325256,1.3778646409066053,17.744004537388097,1.8267068573873102,-0.11717044460061128,13.510069493899179,4.842418769366922,6.791225931026242,-4.0387242150989575,3.064218212599729,-2.986865559417128,-3.4635295375336335,7.905727610505681,-9.00102054872518,-1.48366445500412,-13.920974660947628,3.988665340713872,-3.898807709546116,-1.7076067883777089,8.873289262683224,1.0393750352763185,-1.6014564431886769,-17.337547013624615,-2.81505022064903,21.140499604830673,1.2744449154644095,2.0607180088127808,-0.32514789524153137,10.04589599286783,1.507025726823339,1.1777505643112298,0.4968767503185322,0.8476649503947865,-3.574829709904746,8.690636750413754,-2.775092418519838,-7.682548390195458,1.8945774150372128,3.8905515659312786,-3.854002766190409,15.5042077540735,2.2433502609575346,-16.307436200042932,-22.305633582658785,-2.6524345582559734,9.280462641076404,-6.246265781429625,1.1909387811438084,10.86016116274297,-0.48043804277288127,-4.6703197757946455,-11.406711539899145,-2.8239743471694605,-0.5430247525577381,-3.686523439181485,4.450203379126748,-11.590875109667504,-1.7637582896056287,0.8699847463714623,0.28016495343679476],[-10.596644184571488,-5.422838175704575,-3.8849294096799896,-0.4878992717487637,-9.258722656878446,-9.470024037993324,-0.5191603024192779,4.045443483976322,3.2723234520971642,-1.6509994527832148,-11.639094431719379,9.799622983054023,4.767368982241079,-8.50457928924777,15.505541761350607,1.981283906834308,6.097461047127274,-0.9279900626520021,-10.952762389010958,4.769724521464268,-4.761016443637441,20.332541598567346,3.9559666935610243,-6.418062804018225,-6.555619712307549,3.4813326431165215,15.50055110709064,-5.32056652223141,0.230421549094363,-1.3959010945106423,1.4342167007364561,0.7893493946735132,7.493917406778082,0.2811135859540679,1.815118300100755,-4.644201063708663,-9.664320342826624,4.249845223530899,3.9612615916235785,-1.0317872351214379,-0.21935194180392678,4.7486166413778825,17.083663161382265,1.3798179698048547,0.9059195190648057,14.96992723167608,5.132133110397157,4.22374487457396,-1.625963314400656,0.4091535712042472,-4.732389958064073,-6.712039556287125,8.783617189992833,-8.592421422331709,-1.4532071632303878,-13.5791667221144,4.805917951073733,-9.85203385277148,-1.5728475904603423,9.010387364803744,-0.6541095753006638,2.3259233094011256,-16.639951454660668,-3.0831780453651776,22.724458097005325,-0.8718184032436861,2.744195371458164,-1.733927617154892,11.726804551667433,1.3243910666896197,1.4279350309321488,-1.0774606637167916,1.3181346215462377,-3.6496966251880156,10.708606004215437,-2.199405648204388,-9.234917100442988,-0.8173908397051208,1.8767867214781058,-4.296893718116754,14.809384357924705,0.16691250077660985,-16.173347763702886,-24.708552791905756,-2.254493787511164,12.30567494689969,-7.263829072246383,2.628328522923252,9.130919105442215,0.09863023011690122,-1.8600840384589141,-11.694116876952785,-3.155536625766093,-0.7083259281562323,-2.421160735648723,5.149388667821394,-9.169320584026488,-0.764105895724083,-0.41203282136758773,-1.375070320015172],[-10.966220712038073,-4.408844522888722,-2.694122923247397,0.968258533053369,-10.027727832599886,-8.02959715647615,-0.993243233484362,6.803475222089935,3.346728177284032,-0.999141872289416,-11.334628410281798,9.719156984669755,4.806596822641546,-10.722995223907134,16.346498829051026,1.5357877691506012,7.7893873513132155,0.24053156956830543,-10.461479542362097,-3.453037333448789,-7.20986844673279,17.903374407685153,8.037614335815201,-7.028247844412537,-5.477917655647148,0.980004804958182,16.331098779841703,-7.437694629324274,-0.37737992495733746,-2.882272066928494,1.473147430695158,3.084560839931261,8.344192426313963,-0.9213016843605941,-0.33957819579308884,-8.659517728934258,-8.83766477358986,5.156176194438733,4.409636457114559,-0.378695042102471,-0.17869889116114152,10.554792128385156,17.661426537418293,2.188182512469166,1.0828375759155497,14.742150552422565,4.736033139932555,1.840288787522801,-0.7257380529027639,1.0856908347686902,-5.052254209017371,-9.397938100671082,8.17738649838471,-9.049341673688158,-1.953871357255201,-12.018692654966332,4.932936331772672,-14.166609869853483,-3.20861042670659,10.067840584864161,-0.024735680405348775,7.289893148124759,-13.143868503532333,-3.391970275266416,18.16540048289003,-3.385150082469321,2.5367136714066314,-2.70601087385691,13.696074244787559,2.5606045706489935,1.847652419744475,-0.6843781062676311,1.6780103167539397,-2.4664021330867554,10.385551180122727,-1.8502254423821574,-9.643779342247946,-1.8497721544778774,3.0968495237558633,-4.770716126678407,13.570995432830294,-1.7544086718433387,-13.655574310030982,-25.01056594500673,-2.9032529183671225,12.984566232599256,-10.967894630111575,3.932412974434511,7.026984772852132,-0.31510880578501455,0.765823577085124,-11.125737874726648,-3.522589968671156,-2.438935576250966,-1.7773177080124238,5.014848621691767,-5.069699751179238,-1.3478778293543985,0.3250792546927583,-0.5889617332837216],[-8.94847830087552,-3.1490372952134598,-1.0281769915292176,1.6784541595803868,-7.931934836334183,-7.7428205123182545,0.09354720506890232,11.634293328943517,1.2947686914619068,0.26534817325306237,-10.052030238406761,6.3606586292158624,6.1111463376985915,-13.555907540828304,13.705970653454989,2.0422395684215555,8.142797157759178,-0.4470606770623004,-13.873446198033712,-13.97773434016747,-8.647158691234441,12.56110310910568,13.708576557776778,-6.577114486229209,-3.9763041756268507,0.2834697230456481,17.363389168494088,-10.91385442388341,-1.3012704703122024,-4.222119915044316,0.7028689451215305,5.912995332512486,4.862438312415896,-1.9914622040048078,-1.6790125601888761,-10.436665437474865,-6.299311367903029,4.243195228417828,4.904355675708411,0.09854497245878631,0.848629171867929,18.31120105233343,11.055038439458189,2.107450618734981,-0.7744771533600491,15.957156090503124,4.098676586201747,-1.5256883383776036,2.8206396892611534,-1.115140245790922,-6.90648394723171,-13.344075222281768,8.233084932713165,-7.074467853651724,-0.6763862582838266,-7.307810575213627,3.582611561395877,-20.473783623523772,-3.181729585389154,7.613361961903115,0.7359904448773008,12.17673067635765,-7.642432568944305,-3.5853314313536457,10.420632878347078,-6.70059284313232,4.215252061237538,-1.7676577726521499,15.927283084848607,1.9043719864620423,0.9743833212346884,-1.7338698109718504,0.24372153301557117,-1.0836949206673605,7.25687382094133,-0.9650595871016131,-7.953299683597725,-5.1143376631863635,2.279848779397563,-4.811925546823087,8.987362161683551,-4.676949177588952,-11.904988948626196,-21.29482121900337,-4.215710120852918,12.306764432248992,-10.458391609128485,4.206154042435841,3.566356246152596,0.4584043184015873,5.0803434919878265,-9.523692845795118,-3.9539781339060345,-2.4430577775489963,0.16695131007112196,3.2061866748791497,1.340843065633464,-0.7838034268971942,0.6869271425951259,-0.8959750440523222],[-9.030856708631703,-2.2770891235053856,-0.14144511869476234,3.2127247815932636,-5.0272603922722725,-5.065483731568692,0.36775157575400447,12.57977768372073,2.255850497728717,1.6374782201703186,-8.07214193849565,4.277897350811214,7.762879416296497,-13.751287145855821,10.158603534803406,1.1086363077212393,7.37823122492561,-0.31071860555871733,-11.821274691338258,-16.979090033224676,-7.4095751365822835,8.526906888360623,14.36622818899233,-5.9983844642141255,-3.3356957137329344,0.31547280332890226,16.16285934453528,-10.323005331088382,-0.715481630852225,-4.541057889525279,0.7427299271761723,5.834648683640519,5.044244369187785,-3.582678865862579,-4.595377700118213,-10.370538416478507,-3.853562970464368,6.531144586125175,3.2762786203305576,-0.5548622930462341,-0.3988100098107391,18.734894566621403,9.069110881522077,1.4162418366049432,0.838434027608343,13.90006039930891,1.907197191922123,-4.6980533767398365,4.560178741357176,-2.743321839634336,-5.037864597901602,-13.704478122288068,8.291478231530453,-5.641420401608669,-1.3549607971675806,-3.4753432786087073,2.6465490819414095,-21.572641226191962,-3.7914498236853365,7.255526842804345,-0.3695414596013075,13.693135344742707,-3.229792104407748,-3.9362961074713176,6.293349733380046,-6.508310373978442,3.137209305471779,-2.791746405020117,16.539732770211945,3.044934375175809,0.6376915967293918,-1.451353320863776,-0.24192456672387122,-1.6005018029839682,4.156405075850233,-0.3524920101252281,-8.018569389356339,-7.513702063826404,2.419300315845816,-4.5173105738449255,5.406916596439767,-3.988734344185478,-8.802791888851042,-18.0386552379728,-2.8885330369171562,12.596214459490355,-11.475580621680647,3.5137694345338844,0.2610363635656221,-0.9245871000957703,6.249022104156988,-8.600782867573061,-2.9943388051532,-3.502516938970891,1.5929865719090712,2.3066833898385384,3.4578587063512387,-1.2435302276063307,1.147516597975516,-1.7627223891367978],[-8.157615520952708,0.4137587267866531,1.5919593268692502,3.978120842746627,-3.3820347855195143,-2.9122764860844743,0.4004617978569612,12.566320807933385,-0.16146261529396172,1.0603566098891832,-6.299108093693554,2.951392128818824,5.737648915923868,-13.724654962613997,7.4844759499260425,2.5741418108992105,6.67434770377974,-0.3001913671003892,-8.895816504538065,-20.970789586870495,-7.9428877193779845,3.310056301951906,15.190526451516666,-5.720888266851092,-2.946959716117677,-1.0830970651436238,13.464382625410865,-11.561708131953555,-1.2651481687909227,-5.505435276641351,1.492143952862282,6.3658524476872325,4.345501108951459,-3.043647836932272,-6.594745299998868,-11.562104340243677,-2.014814779589386,6.515366678948168,1.5195760946935195,-1.1560709023423619,0.5491130136334305,19.50100738731072,4.870616753566395,1.9919718273247187,-0.21577697738277932,12.788715972066475,2.642812790101924,-5.397521815962202,5.329431658611363,-3.55463937702467,-4.970719121418702,-14.276137541828868,7.705608064254251,-5.023997951506088,-1.798813620052721,-0.738689060389107,1.8380125875804785,-20.95011397064928,-5.396144997288239,6.111071476919326,1.4030310814837974,14.512013549723376,-1.4775489051081163,-3.52690809923188,-0.3638456276145724,-7.708385726452945,1.4001717800071072,-1.187078174180577,16.059300317678012,1.3560097162308618,-0.4997440240770534,-0.32069326045475427,-0.6556337888205446,-1.4114538399480228,2.1782873057305454,1.3308574470422632,-6.590461834513262,-8.355366539086688,2.8983563024810786,-3.953274626243714,1.6959928440132601,-3.8723050587011425,-4.697880944353518,-13.371631344167907,-2.4135638043837377,11.141878563077972,-10.401970769199377,2.7607016746299835,-2.0850019915975215,-0.577260487595571,7.046869436791275,-5.2364447550341415,-3.1709088134490626,-1.705081233583792,1.9256186349113553,0.8218192153548375,5.961827289439387,-0.8962044100079268,1.0560842695564046,-0.7710859037961804],[-6.706768466410085,-0.8298297755163561,1.8621541860234725,3.3016011844680064,-0.34568102201006046,-1.1855887994201593,-0.4174325314076699,11.652775579713216,-0.10550777298772979,0.9302479347727531,-2.7923052426893324,-0.5997610984651276,6.710132546111149,-11.615364011006363,2.3555370014149934,0.7204230693281378,4.429885247030249,1.225313375350821,-6.4536219038643985,-22.782783963159115,-6.318856799479168,-0.3444816915811948,16.021677356947524,-3.9424038214302093,-0.30317796725839957,-1.7293272011686927,10.22033838702118,-10.384709164378949,-0.3437052016795694,-5.4672670181025715,1.1417430864992797,7.805761508771639,1.6600211683468653,-3.4731746186254635,-5.612514451561512,-11.210560981172584,-0.4814310109903501,2.5775951715164935,-0.18065360767438807,-0.9474436190146314,1.4408274628571793,22.24546602888823,1.0434138455846147,0.6722324570293549,0.18753761440050273,6.914693520056092,0.23517354898382647,-7.297181405179114,6.09887821618746,-2.7621030875523225,-3.8784780317318135,-13.627264704869878,5.374976680430424,-3.1165070964500274,-1.850109435244853,3.682892234544753,2.2311780733446147,-20.586902842537967,-5.060756836929447,4.787297699026545,-0.27686342643587497,14.733912236216826,3.5443791124371806,-1.0592286331815943,-4.011396569514764,-8.998548937261669,0.7506657865829067,-2.4513102762891243,12.42862942620659,0.9347821670730103,-1.322041901685493,-1.2901705697994437,-0.506012522862881,1.3520071119269146,-0.19711933542311355,0.1589475997249523,-2.6458656014124053,-7.845704847740334,0.3631134309747381,-2.7689273031498995,-0.7700304621609402,-4.554454278310663,-0.9807733921620069,-8.002770339830718,-3.344381529606557,7.157847523769054,-7.97374481477965,2.8835748156110856,-3.545190000666618,-0.8516695195374857,9.41264043629007,-2.8597646742638423,-2.8763645945370073,-2.4173154881264143,3.749477847685341,-0.41702990730889955,9.539601786317931,-0.628397006768006,0.011954657307743123,-1.5439838805431227],[-3.4328211853795247,0.08919367174959919,1.2459011233536181,2.2148101663421484,-0.6574026861524455,-0.12093471353737999,-0.17816337364075865,9.259139642199878,-0.966124529741945,1.4048778394929284,-0.3409113532561634,-0.9091412232911611,4.31491505920222,-7.3239336459852025,-3.102898987818445,1.1484023005455524,3.8492051551388133,1.1921451277891089,-1.2703667752776657,-24.142834917972046,-5.484674723111779,-5.219891131641049,17.183644587413436,-2.5856888220375023,-0.7380979333066009,-2.2352709070412553,8.046160185850264,-9.063792811897574,-0.03612096083737977,-4.496001800958532,0.7519510328686784,7.511599366472465,2.9551046804379606,-2.189765358014587,-6.662339561446005,-7.505416607318539,-4.58146234756469,-0.4434953849210599,-2.159621646923518,0.6253682262905143,1.7957594981368492,22.691975798521476,-1.7608457389967374,-0.7469212962770593,-0.9907988142886862,2.8889434810009096,-1.362848941696885,-7.442152304609863,6.10215762977033,-3.484370946112047,-3.4300526333355017,-13.504671104131447,3.4818344843831817,-0.21478668884667357,0.10699010610158388,5.457133845314921,1.3423358462316257,-17.333799255582342,-4.028856230540027,5.221607535198247,0.4645506136730871,15.889776555173771,6.408212364602848,0.6056430963576885,-5.786452491919323,-6.852582207130375,1.0977146085071359,-2.1627112354002382,13.14346975185019,-0.599835222827083,-0.6246876591065533,-1.8685272538505229,-0.6607502939809232,2.856045981692882,-2.1161935549141715,0.21676709486490225,-0.6409131893604761,-7.2214933144277245,-1.001599291807447,-2.408160913342428,-3.5004009414143784,-5.3636595704851455,2.274425953420777,-5.30269908368119,-5.0292876162400315,2.5515093187634528,-6.847677505217928,2.9791602230327117,-5.090688165447148,0.16874633700273123,10.77799377649105,-3.483573305429318,-0.5535672451714572,-1.1196304857621564,4.928702247623992,-1.355556947696053,11.891337896152603,-0.03675091089842898,-0.6765462683076937,-0.4563810632185717],[-2.0174011642781493,-0.8567914592037277,2.8361892169798604,2.05919034753856,2.0441041058968414,1.3534708862431906,0.7523744022982742,8.632670229439832,-2.7537965829946063,1.9826244239656259,4.152648731907328,-0.6328124069386616,5.172287653188949,-4.061958764345686,-5.594369275457879,0.6083642210616418,2.4227473427323853,1.2802781942355272,2.7351749980481532,-26.92992975755013,-4.062775844825149,-7.133736301128354,17.26485949082603,-2.529356271598483,1.1068823941392942,-2.8161433687324884,4.756797429566514,-6.2006890452092485,0.017277327808459652,-4.481793045764451,1.0227289327119986,8.559952543564298,2.92611080561811,-2.060164434830204,-7.519264554085709,-3.0806156755125893,-6.597680080942683,-2.3822436979474158,-2.9407634477773974,-1.0651228664457635,2.887913043330717,23.904304950952874,-5.126542863515857,-0.9392888498327954,-0.5118128106389906,-1.6733520225223562,-3.769804389180617,-8.769415369389094,7.749297438697649,-2.6131845008083743,-2.571618999356845,-11.564844575701606,2.805443631625624,1.1513393745910272,1.1374113516643154,8.061541896619467,0.6905176799144968,-16.177933242707223,-3.535383278884001,4.251682422752874,-0.5774372460324826,15.597558373072255,11.0615104384834,0.7263597699928225,-9.432376118319823,-6.608266754170502,0.45838315808804175,-1.3843701739668126,12.25139212544587,-1.0376743377276674,-0.8685335884994208,-2.7317611813767106,-0.8100337223424996,2.1670048571025977,-2.816722706979893,2.514331901767743,2.7500396639860174,-5.172755403144451,-1.7381557141974335,-0.727139221530203,-5.033615778572161,-3.5936256224659178,6.635147526823837,-4.325569090378125,-5.314979024083007,-1.2020961476560805,-5.046238659262355,1.637414619115243,-5.175541405950838,0.960713368194358,10.092686224561035,-1.3807266473506048,0.49338535205006395,-0.9343091041145289,4.5760942490547265,-3.1405408330280515,11.573218639086964,0.09410364896650227,-1.2899614247291913,-1.1755518842972432],[-1.8911385899474786,-2.0868076432690064,2.4630441862563077,2.7333900478494786,0.6971000886802776,1.7357670463066985,-0.23590590573463974,7.350071556391,-1.7351006255184402,1.427216123035301,3.967637671544493,-2.4477726761483765,3.2996435904479196,-2.32497308391927,-8.169942533965642,0.33728215557513724,2.3174828435607173,1.837371448973649,5.785917409175109,-24.48858102964101,-2.417391404454316,-8.452449835459799,16.10152779237604,-2.263492086327577,1.6691890550420088,-3.728960937969973,2.2879968767094176,-7.0377201371458415,-0.1716057270043529,-3.6061791753798103,0.35714698597277345,7.849093295678589,1.4846166546911188,-0.858395051599135,-6.068713708139505,-5.295575986464351,-6.578184963224939,-3.3677955650658804,-3.99412315313141,0.22526048553364417,1.4794305751813794,24.324271604489773,-4.695636272820063,-1.8507492593935941,-0.5715301850563148,-1.9632720801530594,-3.3955822947332077,-9.508824606095011,8.24106873445332,-2.040423241557291,-3.393124252666588,-9.713605926814457,2.2896177012771823,0.3081207386015553,2.2221727183338302,7.740095222270169,0.31307525003302167,-15.010362500546638,-2.7575223266919155,3.4092508486108204,-1.164209657463963,15.259176764426275,10.093458251748435,2.5108738564423514,-8.74699059468269,-6.506313161884252,0.5258102767677039,-1.472062744365365,11.438009718819709,-0.9910139283421061,-1.4935778590812527,-3.7727011637716776,0.10191364135259282,4.176364671471985,-2.635429099594221,1.6721328744818205,4.443004168781515,-4.393599832946803,-4.888084774335269,-0.10687388731606798,-7.2860209306214445,-3.4968823592208884,6.3800887667031025,-2.5534341431517293,-4.840886783340389,-3.9212505002246236,-6.106182771175538,1.9485403759093625,-4.757274796129683,0.6183437834070904,9.683722373072134,-1.2587443358154808,-0.1387403374274217,-1.9877680406048928,6.346423977162792,-3.026245930866499,11.971528516913624,-0.17173305262815206,-0.3344228994604226,-1.9819296083804376],[-3.2285039724883555,-0.9105248561416324,2.8479226783402347,2.7037788328872527,-0.2528979398226386,0.39415449062231606,0.21879980716639025,8.34272176424379,-1.2349361574619562,1.301167647634523,3.81172042854735,-0.44063685894327687,3.4286494625743074,-3.926711677479026,-8.286133271023882,0.6401014671546197,1.1784836082107584,1.073668346796324,3.8675318900715983,-23.26477184351426,-3.179613086162772,-6.581092365023445,15.719935978474757,-2.646527431867579,1.7863997002575958,-2.5648965232910417,3.043691487720704,-7.71294850380152,-0.2244940169800802,-4.599562218806473,0.5505779101555418,8.191248541814078,2.183504257059293,-2.137688441833938,-6.056844374312308,-5.804986384542896,-5.076355886321026,-3.5976277868375375,-2.727508111158352,0.47677962402754476,2.07555565640336,26.352723747796848,-4.520062214046733,-1.4792382070895875,-0.32196632340394377,-2.082072075662799,-2.76495073357747,-8.425790304221552,8.132849905585127,-3.0124897831167026,-3.735936976896281,-11.217156912379856,2.0572144197205877,0.6712104825216203,0.9369359985330644,6.772274445099284,0.3359893876856198,-15.934573167022563,-2.916509616388742,4.289229443150803,0.7678538132802034,14.791199820297921,9.796623748282224,2.3091151613839993,-6.0227523002691745,-7.506068253243946,0.6541188570872108,-1.9827662779385324,11.312438757843061,-1.615622216162746,-1.6745527513294212,-2.924057512771708,0.4335298362746414,3.0540774826086956,-1.0260070686942069,1.0594773834258717,2.6758425327787507,-4.684247265999509,-4.276830755045992,0.0041906117100902135,-5.074732102626356,-5.449509095302971,5.983605122340437,-4.61693215817563,-5.784795795109138,-3.287889111683944,-5.222986777060075,2.78441280901092,-5.0882379027078075,-0.7463853909833952,10.26878356968072,-0.7114062579426402,-0.26014298666533936,-1.6279897442271873,6.033792385334586,-2.507688580437564,11.04808569317697,1.1526867651950714,0.12185369093620675,-1.1027317341998413],[-5.433464816915555,-0.9200997076753301,2.483509138388768,2.435593514474634,-1.032333721079448,-2.2332462660591483,0.775455328821253,8.108006093294055,-0.05830100099907865,1.528518414666296,1.648411288394481,1.17462028960937,4.90808221329328,-5.6614416057340495,-5.6143499813423166,1.4144708971663091,2.85823483942908,1.2865408092427275,1.1515550671037544,-24.577047824898468,-4.318180953214922,-4.574001572846034,15.660384025536954,-3.949892885176108,0.3378914666601873,-2.11568092184469,4.4836511313521505,-7.937723785618433,-0.7442792937877767,-4.262797611232979,0.9774837143495053,7.710876522980442,2.0561794934605615,-1.6048134988274827,-4.3562166811782115,-10.698627462450627,-4.3212921854978585,-5.186164954590989,-1.2385108703115506,-0.2615427673305828,0.2326095976154973,26.32989871192557,-0.6081690697263138,-1.8672279350252927,0.43825335953576355,0.9819270424409807,-1.6147974270592969,-7.24035509860002,8.882333275225433,-2.292468913974235,-3.975226650397864,-14.617537682564569,1.6872180856015573,-2.253041215796787,3.1958917743354465,5.533826762879398,1.311379470810895,-16.592609368564666,-1.9707553582013024,3.3786199776766437,-0.17739217618236833,12.398027697728816,8.371614821526098,1.2658976701406548,-2.0122529066218147,-6.921104961432439,1.5364941016457203,-3.032745711395682,7.671169176761776,-0.13759798999042694,-0.6824065438035618,-4.889706463218905,0.15116431480446635,3.71586866116479,1.4618885261840706,0.7888111801283412,1.8520615773959026,-5.034982544185018,-5.55690811408994,-2.6517372239879173,-5.931954125247639,-5.063685044506881,2.5153029561866576,-8.077964697185825,-6.721941039532101,-1.869091286811009,-6.649894613227142,2.761045627206615,-5.101974223991834,0.2970896213366249,10.249836887023354,-2.649514864296003,0.3787317774442806,-2.781862768810311,5.488096070781696,-1.7588818982117114,11.333118617861176,-0.7238745224791403,-0.9562764219365392,-0.2650293025160471],[-5.411631703523116,-2.459438297316253,1.7692357076131267,2.2524690000365006,-4.565518740942742,-3.6368340991624146,-0.4631775543670655,9.753716914835069,-0.6197609388869629,1.9110129768777708,0.006081863881371722,3.443655365338628,5.604866028299161,-8.050664419396417,-3.477114490209538,1.8742490741602003,4.056575245788294,0.25187445473655035,-4.016411544492555,-23.229617381581033,-4.20129331216215,-1.0263944791285988,14.491155366607227,-5.158982648324479,-1.3388863344398865,-2.3666887774506598,7.8147872149285025,-8.932013181677624,0.36832568476257854,-3.5896797017863094,1.4928030653830726,8.351502432225676,2.305872523459978,-1.7713330318187115,-2.1963336259498387,-12.192499190879891,-4.245090925035684,-5.708547826372863,-0.10592345845968425,-0.24535376153250674,1.2783943069562813,26.661845024616426,2.6345592329119087,-1.181037095122436,-0.6260386921915935,4.461593010351814,1.1896276662342344,-5.199460892203258,8.451086566476148,-1.7370568217538638,-6.073914942470134,-16.758930251617425,1.4701128880982361,-3.930953438259872,4.032536943474222,2.480285501227361,3.3519735196093565,-18.085279756614792,-2.0957556216094475,3.189505341462678,0.4450581222602898,13.56807540045577,6.253949014927158,1.292227130001785,5.077880281384798,-7.603292844495609,3.3509770090627216,-2.6379874434373125,8.177487020961832,-0.40226931991057585,-1.165508672849212,-4.581356949448124,1.6312249028635466,3.02851961244267,5.047150480556598,-0.13573740820633212,0.42367904201521267,-4.663636236856561,-6.330744539379781,-3.5797219697538245,-2.528060533955579,-7.333824539257842,0.06173931979738951,-11.057683957731502,-5.6489443338333665,1.5276850936137887,-6.7240627218675435,2.3052611710147666,-3.422380529988633,-0.26322342837124596,9.492783291173719,-4.6647559092147395,1.5554036246037553,-1.8424975235081251,4.594335100522184,-1.0279987018020298,10.317657232371998,0.7353367519224125,0.2983993090597447,-1.542774533884516],[-6.0206047423282065,-3.6535969857642105,0.5758238723027267,1.9499984759861,-6.103798607598734,-4.152498140097155,0.5407651579875563,6.418017390617728,0.5661711661304829,1.9034446197843544,-2.3442514048996244,4.799165911549037,6.167847899041984,-7.037584923446322,-1.8441190880213503,0.18859926476610056,5.720163057331697,1.471159875610817,-4.747065836577553,-17.067491620289655,-4.207539950072299,4.545592628750813,12.434112318204283,-5.6164404482722095,-1.9730220352055268,-0.12915308002892065,7.688392325023297,-6.300063954773891,0.5586079509124923,-3.3676013711928747,0.5715709865688668,6.496755704492242,3.5833870905962515,-2.516974177743398,-1.8801366542642644,-10.100099407887932,-5.978401914562501,-5.607116579692778,1.2645199184095965,1.0595771119386383,0.9927231141137929,22.249186426975996,6.061165670773446,-0.813236306438706,0.8267104694259599,5.315345076797332,0.8876121156818808,-2.1380924321859514,5.495822173023948,-1.382031960148757,-5.719705667941731,-15.462655168233157,2.9642790627112734,-5.120472754361791,3.2299835348761756,-1.4083881330977834,2.7995358599844624,-15.675620486008219,-1.666429265266931,6.9188962660236975,-0.5317026121268156,10.04869539469332,4.716736675453433,-0.1339785833874323,9.590154958683508,-5.13859262837193,3.727575222706897,-3.4795823030080406,7.391045283312711,0.32544357085007686,-1.0259210183536784,-2.7458678927807165,0.7882160454816894,0.886398461551572,7.982136100665042,-0.583258905299006,0.5041171863678006,-2.2872620226534184,-5.586505456493501,-1.5991397240908296,1.8825887511683392,-4.700556134204725,-1.2289125770171785,-13.924683160575864,-7.161882147459461,2.314799110025801,-6.3070266621535485,2.0743535179087083,-0.5333576287915994,-0.5187477949534458,7.8125493187760515,-6.287879630164764,0.17893709786897022,-2.447069205957553,3.4865340999605983,0.16774941430701829,3.893241518099833,-0.15522399535887216,0.1619697333954259,-0.16509738737175955],[-6.9342677560910335,-4.820509810002623,-0.7908443724192725,2.8175223256172113,-6.274913457077271,-4.3281992900448065,0.07555526687846616,6.061609049091392,0.6406659024303032,-0.01564169417814497,-3.08193020746805,5.442067188685927,5.512160769139163,-6.631460598702682,1.7098596892348719,1.4088418822251247,5.615029789533228,0.15737834096315698,-3.1219500771517072,-13.46696853471049,-5.389825917163638,6.216669547962954,10.626543416833183,-4.960405735758514,-2.7368539913081595,0.3357675501257532,8.098867968597123,-6.413982899860842,-0.907569554963694,-2.5211424647867613,1.4473556265620733,5.366016499116653,4.179831994292063,-1.0953762693422415,-1.487724925893547,-7.875967809033803,-9.209945176167967,-4.076490239905036,1.5580619904597925,0.15779885161799279,0.23168263136909134,19.06574045287562,8.495241864510508,-0.963606232288734,0.5140899855101255,5.743992117321666,1.6585463461689895,-1.7614137146043796,4.8692018342573915,-0.08024774018486365,-5.162446024521313,-12.398357961643768,2.9705769867807787,-6.903070614157187,2.814284965946965,-1.5747639988686382,2.3338517239222267,-13.677368102195132,-0.9970448489622369,8.277298189609292,1.0300970555158255,9.343571518474082,1.058698732990047,0.624508298436845,12.067229509123976,-4.558809005950663,2.681218077999757,-2.458923018219583,7.921845229722966,-1.123823378414347,0.48524015625183126,-2.652531941418571,0.9008476271616597,1.6948091958089133,8.126836973968249,-1.9181669028597321,-1.498752747408378,-2.027097629488901,-5.6410776145634385,-2.7573179488011172,3.7931408150085404,-4.656248945707469,-4.020321978173328,-17.405845695823945,-5.173346374656815,2.1019812537909877,-6.1127487776935565,3.057316291455189,0.23198115108873324,0.37586994275132246,5.676458893197394,-6.8555574030934725,-0.47552133262016283,-2.334273917811933,1.4018989283930743,1.1745346842723792,2.3630631144100294,-0.35753704153246885,-1.1575415833006277,-1.0044795930824204],[-5.526296393713681,-5.764014087287562,-2.7357628646130037,0.2764909382971561,-7.39873059821158,-6.784763405652429,-0.3472383565063994,1.18895373739397,2.9289661007925583,0.41125604680756733,-3.736919922114996,7.110180514523792,2.733239367217449,-3.2395009867323865,4.21413886793957,-0.11519783060796218,4.931997638891519,0.011610459446103505,-1.5755309715601886,-2.6242926063857546,-3.8070209380315596,12.822756416898105,6.684712662078734,-4.203958609697336,-3.5594177289875084,1.9929743417192836,6.959218893573019,-3.5759649064130543,0.4243819446117586,-1.9909326323451082,0.282392654530039,2.5018508922102547,6.373357523490694,0.13940927056102784,0.5751605462963711,-4.037731258948789,-13.18303548238388,-1.9012895682576847,-0.2704017870942836,0.8436642706311634,0.6218336506680194,12.751037916950585,12.600587619342116,-1.1383461664659744,1.1969284730463947,4.498553178604339,1.3724151363988057,1.6255358778730715,1.9531226048597001,1.4797156247903556,-4.048036138901007,-7.548862219202501,3.703730400849102,-7.6463609399786545,2.0660923457385225,-5.791022891789739,3.6113690695253453,-8.459264357172025,0.17685671125989902,9.619165594956225,0.7239938702763195,4.598117253863074,-3.981294419500106,1.0632429987275986,17.894630654720668,-1.3103583184026018,1.7975782215797524,-2.321689403476297,8.816616097502523,-1.3636939473567993,2.079882843564452,-2.022419122654954,0.9115286526695014,1.052245213460264,8.577829022198934,-2.2315954160601215,-2.338376048024423,1.2316579025847905,-4.410216060516515,-2.227837354261901,10.331549233041208,-0.6001538813610864,-5.902833049975965,-19.177720293039695,-5.62032633662722,3.4578535823298004,-5.133831320966496,2.1165135991824218,5.707672447644119,-0.05930725641600927,2.1042639661021663,-8.628689718823322,0.4600291296875444,-1.4826609648056603,0.0823743451444742,1.4874145502268612,-3.594482908888532,-0.4899916236515627,-1.5265977214718591,-1.6164968691174484],[-5.855698199195157,-5.017778706435543,-2.8956504076565115,0.7688801232053425,-8.071484039808194,-6.210327410823994,-0.6611605299279468,-1.582590009396731,3.2416183025190373,-0.05106351835760574,-5.538165102095569,8.254072627423616,2.5781979185868993,-1.2790348611988684,6.358754737971032,-0.2151444201091753,3.0492550575771147,-0.39945575212673673,-0.2963037115393974,6.078799092679041,-1.4070053860305327,14.52204361125111,3.417039726578613,-2.6993607574894494,-4.888145747652655,2.9485447570826517,7.752676937876763,-0.32558507012217036,-0.5276377575329687,0.7761645223002726,1.4919190363716448,1.1596344908608476,6.286602468818834,0.5142021001343904,2.426639079511177,-0.6963956182701558,-11.951748692642381,-2.80259681728524,1.208089427280117,0.48969599528408786,2.194354400810705,4.597500161843975,14.113208727417334,-1.2434803762021818,0.5118442704891523,4.310653045781626,1.4664015968732564,5.4012403212400475,-1.766847739865299,2.478926132196356,-3.4140100003131613,-3.879742556256342,2.8335042275721967,-6.299225526823032,2.3957998285521787,-9.325501515421257,3.2771648123936505,-1.116759039614213,0.20057881805287517,9.680392213328176,-1.0181236788157957,0.4073191746017505,-6.430321264292502,1.2165935661137754,20.342550124427934,1.9119727480389554,2.9521466467444006,-0.8812788007108785,6.679953443277058,-1.5385698615245795,1.9567709519222434,-1.983785115094448,0.5104185557505335,-0.6905784012693694,9.617946399020628,-1.4982204692033245,-2.5120783843765593,3.1953433182123137,-3.5705710511098085,-1.1995246540311892,11.641112505356242,0.21668047973966906,-8.139481695319922,-18.984937847382934,-2.966712959563886,3.1439438233281463,-3.5746676371864123,1.329822168383883,5.840204171192317,0.8305210085810382,-2.9536235474278456,-10.273931883755244,-0.3200872370045591,-0.41767974967225757,-2.855565644685274,2.8628075125058956,-6.764281064220524,-0.3526978741843704,-0.2435452888669458,-0.6976210445892873],[-5.529800826469412,-4.7640598642531105,-2.9357212028452633,-0.7737667502582622,-7.273021717805664,-5.850447657575723,-0.26530202607632675,-2.311800926614361,1.7811078401013338,-1.7438482503678236,-5.068674942039572,6.574269211622952,2.552377894307466,-2.7755675270970563,6.019838375653843,0.6823605539620821,3.757005147146407,-1.0627080301546865,0.3306626208573415,7.681475658623544,-0.9180201454068032,13.574791014582686,0.2720154555499588,-3.3735720656638937,-3.6626060349686345,1.2082276323683507,5.771959698815338,-0.7075340150306912,-0.920940716331141,-0.1980223732949711,0.9518809012254721,0.4720235765034472,4.891765346966284,0.7348670806045156,4.170036723899507,-1.9641379687365499,-8.909533443590448,-1.699900019794121,0.806813570997339,-0.7597513391667778,0.2974811935530035,3.7397064340997126,12.019981636149462,-0.6082840650427213,1.3585363886832622,4.640828549863831,2.941328360010721,4.192042939878024,-1.55009010713069,2.015052443717245,-3.4322799068684975,-3.7895904328477834,1.9514870973696912,-6.907374457539772,2.1569486102653372,-7.98532615914201,2.46835542376118,-0.35281939443270616,-0.26702960803995013,7.447815036997563,0.7558261006671426,-1.3783573986963515,-7.967169338685248,0.9717373219490801,17.32831041416604,1.3670751867060276,2.01315756040866,-1.3657240608839534,3.744379351058372,0.5190912845159161,0.7352403923455489,-1.8087348922430435,0.4375721618303439,-0.07201272486660919,9.104645606359426,-2.3787871316575746,-1.7794865062927203,3.2663998465219914,-1.5727629461400587,-1.5480799691903473,11.221106674948114,1.1668247637744167,-8.937225473169473,-14.51982302439898,-3.024660746607069,3.55441699521518,-3.288591365068913,0.33032377011566655,5.39689366882799,0.2387129784334201,-2.8624112450633095,-8.643582227190144,0.8816232781460401,-0.21006583166891704,-3.4030473340645107,2.120914066640667,-7.882320755031262,-1.3778486490787107,-0.6675780087141926,-0.6691314839850682],[-9.935430800962115,-4.529223732707232,-3.0701105073850163,-0.5191019710165466,-4.729828116313902,-5.207024886806911,0.618546570077901,-1.3712083629749623,2.72838302404032,-0.5577361314170692,-6.66872116824313,4.989118088171973,-0.514767481243153,-0.21123934675061587,9.156423925424532,-0.5551264910152767,1.3720061157748313,0.6531131580936148,5.338351055353142,12.141443605988458,-1.169045910195746,15.18955704912655,-2.981053704616994,-2.021480494050479,-2.0742325147405634,2.4771814316377005,6.077153900042854,-2.262818000898331,-0.007801199467115054,1.1251230140944055,0.145444406859581,-2.7954905104619088,7.146026733854871,1.4689916570606252,6.292891516385012,-0.20765549025051558,-10.858732590124589,4.709626292186856,0.3794967208627579,-0.8288413028655597,0.7285477986022058,0.9208696970765258,12.221375791350223,-0.5837815950916919,-0.03706225541691413,5.2044345569071275,2.84340550513203,4.609447074533582,-2.694864900875533,3.7061346033843883,-1.470533848037883,2.0838906272851943,5.652352190001629,-4.613985546922785,0.16866528791800423,-10.067903062518882,2.962194922244242,0.3481879740367813,-0.9834425648619749,6.815557144941047,0.9520519657074304,-1.1045348586768302,-13.632645642734982,0.1530407492500593,14.605969712279375,2.078881790909784,-0.7185949760529609,-0.11854808341110261,6.750624852105241,0.3959818751081259,1.1455517677747398,-2.83156988043056,0.9201787836675369,-0.9129920361470496,5.5505580006544095,-2.332818288419798,-2.5298238815346346,2.7611915486020138,1.9496737521028982,-1.7779838523027232,8.905241108718924,4.2964683378136055,-9.609228820277128,-12.919845017529441,-1.1611544190637948,1.726884746969695,-3.0238771525389754,0.8541688054190688,9.238004239814014,-0.008354858664191257,-7.363069844067698,-6.085773036747352,-0.789567587092549,0.3450288672695444,-2.677520422723935,2.370180003667255,-7.5519824985777175,-0.5440210170462348,-0.8806804785544409,0.6360022412087109],[-7.171892537767631,-6.4106004950833455,-4.654485400220212,-1.231148037129688,-8.329407711639506,-6.714875303848801,-0.5967328801575933,-0.5070735568805683,4.060808909263925,-1.0272917849867742,-6.917163426837845,7.803388984496451,2.3544513066699486,-1.1188443952304632,11.349281706137221,-0.8813860578704952,3.6387837797016136,-0.7634742432045534,-2.056469865110271,8.161859232914694,-3.405915851735056,16.87566167798698,1.5394584683468935,-3.284261594645013,-5.201735734012427,2.2035113614171182,8.668212183998964,-0.437728818343661,-0.5658730248116924,-0.5920666779819282,1.088628513719552,-1.2477218558732819,8.7449557262595,-0.08644605015051911,2.1806714853861697,3.213694748393768,-14.76498476083414,3.990995243753054,0.4456777906305535,-0.03625193217632203,1.3757777754869633,0.3685412530163372,14.315708317171158,1.256131602443423,1.2524593444893946,7.591973413281564,1.8268598456450547,5.0175026249072205,-5.012530317304867,3.297509445002472,-3.0903476582031426,-0.6587519875690263,5.611095561933403,-5.586789180726654,-1.6808448542168537,-10.944109278179756,2.4976006244774176,-3.426915987192969,0.0022980448732046275,10.924159363341593,0.45979207026387475,1.9729566450585372,-13.53864887942416,-1.1412806958650734,18.6499796078239,1.9821512371992487,1.91286527453173,-0.5518716864934058,11.307686631511817,0.2519538488798733,2.7669572640824263,-1.428064617395364,-0.16654669149378368,-1.5376897348517409,5.884111178621427,-1.3296219447416644,-5.304996447506228,2.6992633605441654,2.8313366491012437,-2.3485429872393495,15.377400241080938,3.603566266815637,-11.593414386033654,-19.332009669498703,-3.69530890892537,5.107951016413639,-4.117779847441867,1.307490388344963,8.034971873299998,0.2799244427673495,-4.512521412846905,-11.317794285953473,-1.3649518241765766,0.5560250091975069,-3.012242076568766,3.8321918308309537,-9.156058250994086,-1.6893736859345136,-1.1402057086962296,0.022748178189188197],[-5.614939839723893,-4.887727654982196,-2.1988014104486555,-0.5449704390512575,-8.28773111810355,-7.189333007134994,-0.4411173518599091,0.2980508592420502,3.008745005124012,-0.19280240637906199,-8.083916187182696,8.964185734121866,2.810377065578877,-2.6028851799236215,9.340125767246759,1.1697179344542998,4.915256095891022,-0.1380334419620117,-4.029198599872164,4.526509089072739,-4.564712953800794,15.895853959049512,2.991664458673817,-5.108502881019599,-6.054957376681239,2.4060541990696134,8.780808163772658,-1.609945740381726,0.8520234212083151,0.18636849750801018,0.08088861695547139,1.4774069571883757,7.126561648884107,-0.006741350678700101,2.075717681620308,0.6561853811507126,-12.46720190999483,0.5068863837933312,2.1684785885753266,0.7015772389529507,0.6524382896784429,5.8488723865840395,13.415561656082017,-0.3337415568683615,0.48326356489037714,6.036256797446478,2.396859298653562,4.8731896067778395,-1.589736585876966,2.1494149096871515,-4.996283797084775,-3.920634504294001,3.8667336487146686,-7.967436405840918,0.5380632149702594,-9.231972957823556,3.1530002837188893,-4.136080822447003,0.5664710741675019,8.139950878117178,0.604369436285916,0.8186093246486762,-9.365755062142192,0.9123436103537467,20.253413031549297,2.030399137840133,3.1378844084799673,-0.7521086565786772,9.658435929905925,-0.6933874783317835,2.85315022003353,-0.06426783521839319,0.2807440663806894,-0.08521069735301606,10.032976257632964,-1.4032044537712325,-5.307561639661347,2.6939175988766157,-1.844997959895355,-1.6031398396887422,14.576297332908684,1.8600010905026032,-11.105588856011694,-22.046779710479544,-4.281098019022591,5.573480424858588,-4.8190756595948585,0.604918471640766,6.517984077538826,-0.4609780720979636,-2.3577353854348764,-10.83583005853742,-1.1897987186148111,-1.1873005542908384,-3.512969609660947,3.7723450831658547,-8.958605029301484,-0.2588666978901313,0.2407676578887988,0.36686048124010817],[-7.524703928429496,-4.031081994777711,-2.9884454081381953,1.2293234307795589,-8.034676416499337,-7.677070392236358,-0.3689667393596339,4.189487495475755,3.9041643319023183,-0.5320369802854299,-8.024867729848824,8.867211980338409,3.8877504169399,-6.937621673727216,9.934187931847717,0.3688184937526497,5.37372896917399,-0.5353289639724828,-6.539916181680513,-1.5416433525597497,-4.326052804853772,14.59453684764268,7.000877272751232,-5.920801228026215,-5.095467781738057,2.008451929469623,11.854647109956131,-3.818546672668355,0.2132494004646414,-2.3477466755984846,0.9764280902726062,2.4626810981550995,6.210164259466771,0.5223699558785043,1.1141803768359757,-5.137305161358137,-9.90935533217228,1.2102566796921004,3.708298555566028,-0.2716357094958198,0.27343828240808116,10.661244976463713,13.447188830578074,-0.4170584346987884,1.1688548256222053,9.214181718127588,4.191843008913383,3.0406559466421053,1.0681431067745812,0.7707583002869562,-4.8421541564608495,-7.684019413974032,5.835872763038429,-8.446932142202405,2.0574472210078687,-8.252429101921352,4.111484407601057,-9.916397491244155,-0.49687135515465114,8.322031540199102,0.6894908520321779,4.323345354660197,-8.617340762727572,-1.0888196945173036,20.339010100425064,-2.1005905044814472,3.913639121332154,-0.8908049067965852,10.757949571933793,0.9086061964263914,1.3865024130181522,-2.6118386074319093,1.5926696230166697,-0.032511628614468116,9.205805577303535,-2.112175334583654,-4.274795425328307,0.2623052439561303,-1.7139440921035067,-4.245715872388442,12.682782493362403,-1.5551266646876551,-9.967922053198215,-23.0499205856029,-3.754819520420379,8.261729636646937,-5.701875005570483,1.788162601345517,5.561908424013968,0.18067679555840924,-0.13538234977901778,-11.14643586575208,-2.2524853510499914,-1.5562593653850236,-1.221278589065908,3.356554567164017,-5.268931221794598,-1.560811847848938,-1.2444731058130851,0.31295685158629616],[-10.534704651348763,-4.138618327856141,-0.6030769596647263,1.7447549587535824,-6.010093931020641,-7.228916893796218,0.26129876604359514,8.38967776210214,2.020872770832207,-0.40346663938481425,-8.880883746649733,6.322761629487231,4.469934804637118,-10.113295136232804,10.770545127815524,1.5108299615394023,5.418392910754454,-0.5457028665230141,-5.506466150259801,-6.44712811038947,-5.662162418100132,11.855752157124153,9.82758888760181,-4.925362502168907,-2.999902624976523,-0.008037207146235122,13.028255851471815,-9.635025244378973,-1.042372172319314,-3.4861976888175588,1.3774269458625383,2.6538819495435946,6.335794711116956,-0.8172583506718838,0.2560961898505351,-7.757124333718255,-8.473077595586837,3.740895863268304,1.8587100972167867,-1.0020886259004886,-0.6946184943533232,16.23643810613634,11.194856812655429,-0.10645617662406703,0.9083968150081471,11.437694297119698,4.0151202014796255,-0.6652551877554663,2.1630352631051704,-0.7800903206042112,-5.553140553920695,-8.4032063200516,7.886283437055201,-6.87895079588352,-0.8057083150835791,-6.543243581231274,2.770531670063389,-15.496598435929316,-2.9864933861482346,8.947939625111314,0.5413529344572987,9.622729655995553,-8.11086211875713,-1.1100725114018513,13.18666788343713,-5.079841159937717,2.8809844749620144,-0.9134321192112008,13.265944271140247,2.074198742410754,0.15762148936133882,-2.330961599163195,-0.03245095825145411,-1.0822615406884872,8.442694547686838,-0.37996445250469024,-5.3234632164713975,-4.600252493484757,0.791433145035321,-5.628707867674924,7.026674942540503,-0.6584934998871526,-8.894486902035466,-19.54536723035245,-3.4879013404209824,7.088228824953587,-9.48664892763642,2.917472927869022,4.055654253630912,-0.8520795267903903,2.878314191498894,-7.582515992544679,-2.771896071442831,-1.8264484207491256,-0.15849288644650056,3.497510612914646,-2.4441068637065797,-1.5950048351872794,0.8626790108128225,-1.4924615546563351],[-9.277132256517673,-1.6012449839144223,0.8202967356713541,3.023341801371409,-3.841531135467283,-4.476643008449189,0.2522880722465135,9.82526931808223,0.4345030710148231,0.08749466787968395,-6.7819893613932924,5.144655664951593,5.012502284431322,-11.121235581244843,8.126255267977424,1.845036094969593,7.148765424484381,1.0900378420487082,-7.0291574558143415,-13.501048582052212,-7.798568592895847,7.5422530126826235,11.439249496513265,-5.164736073459071,-2.113382068804363,0.3492270279980342,13.733224905171523,-9.265171021942225,-1.5110466387605237,-3.482124046893663,1.6012820575450195,5.364587224120253,4.263335430356824,-2.401669995374159,-2.9409033075232975,-10.522784463577818,-4.8919415767191365,4.2780970326454515,3.4644901022935453,-0.671145254691262,-0.21726394548542696,19.227689837854165,6.9102387892103385,1.7146445584959222,0.09436270671349058,12.43608121504687,3.3512824793297087,-3.4521537958932127,2.973751571860894,-2.4243761853383408,-4.398484685583132,-12.157697345642228,7.913476103233764,-5.693903089196236,-0.9116480120253545,-3.7508805382979116,3.024163789056499,-18.281682996780724,-2.9771672489740153,6.5091227125794315,0.24558691371178826,10.828281385744665,-3.689037221806646,-1.4811723441670206,6.600436803994033,-6.842293873209424,2.534303408155195,-1.1883601705054925,13.75331816935068,1.9523614081154275,0.947654810234127,-2.3055990921276375,1.6688772049674956,-1.547019120974736,4.7506356709011,-0.19364957568217278,-6.09470329116368,-6.185947071926418,0.2957541643250986,-4.692580152422255,3.145704991409599,-3.8104631149853043,-6.5580074736306155,-16.215165125798364,-4.088104603010293,8.99944256955749,-10.09497462288388,2.0593064728429575,0.5633195712349989,-0.3982251404854263,6.060926842271197,-7.297962775657788,-3.0632273122883604,-3.269902574703973,2.558012480824614,2.7746522241503837,3.0719229085065023,-0.7268417938618129,-0.37172039042525096,-0.9681980218797334],[-9.797815481043132,-0.4524289058232002,0.6453220401761466,2.495671465674784,-4.243488535370322,-4.68051711861021,0.2919783705641896,10.38981256875198,-0.19162378170195266,0.3374565371805751,-5.407444932155546,2.5206737884852,5.234746565853653,-10.911223714850241,6.264900139153103,1.0038124805613189,5.405423486331568,-0.022458135847040563,-6.435192668410323,-14.681536633485818,-6.2786658656050545,6.09281476475743,11.737083753758569,-4.457757589557047,-0.6317498511347567,-1.4378619086089102,13.333808415140373,-9.7383987732514,-0.2975852309165176,-4.327263536679345,2.1110699662101404,4.145320999751919,2.497721218573953,-2.066716583264667,-2.7307352080796163,-12.744909763614364,-1.620747248492232,3.266489350406981,1.1801054261930588,-0.9903950256413868,-0.6489156661474781,19.191297551845015,5.423516626668106,0.1254354643609492,0.2593631970715943,11.572368654452308,2.373166669370134,-4.602049199033278,4.032075514806878,-1.8914684612458694,-4.659096891442288,-10.730309052952949,7.202081126614626,-4.257116886127569,0.13924596974671372,-2.2948866925527294,2.8636483049167043,-18.29285464941121,-3.347550364485329,5.562290977156755,0.7264988036159318,10.670900094652369,-3.0579073886059205,-2.835561552893607,2.104481338771711,-6.118644622618028,0.49290214746082683,-1.2160341585157717,11.47180996619204,1.826411689201314,-0.8414206454340052,-2.9781829218506934,1.4515950816540122,0.03373555939739821,2.132357133657141,-1.1144875465897097,-5.036728171318354,-6.692090443557105,1.9881551762967264,-3.4725948977261623,1.1644172265478794,-3.3871281865519363,-5.936962093473319,-13.00392747129508,-2.4042584122707673,6.952285578460359,-9.405444672924645,2.760086686061863,-0.7043863442830143,-0.11931348902660344,5.0469567942393665,-4.395869382266805,-3.846982629880393,-2.387823835851144,3.3782023005971045,0.8522470314961034,5.262268267993944,-0.21191092031727293,1.3674375560203322,-1.9415724910044476],[-10.792601114209303,-0.8473327813061567,-0.21255479167778452,1.9057642316248091,-3.1521573944084915,-2.553585103171259,0.32277606190398095,10.972286662994255,1.1474182097493555,1.1475059496726503,-5.15367589878088,1.7258182806144378,4.387792212923664,-10.599438930529091,5.6496863662483765,1.2945753229335277,3.9170862556882895,0.8094311599836117,-2.558070764615495,-13.420262929386043,-5.73470780397041,3.899671689567427,10.990744940456004,-3.297533588284023,-0.2146895487624953,-1.9012347278929527,10.622899397181078,-9.837824621691388,-1.4146001799095083,-3.075747092908867,0.6833081745132702,4.908416983220689,2.253995506426635,-2.2153350456745486,-1.3653282848757111,-11.046364361237831,-2.248256296982736,5.721532868629111,0.6788792661482455,-0.2510067625824692,-0.725628906543656,19.45899422532742,3.4713422490317303,0.06745821449130833,-1.139229353358159,8.472261216029587,3.1313646422094514,-4.804089125006952,2.996402294466702,-1.17599470248883,-4.031000879957143,-10.084724700107849,7.638933508939576,-2.240491559985178,-1.2046596756754786,-0.24290479532890258,2.804165698539598,-16.796857497752796,-3.6210767939702704,4.538019070536004,-0.46635761238059414,10.87277657628094,-2.192477091717974,-1.2907860354303153,0.2854429470230677,-7.121083639309811,0.48575727087182274,-0.8199540896506822,12.07140996582249,1.8987316768624742,-0.5245109761316423,-2.0571788331780625,0.15477589450115717,0.26174467197809587,1.1149490014379917,-1.042191395312437,-4.017708822782281,-5.994689677193991,2.33539015947501,-3.949581604874035,-0.7531768941457867,-3.202558004929414,-3.2503797491192183,-10.179757685819338,-3.4229098857702787,5.282634947094331,-8.827140674410966,2.695919192089092,0.5709709612523466,-0.404853093900181,4.394394028786649,-4.991664094260201,-2.5801627635823707,-2.430122403799019,2.0282326152601344,0.6825448061484495,5.852551919494259,-1.370617496196939,0.5573693531087431,-1.7922786677153792],[-7.707768396381639,-1.5304990873531297,1.3405703908576292,2.061838207737077,-1.0511124731252535,-2.866920558522294,0.3494814517203322,9.21874769424109,-0.0712323349418701,2.246588195220556,-2.7551520584507423,0.5755503481402091,3.867520255909975,-7.8916941832927545,1.1896832228903962,1.5072062233110952,3.4227872861682878,0.05139117614884201,-0.17217408509576487,-12.872195666846252,-5.2940961938547995,2.827813798480945,10.594216776924178,-2.6845967134517097,0.5825442198858001,-2.041398660968366,8.319275162353495,-8.675161886666107,0.12923662363108976,-3.5096856342376466,2.045178587563262,5.231682874223368,1.4668394675448408,-1.2866474733972286,-2.014936488563508,-9.103668129917239,-2.5922418409073495,3.5641457279026825,-1.1624310341145365,-0.5053063601713325,0.8841727488312432,18.15581998114835,1.7821589386164398,0.4488316854126398,0.5928159262318089,5.000589478697447,0.6039337649110799,-5.910965967408195,3.2548938369668887,-1.4800996356250407,-3.262303989371228,-9.129968619639515,6.477436804350966,-2.5599884055596043,-0.7407873936842413,-0.14066549533511583,0.7868065655406858,-13.739245873947903,-4.1038476150423016,4.231851214748133,1.0894269661886196,9.862388673371191,-0.8136493029540692,0.2086164074971081,-1.106283370423232,-5.824524102277517,1.1570800032593844,-1.8495389053255888,11.31751567033705,1.287360154057588,-0.9221481908764697,-3.08184120231584,0.877199748263762,-0.07154529602607324,-0.9791816474768685,-0.7051217654393421,-2.101482063957227,-5.868996245226705,0.7330204130515279,-1.730521184208301,-1.9911117266494827,-2.760207191041369,-2.237299952167756,-7.30805046891399,-2.2990251582305556,3.5931353665533323,-6.798856099165707,2.15751495791796,-0.10554202226945683,0.7390341851371859,4.256248114324407,-2.801361485139203,-1.4795998201891771,-1.7007335238516372,3.3532049133486996,-0.4675217929287988,6.151576739583766,0.5623559400810061,0.5977189465654013,-0.570003849521055],[-7.543598299734681,-3.060604763455322,0.033075071472877894,2.1256554550175757,-0.8909337077477566,-2.1700200622368,-0.07062566527162419,5.69795752452501,-0.2990962104385292,0.5803394776948632,-0.27772764354842056,0.04382831456528531,2.4659955915260343,-3.8067860354978578,-2.142412838557067,0.24756016722851187,1.1066671030904092,1.3922662763554952,5.654144032930663,-12.422187502504704,-2.979180797859678,1.0909001962866183,10.193917517181015,-1.7362823943772063,0.9250695789812865,-1.2468720375533275,5.697402285108779,-5.948195875497074,-0.8977691095280173,-2.8307139355676862,0.38203115456094305,3.2971785616318723,2.814487170629079,-1.1223928190771058,-0.639454077900611,-5.585069968686622,-6.2316805211921835,1.0462230905335559,-3.765059018617537,-0.9501982651976117,0.013838906070324489,19.121999339965942,0.755034543871415,-0.9768275872423501,-0.9322509161135634,1.3603838786154578,-0.02039834851874258,-5.260434214973296,3.2465530072292967,-1.6088437090323513,-2.213611183023524,-5.484713312813628,5.141908514642689,-1.6124742211894538,0.30019974796270005,2.2294326589218993,1.2772422411984272,-11.80576971578275,-2.656294804541458,5.0322252402809475,-0.5097707295119237,10.096572284757318,1.8634923640663388,0.7681362084703766,-1.388806035343083,-4.381739912151063,-0.6215692149251787,-0.7634766460599194,10.429813117227031,-0.011127043988395815,-0.9774163888262352,-2.872939637550914,0.7761996406063736,2.244034201638682,-2.00448962836224,0.9689627877011638,2.192853197864199,-3.9118714210620755,-0.7295530957810774,-0.9689689614666266,-4.154734437693919,-1.7932201354284758,2.0876558504886025,-6.726949893814308,-4.059069215474263,-1.390432133184028,-4.971307669564171,1.7569437344174785,-0.6818497580788782,0.8520844581751034,3.758277021217603,-1.9867940060999794,-1.3432508431583243,-1.591041649429365,3.506521761931172,-0.39810512535554116,6.037958760320592,-0.49441579538615205,-0.46277011997895207,-1.22591379039176],[-7.111175849243103,-3.4917731269740675,-0.0340528652324306,2.2110941689634283,-0.529370906272856,-0.4129510063198197,0.46490648563661835,3.5661812004648037,-0.9788770314343248,1.6570878177494976,2.174052519416219,-0.7138136472950671,0.7902562520869183,-1.0434080164726325,-5.195651624868022,0.011536227233630507,0.4719742539995601,1.957340401106275,8.663321968467445,-11.48007142014637,-2.4592234741422527,-1.6888084197432085,8.465171788819818,-1.436123618101913,2.263205742836343,-1.5264659744258466,2.976102856967898,-4.160848053917884,-0.7157499880268463,-1.5108573780879233,-0.19001535380471796,4.229163208256554,2.9387316332991342,0.6691100203501509,-1.7215679663062347,-3.1163483665352367,-8.52986963423704,-0.8568953166918734,-4.586087807464909,0.3528231505672593,2.0581281197123107,19.651049856531674,-0.959604311337055,-1.5417214565164483,-0.7021167772249921,-2.283946016287803,-0.8380475720980024,-4.999329423439926,2.588103661204954,-0.8216029454534752,-1.220225105531568,-2.9425369511976633,3.701444050832821,-0.6757659222358333,0.69366970176059,3.8072525745356427,0.08278406706797244,-8.010996963792405,-0.5418588026779839,5.936026671096135,0.03451822671306169,9.28979415378477,4.03443914541847,1.99002862221696,-2.5655952702933527,-4.057152013882017,-1.0984957017750239,-0.8319910172331222,10.46754122768505,-0.7976198915543229,0.2753047775235191,-3.213225321277941,-0.6034883491699656,3.0846950824393873,-1.8876299991563623,-0.3932922972758017,3.8933406299083875,-1.6666214970804845,-1.2566548579632577,-0.37806464385104305,-3.8472650655629703,0.0770419199727482,4.755823068818198,-4.521805491008177,-3.751467597628662,-4.678633744451815,-4.512035171571036,1.2425581174241076,-1.5477759003553264,0.8490686993476623,3.14240556174388,-2.5032115943299953,-0.7046458419964332,-0.4061535054374661,3.0203858291538426,-1.225640896299714,6.945159197555443,-0.1108691016524546,-2.1605384109403047,-1.2918195021621695],[-7.296268168294223,-3.604181382872722,0.9327700238443281,2.39374869945033,0.10790541364637873,0.14969321927004847,-0.4583460024170966,1.9644034987604269,-1.5071497151174635,0.7964105865074219,3.3073405017027686,-1.362262612856404,1.0399191024528798,1.6835455300356885,-5.678799483083118,0.5774629427018892,-0.5261888027723667,1.3096884991468432,11.769270728283637,-9.392851039016765,-1.221846105858889,-0.7986987345098099,8.288792474758793,-0.9630408088381075,1.8706272711136613,-2.3705752542351624,-0.1360718120294379,-3.4415980426772625,-0.01374913870150434,-1.4038621898757855,1.0814715207301908,4.015363179333312,4.738620946288009,-0.09024230250241139,-0.6017766858639052,-2.167042160577313,-9.399362449513449,0.1920227800518353,