module.exports = {
            network:{"levels":[{"inputs":[255,255,255,255,255,255,255,255,255,255,255,255,255,255,255,255,255,255,255,255,255,255,255,255,255,255,255,255,255,255,255,255,255,255,255,255,255,255,255,255,255,255,255,255,255,255,222,227,255,255,255,227,190,255,255,255,255,255,255,255,255,255,255,255,255,255,255,254,237,247,180,6,0,184,255,255,255,255,255,255,255,255,255,255,255,255,255,255,255,255,255,165,92,242,255,255,255,255,255,255,255,255,255,255,255,255,255,255,255,255,255,255,255,255,255,255,255,255,255,255,216,255,255,255,255,255,255,255,255,255,255,255,255,255,255,255,255,255,255,255,96,254,255,255,255,255,255,255,255,255,255,255,255,255,255,255,255,255,255,255,0,64,132,136,136,201,255,255,255,255,255,255,255,255,255,255,255,255,255,251,0,0,0,0,0,0,75,255,255,255,255,235,170,170,179,128,39,34,34,8,0,0,0,0,0,0,50,255,255,255,255,205,0,0,0,0,0,0,0,0,0,0,0,0,0,0,50,255,255,255,255,205,0,0,0,0,0,0,0,0,0,0,0,0,0,0,50,255,255,255,255,205,0,0,0,0,0,0,0,0,0,0,0,0,0,0,50,255,255,255,255,205,0,0,0,0,0,0,0,0,0,0,0,0,0,0,50,255,255,255,255,205,0,0,0,0,0,0,0,0,0,0,0,0,0,0,53,255,255,255,255,205,0,0,0,0,0,0,0,0,0,0,0,0,0,0,159,255,255,255,255,204,0,0,0,0,0,0,0,0,0,0,16,170,245,208,250,255,255,255,255,163,0,0,0,0,0,0,0,0,0,0,152,255,255,255,255,255,255,255,237,34,0,0,0,0,0,0,0,0,0,0,208,255,255,255,255,255,255,255,123,0,0,0,0,0,0,0,0,0],"outputs":[-1,-1,-1,1,-1,-1,-1,1,1,1,-1,1,1,-1,1,1,1,1,1,-1,-1,1,1,-1,-1,-1,1,-1,-1,-1,1,1,1,1,1,-1,-1,1,-1,1,1,1,1,1,1,1,1,-1,-1,1,-1,-1,1,-1,-1,-1,1,-1,-1,1,1,1,-1,-1,1,-1,-1,1,1,1,1,-1,1,1,-1,-1,-1,-1,1,-1,1,1,-1,-1,-1,1,-1,1,1,-1,-1,-1,-1,-1,-1,1,-1,-1,-1,-1],"biases":[-0.11950257629690168,-0.7374403993142732,0.6423571246283531,0.11167823463174822,-0.11218769673378422,-0.5644451748775774,0.4242413331645772,0.2011949999140269,0.9940655866908236,0.8938721934807584,-0.5323040807688632,0.9313049545234592,0.37008030648253876,-0.44113053326139495,-0.8626926352773269,-0.6172390798289424,0.7046483217209382,-0.17540019995193604,0.9342485806891784,0.5033445259761955,-0.05567564560591356,0.051543200208447354,-0.4180265932275461,0.7315284992164247,-0.6621536319791486,0.9514584159159097,0.9132248835730719,0.2881297577891594,-0.5963387205418669,0.2807969168515088,-0.9776013808674785,0.9219649999513428,-0.4300752947889626,-0.4293559404421056,0.8960765751919246,0.85294087351048,0.8826115975184681,-0.49687356442791336,0.2787808301922022,-0.17834017484262568,-0.8122517807576011,-0.8193226986408683,0.784377835270197,-0.37599737172327524,-0.14001249859368234,0.49997580322650226,-0.9850215324970479,-0.8318353665242401,0.9609371503846621,-0.38444696538850576,-0.10480274954547013,0.08728357846852594,0.9690877830140511,0.5227773360546046,0.480314094894026,0.6345765989026164,-0.5804600434920538,0.21226265311552153,-0.3885613213558355,-0.3437080801738921,0.518608266629399,-0.366654828139062,-0.1598152776835308,-0.07296877052514351,0.6227499479416119,-0.726789966420067,0.9173124310097661,-0.7749471627542078,0.2302290431914008,-0.7946485505994775,0.6826840552562803,-0.7751853201275383,0.7330524347931054,0.4111672942685796,-0.9561877748297118,-0.7548221480587316,-0.646482170024596,0.0724806137810579,0.1731353363164266,0.9683357545720453,0.3425762490263346,0.05106073977754333,-0.7422588941382657,0.5907643853095694,-0.5684787731802087,-0.7539197954238979,-0.1302762096199718,-0.5734143295584413,-0.9446979710629195,0.37926105991332276,-0.9384550774973431,0.4456687511704705,0.6715337903870127,0.15209548212291132,0.11737665649015251,0.8780698948389304,-0.6903165985656604,0.13706227239305782,0.28378421744501675,-0.6758578595633491],"weights":[[-15.797188747689255,-2.7101699857599115,-4.890321753570054,-0.6661084851604531,-6.293990577655846,-9.086469489641273,-0.6177974879179137,2.501742202069389,3.3724732464582416,-1.3707528803712785,-13.69015809529656,5.297285734426062,-2.7374502438058634,-5.033465802510605,18.604882475874746,1.5419146020406789,2.1054469291102706,0.5369093994641586,-0.2819084737316922,22.702294852570326,-1.5031435485334574,23.28268005938128,-8.20317925218208,-2.285911233048576,-1.6611925133754804,3.086252158172061,10.142121795723716,-5.438402589924388,-0.15237806563751,1.5594922659439077,1.5900665887970176,-8.600789842893784,5.1024311473323225,1.1712183039647186,9.434070953305131,-4.026390354442822,-6.932262842757494,13.418278891338858,1.8057909484652102,0.7126658871022271,-3.0130422805147816,-6.747798014609006,16.482043541361893,2.8964482020151148,0.3087103110595281,14.707454906493277,6.987301660773464,5.66154589058532,-8.01920748259824,3.911002091330356,1.9756916785667535,7.7584373132847695,11.970241876482243,-6.650274695883985,-3.3132731378348357,-14.840487327061982,3.515651496965682,0.5042604348419677,-3.703521028663796,6.223228215281473,0.9568605112312168,-3.5421638284383494,-25.975502117288514,-2.5818706202766544,17.414294656489744,2.3226008434504037,-0.4216777255539761,-0.6416731567870221,8.719101573549478,4.968679767335828,2.809528068640697,-1.057168631888482,1.0757136917982753,-4.60919020817109,4.719709802760559,-2.124896877944865,-7.467218545382749,0.9962919138245678,10.921048599343926,-4.254978636692495,9.809904084530071,7.640016054549028,-17.552747202943383,-16.33084798765327,1.2295046804856402,7.659452334852939,-5.756629174845465,2.023548772270589,13.805676480967694,-1.2723588832823118,-13.019460044664164,-5.310125434666176,-4.049166961855986,-0.08324768726234259,-4.629252146658159,5.139050257395919,-12.219225019614122,-1.5688595785076644,0.15126728664582684,0.38933177859347223],[-12.193284165234404,-4.361670278422294,-4.645170597250707,-1.0533237967011284,-8.397324133576188,-8.36236322087818,0.6150172109792631,1.277164861198057,3.362170281775495,-1.197887091073562,-12.859476557401862,8.571388983829637,0.12140398571497388,-6.252922671156874,19.105115805903147,-0.022469066680960405,5.574496894439051,-0.008724346363579806,-5.863724961982021,17.93027326352327,-2.4370408708821776,23.29064336204931,-4.429753852279484,-2.961907503004894,-3.402338083672154,3.134594047289506,12.174069575541258,-5.596202181034742,0.13739226494378395,1.2628525666751402,2.232263219177979,-5.899925179445786,5.98955387875389,1.0016741648347434,5.746960198869998,-4.897627740500419,-8.602629966075636,9.55454038638311,4.379732255196449,-0.5955953126481006,-2.104682223350699,-3.4483198975197435,17.6262360867187,0.9674968159580399,1.0994998426442624,15.252351605636916,7.1384811064367995,7.568720364491476,-5.437407117304834,2.867780374894822,-1.6310401372335253,1.558801397617147,9.32502962511343,-8.25233612191083,-2.2022001820441583,-15.067177239968661,3.386789675485243,-2.4540680510327917,-2.589504519200102,6.960447927584874,0.9459416206108213,-2.769439766952396,-23.259963756661037,-2.3934830578190356,21.049816085096527,1.7916321910855952,-0.32124847420967256,-0.023327463786112935,8.45197855983705,4.091762064619625,2.899777856221818,-0.4478353170945199,0.5266563454324775,-4.733559783247049,7.944813570454022,-2.3050351857372386,-8.509530816085267,0.099538101721302,6.946027601278939,-3.8448918604486946,13.207761154240611,4.177171553709015,-17.938973530811726,-19.92706110417966,-0.47376078955683953,8.789932664020746,-7.277898949389561,1.537585967408028,12.033316673582982,-0.17683913223184042,-9.940388096450834,-7.780178094121739,-4.455682069336901,-1.785426436761621,-5.068869752107569,5.881578179711548,-12.756985808388464,-2.2167278909173014,-0.3614155817596559,0.08427639944401573],[-11.59398391598162,-2.938237344743495,-4.809639057887189,-0.7959809405446675,-9.381173136733528,-9.09519620630746,-0.29872963892834214,4.280862959236462,4.431619236925613,-2.051011932171855,-12.409518023484067,9.009487089812003,1.0373792869780276,-9.482840135710767,19.152014123954004,2.1519455444072797,4.986717629389271,-1.00923342707603,-6.995864051459149,11.444671671604954,-4.431079701426086,23.09048558267497,0.3278490466866305,-5.13831192410363,-3.788882338478761,2.2469950898172497,14.761094870913913,-6.737678946153879,-0.08033602008879905,0.2953578033768791,1.209965357543353,-2.258970550823171,8.141336963300272,-0.4528482999144152,5.498982000938191,-7.102928054316429,-7.901821593050988,10.059688988005998,4.09375795327586,0.3478306257474425,-1.798716946890876,0.8417553874044043,17.73559273549757,2.3323531007411265,0.6238732928758185,14.595523184415132,6.708445580739449,6.135498016232138,-3.989237842785869,1.5414598776710755,-2.7451264575852568,-1.9352212367088157,10.021924804647183,-7.8196087392979985,-2.494855175100092,-14.246681287693619,4.1612159280977545,-5.368535572325623,-2.490713143052613,7.766867009363942,-0.02870204928632022,0.5405490397438796,-21.46992041115337,-3.6263704116806794,19.88566566382289,-0.8314276265850838,2.0427506361713044,-0.5565744476101994,11.51979454897981,3.4112285051926095,1.8336971244517506,0.037887609069496425,-0.08729543275016279,-3.4563068865591418,7.7222282487506275,-3.1919443013658535,-9.661870102881888,0.06274237737390483,6.727715106633623,-6.0013980397726145,13.071136354246725,2.9586686562177404,-17.451512588981437,-23.102230756110902,-1.5084718503689993,11.543060240348249,-7.29149309978816,2.4401763264120246,9.883883879894832,0.39985513998869426,-5.498598070838486,-9.213050722171118,-3.5256082821412447,-1.1858846163005465,-3.4318053530860997,5.968669919661154,-9.046946096313828,-1.0425501859051909,1.036440214009182,-1.078405766954262],[-9.808036213669885,-4.1347526699494646,-2.017666933335372,0.703215583030996,-8.3610188226611,-8.244524395740092,0.5397981320131688,7.215871101734625,2.788871678723581,0.42544998966573466,-11.734188222349978,9.483549648594671,3.9982390348483614,-10.666922104528577,16.936761791285274,1.2184154402673992,6.665434336405321,-0.022481060187854306,-11.730106139778897,0.6172997582140132,-6.868009523310392,19.9359631057332,6.95395467853847,-6.541298669984413,-5.16727199114914,2.118937504739323,15.75231652423193,-8.696274190737899,-0.815343604737037,-2.5121499817435886,1.0149362890482119,0.2788527230291739,8.574144811352852,-1.7608861802691367,2.2141178715028653,-8.487034487738422,-9.626567646307809,8.032917764178398,5.076858038241351,-0.9475655381786932,-0.5166655761322498,7.491047999500189,17.930330269590215,1.6337927220352295,0.18356804777934843,16.26279879103513,6.483468013075825,2.764593226049872,-0.9255861267999381,0.5752383803273439,-3.967189960478186,-8.07515121694597,8.51805989804319,-8.67227395264617,-1.3084715908089146,-11.86367780174458,3.5971188752696546,-12.39508315560659,-3.397724115929608,9.85653319256322,1.0334310400969442,5.326931834875532,-16.916445430217173,-2.639503963631053,18.02153089282881,-1.3137031467796056,2.291807695353875,-1.4741833248426541,12.855938930177551,2.009189290193476,2.155939152245661,-1.9853135603434882,1.849794541239016,-3.166511005741388,9.41632937213895,-1.5557864217727841,-8.320270288707773,-2.672693405217167,5.480412566996513,-5.827512430689994,14.214474622963237,0.3700720226138197,-15.690585404666638,-24.79101353595993,-2.9582134220650995,11.827954097975462,-9.501329648217805,3.5914149233909787,7.001701840713809,-0.3122516476489492,-1.1476277420736543,-9.698371760684099,-3.2410256941708315,-2.0673392365641448,-2.11171635618978,4.335032673770958,-6.522982705432914,-2.121111282912505,0.3226625894581059,-0.47249255901397624],[-9.93776212914005,-2.161308524327981,-1.2576593497798656,1.2329395835107344,-7.307177168892578,-8.56499527257059,-1.0603193407046987,10.771460381744511,2.887198423706984,-0.2627383440845359,-10.66060254133073,8.68453922235501,6.113152096507694,-13.934862977490697,15.533984003913547,1.7163742646203461,7.620448224211474,0.8793297719672326,-14.023735752567205,-10.775822644521268,-8.384854146365225,13.607710262024552,11.557750603129415,-6.310293921603692,-4.240989443864129,1.4264427069017287,16.019355841880827,-11.845253974455314,-1.052413493767736,-4.831113838898629,2.3247649509569364,4.897907872103807,6.835111813331211,-1.7964317986288085,-2.0681948903411573,-9.891203909653425,-7.3526533095978035,6.825280263999898,3.981341744018717,-0.3366506814710782,1.2669093733665946,15.01628004613858,14.220352506391123,2.561867434207746,0.09165345700927834,15.634211828152997,4.855679672822759,-1.3199033964431974,2.5075281605722717,-1.4116480831721696,-5.812784990562723,-12.528798626694536,10.301917781566889,-7.472698891059295,-0.6142762286528078,-8.242182855588567,4.484982470931545,-19.637723592879237,-3.5279386772122594,8.075889826543982,-0.16048564868731374,10.346386768963264,-11.005383923678123,-3.3878233633777923,13.709719431915346,-5.526057423383007,4.3519350923762135,-3.0266175427311084,15.177507735843516,2.78679678169943,2.0526803509872167,-1.564937656146167,1.3574822285328991,-1.861987018223552,8.425950491564976,-0.9887324218736684,-8.661289599728255,-5.523842317620931,4.652205233982955,-5.94106113375902,11.766615945062984,-2.277459786803403,-13.442654456403046,-23.382860812044772,-3.6965772295559924,13.424264644300417,-10.88755010702548,4.182887268336956,4.105667595058545,-0.4087236999485892,4.270319588712806,-10.238276340604147,-3.2536874532919695,-2.7670547102249694,-0.8879340690015695,3.3108716123033592,-0.5369953517097259,-0.3086826662577808,0.47357137807742505,-2.0593195198180068],[-5.700906495374299,-2.0356784668453196,-0.5000999880869199,2.818761960152123,-5.58913409100829,-5.226632367675702,0.02745597936561339,12.588864941234888,2.302660636583858,1.6587509086657806,-7.7844566870275855,6.536380744711652,8.219665736998744,-13.060226303284315,10.507224757130539,0.7171036934800495,7.40918384417177,0.17045554255899384,-12.972600847361315,-19.56299762837898,-8.611889683596985,6.813753029897692,16.123173796594465,-5.785638331478558,-5.130423086530563,-1.7892687917492607,15.50203507686801,-11.958484222872249,-1.0370105733368902,-6.180897706957667,1.106305202397963,7.017319526425532,6.894383834103252,-2.266686879717022,-5.476083141175417,-9.953187086073628,-6.3292161285262125,6.262384334879846,3.232442336109586,-1.1415818975572198,0.3994794657091381,17.374832760733888,9.643331841109545,2.472698996914184,-0.4886304913327779,14.302662569000509,2.997814134780312,-4.920689943221342,3.9848638547828474,-1.7797176084488882,-5.982388128466344,-15.425132786481868,8.217992932258916,-5.284030902020069,-3.247909564757846,-2.6522075741421594,2.5799532916605687,-22.997283044313722,-5.820519033860454,9.194353732756634,-0.5195909328057969,14.59607362423398,-5.091154895318273,-3.7892283230746977,5.501542990283967,-7.64695454012639,3.9187347164232014,-2.595396810627317,17.814307276346867,1.1208333740430303,1.508440374790375,-0.6452916904449951,0.5640495810262018,-1.3182752055541398,5.340323133531863,-0.06560491373177436,-8.256996262575678,-6.912317987645369,4.191178695677404,-5.669820393584535,7.784840356663193,-4.737585847370661,-7.913000836653489,-18.88690649538782,-4.562274685071175,13.19068541325403,-12.20269593714283,4.164482805218321,-0.07094109660012891,0.8366413626809296,8.04363399521664,-9.169349941783004,-3.6497855303394124,-3.594324021155243,1.3860230226306776,1.8659530168916338,3.723214550425444,0.21475400647487644,1.0469490817017555,-0.6859069248093396],[-4.573536021882952,-0.45541348646611374,2.058645336541988,3.1029949331066726,-3.663437086083449,-3.3142013771868553,-1.2312709070621255,12.071082266475733,0.7813818360779236,2.27421013166936,-6.4235002157631005,3.484034809284488,9.003838021034513,-12.844197109540962,8.04341099624454,1.773531283736941,7.769333898564278,1.0835418092718396,-11.513947381064641,-24.083119845548975,-8.11186490849385,2.523847732092722,19.30554510730285,-4.869225757306371,-4.061442727848757,-1.8530599414130966,14.108386737968647,-11.666253814177477,0.02312493794231886,-6.959100508980792,1.8763814913592938,9.69249559554448,5.169658667819557,-2.479848152770082,-7.278201894948517,-9.057089267491103,-6.557731325681773,5.431386553938861,3.07065219986911,-1.6710606765073959,2.4171853966845855,20.53463159484776,6.66333012466938,1.4656254304207814,-0.6930900502944639,11.709467651080558,0.9374043707621122,-6.496500551291964,5.959048092888417,-3.4333996916673963,-6.420444452556107,-16.34818328404558,8.671927364829155,-4.696676850941059,-2.137396748905412,-0.3886043852323779,2.3289874009965925,-23.868763255219257,-5.597506924863052,8.06799355050937,0.4795287532022397,17.18709829490815,0.04870785591186565,-3.291803224319255,0.21902388483443186,-7.569072687460896,2.920624459492935,-1.6395228909124668,17.926251292988226,2.054553180495138,-0.43913717636453886,-0.7269068223983498,-0.07975705410829571,-0.2903427956477551,2.646592502119289,0.4169483399807189,-6.31324469078261,-8.406273336824233,3.1169670947934374,-4.538800111934983,4.228959008031794,-6.344245463599455,-4.342670029952421,-14.879415457428367,-4.367984209803404,11.611585176377767,-11.554584067858148,3.3413632405528118,-1.2806998054642444,0.4148071085725757,10.410293936374119,-6.8786550620107185,-4.237832587964518,-2.2263782176241738,3.611908779335718,1.1384222928975494,7.623663279298571,-0.823126249676662,1.638602445666887,-1.3331401151641267],[-2.1627213131007843,0.07899546764521553,2.2260133651221965,2.650116598896437,-1.554804220340887,-0.532510362049059,-0.6821196921582595,12.66701745299398,-0.9211820257927962,2.125790231653666,-0.9508081392760847,3.222504079569182,8.618009567292782,-11.15292979869862,0.8968647394692297,0.3850164236649578,4.920815527618375,0.3158498248399633,-8.577774905808647,-29.810407087297854,-7.091117763376942,-3.3049097831721923,20.602033586579424,-4.0803113988317445,-3.28295776005399,-2.2377134587711276,10.432237343956015,-11.041688520003685,0.09957462208171196,-6.0970458149467275,0.1812676234076879,10.498365256672768,4.582434004079106,-2.0596018843434156,-8.838708035425743,-9.391448732790671,-4.634849633286324,1.603149988494987,0.9684431583962458,-0.5796683464877418,2.170247492227083,23.322112279265394,0.4282609858088006,1.1211237184627691,-1.2107540170580464,7.066660989266466,-0.587310965365081,-9.22118136229252,8.0815354194662,-3.0916534341422968,-6.425955751599265,-16.139146755265063,5.72576812361515,-3.4460914798863107,-0.9731318762157285,3.20029282081064,1.8669326163076836,-24.526943191869098,-4.591284828793247,5.107218876379659,-0.38143225401288755,17.864124256919776,5.55194199022776,-2.525232798380384,-5.712080136990922,-8.04340216366291,2.921101858793021,-2.629394047528417,16.51455290458797,1.1240613997241449,-0.42724431167208293,-2.0587151669312846,0.45939687545764196,0.14123916541381049,0.3501564079732669,1.2369014479474885,-3.842868268581515,-8.935516417417732,1.1255920776379693,-3.8784828870452825,0.7227459151631666,-7.283882839410764,0.09057049046761281,-9.372080497358096,-3.6342729639005467,8.061716674453432,-9.245667568147487,3.1656150712564814,-5.7272051854804715,-0.6090588786936192,11.806420775625693,-5.298948654979384,-2.781894398660541,-1.5070869720317537,3.91222829713136,-1.0126959097428032,10.449155089414404,-0.17195449369021598,-0.016139451555005332,-2.045510344869414],[0.24636523399816165,-0.896039683405517,2.3201691016536192,3.187767071568751,-0.1393289055170657,-0.03207074227803359,-0.7222543846241755,10.53311524761315,-2.080914711127885,1.8267141771983746,2.5683875215867618,0.49553383041503274,7.7920166812080565,-8.7933529592887,-4.294055775181849,0.5466255509931353,5.235218694985336,-0.044790425029367635,-7.206921121706219,-33.47601118451818,-6.969418861200263,-8.884949690496127,21.14651343885999,-3.4952146460378724,-1.8853475726358428,-2.6647371066142247,6.7817893823698165,-7.007322600669132,-1.0866606971380655,-6.416430280924976,1.296764814860448,11.689376220630523,3.772215648473915,-3.5599296007094634,-9.551221676442568,-5.621792465461997,-4.80718060667115,-2.4218370432540075,-0.5084741264611707,-0.20142431012318077,3.3423525064892523,24.64001133247273,-2.0118470120708074,-0.4065296811356481,-0.5605678762393449,3.0003036631988644,-3.4979105729481876,-10.072985827296957,8.911087632414283,-3.4359869533754654,-5.607952122734438,-17.71365981309373,2.2324322594755728,-1.4709930996879428,-0.9550354956916925,7.461050982721666,0.959924990716187,-22.57610628350433,-3.408501586910123,5.62853630557286,-0.2852778838722038,18.14190749618024,13.479068339078793,0.35626428142772554,-8.0547779924,-7.71117860897875,2.3128978866112893,-1.9628827054311202,14.71153613844375,-0.83670066428889,0.25056641820904896,-2.4945039456601816,0.6239694899745712,0.9663691122319573,-1.1382066624012814,1.5491764936959738,-1.315260436596217,-7.192250661124659,-2.295399914591475,-2.2044644550807675,0.8093397449010956,-7.67959366059743,3.2495659049827057,-5.407686921056706,-5.353105640380605,4.556109259185183,-7.3863746266423105,1.4722448251220195,-7.747978931951121,-0.7381915178168997,14.33528739659106,-4.0438464907635785,-1.6818374004172276,-2.8613693913239433,5.430517585257107,-2.9723533861138165,12.424058831811523,1.2068985902799394,-0.21234246865755368,-0.8003068850241124],[3.097342124070783,-1.9316708250775076,3.874965711388255,3.14100561672562,1.3419251022308076,2.6282193081136436,0.6377935715166358,7.728582264461994,-1.2338947575433201,2.4642196814551016,5.642080798562242,0.3516715807888778,7.665587205666378,-4.228501997814233,-9.577839087490112,0.2462543457386697,3.63524896735354,1.1317714437926396,-3.401078131097826,-36.56514050577038,-5.640419610198293,-12.032741227959121,21.44958320362229,-3.301974463724184,-2.6562827771826045,-4.863830613079056,4.578394030536037,-5.592258885168241,0.6925730121081788,-6.22591753621151,-0.1617518819082559,14.170866604344782,2.647759671071388,-2.152030270847639,-12.08258779673081,-3.5489300500041314,-6.535150119332621,-4.7287376508098,-3.2098624865669643,-0.21712665114753768,3.133045989534663,26.06739358618026,-4.835454039728943,-0.36523797846511086,-1.3496245970565515,-2.729394614678607,-6.021856404586741,-10.732683801803192,9.990149515060859,-4.663299221162234,-6.017428371392471,-18.270897002717515,0.5059796482198415,-0.6455298243517609,0.20365528186054604,11.287102101966617,-0.6352106485370106,-20.62850554491192,-1.2707264861206524,4.3130818663267645,-0.6728549483876116,18.876154196594225,18.635545353201973,1.5229146781059302,-9.84540906480016,-6.756853445937489,2.7009934836703957,-1.658590543987503,13.485209929196527,-1.7921525072730837,-0.7416732905262409,-2.9055751867441675,0.34693841216205706,4.2249974159005355,-0.7007445471271301,3.843294786658415,2.7544225718084925,-7.600069875065774,-4.011618840180533,0.004737441731223533,-1.1885144299680943,-8.181276309177631,8.214269477372602,-3.0018737881507533,-6.255936280414181,1.1290216366332437,-5.443233121856409,1.5127000164742288,-8.444095953405803,-0.17538868878102132,17.301129095926363,-3.1933867266734866,0.12147409667642756,-2.3547420641976147,5.556528422302698,-4.296476684704628,14.641574740595185,1.2159722990117905,-1.0744329160582191,-0.528640522175476],[4.255829206571859,-2.5032811000758235,3.7691944416277385,3.7642122411283587,1.31377012291695,0.9511024119618121,-0.8417706000244122,6.902233056751618,-2.062040659616528,2.00504893366494,5.211905214325292,1.1823900632471966,7.209153245325644,-4.311998105996263,-10.23001320949294,0.3380580907522427,3.0153698746549247,0.3334736652867732,-2.0832769628263357,-34.3198050082442,-6.2944949552357965,-12.007325070802555,21.63311703742318,-2.9862439017468114,-0.5197506854247077,-3.3495550712921562,3.65783462984189,-5.462995468513114,-0.4848797421901213,-6.191721596982394,0.24035403801726835,14.019772775836136,2.1572872169823465,-1.9334962809708278,-9.30715619214673,-3.140981651824424,-5.90988246230807,-8.178929070403239,-2.552185322646858,-1.0528879158013014,2.737014132143261,27.219046834528164,-4.91702367668916,-2.1784455221246275,-1.4107967229943597,-3.751049313238011,-6.074118027226434,-9.299760464874444,9.661765271838917,-3.943986434108234,-5.5518256257657495,-18.213603411992498,-0.2984831291338235,0.026353535073232955,2.0611279158589606,10.372513929365939,-0.8250245172653222,-20.077604748366024,-1.975192173963755,5.3236504097947694,0.2038365779080127,19.555770829703768,18.64258557298845,2.6029748935091006,-6.990627992299426,-6.490199343046708,3.638911410355492,-3.2023953243083105,11.45541847791155,-1.9492049122949318,-1.635912963842426,-2.2715557811329514,0.8869124766213814,2.8557356021170452,-0.5057267052548148,3.2485168139412472,3.884580071148628,-5.818766962266316,-6.197446782302425,0.5635755401495686,-1.6426373564611139,-8.379176881189885,8.080657141043568,-3.2737198509909335,-7.712517525214904,0.2707134548079931,-6.200994505829301,1.0997966442940534,-8.696695405595776,0.6094858937895145,16.08350276926896,-2.4793999510314855,0.26443014034567175,-2.490374952312997,5.247039606947327,-3.616901053983314,13.358882586303123,0.603357195224472,-0.007143832420927008,-2.114938429395399],[1.4859164720190257,-2.10923219763972,2.5698573396658664,2.9609940043870124,0.04142353394529634,-0.10674580098327947,-0.9389345613543194,8.166730749790295,-1.9449997365995617,3.018790281655416,5.283573901407239,1.9896744430192375,7.350781129728536,-4.252134663314024,-9.074652898811886,-0.26083265340342604,2.164216898118816,0.8920696029346331,-2.4909750187047495,-34.33269408387673,-5.347433712528205,-10.616543428104873,20.384017856927862,-3.7686635103950357,-1.5368006068788724,-3.6577894643752358,3.9730675155663735,-6.952951370191437,0.021026216261997518,-5.497644967671315,0.1315730206448643,12.893161252456146,2.112236597827368,-3.1576835889506314,-8.418182699187682,-6.19646276237899,-6.621441354087702,-7.5304908697971005,-3.18954123172521,-0.61324377287238,3.432755593771519,27.945765482323772,-3.8214033885303387,-0.4111484604145461,0.501394555628831,-3.6726201072325475,-5.079927550600923,-10.207309738426064,10.652864691622959,-2.723362859861821,-6.083111244651935,-16.543726615950032,-0.27734807864082905,-1.6183323560297036,3.294360531541001,8.89719606488918,-0.3845119772095241,-19.9302050751168,-0.7017247722740881,5.7805000379792215,-0.7357076428274333,18.880183803575168,16.29144556782302,2.40611713937521,-6.440598417575818,-7.082162901404703,1.9460832928934968,-2.679387883156872,11.860140386420913,-3.3308977635598045,-0.889466934936226,-3.6910615213474247,-0.5144531906995532,4.583644039111723,0.8750153269913606,2.4906783502907848,3.7838662378063224,-5.163203521484504,-5.7907060432740805,-1.0378050548378153,-2.5775887182946216,-8.886398401790416,8.056759534378303,-5.122258371221951,-7.325467939389442,-2.1567330397699194,-6.864789414116687,1.7032354355138304,-8.468050553147084,-0.5364045156003191,15.303369735152057,-3.4874109402225986,1.0571689490031932,-0.9843157539826475,5.552987621325287,-2.4317623231765544,13.40869763355444,0.6577187474210684,-1.3479806080632304,-0.7610481076711445],[-0.808832960972138,-2.3321081815415026,2.7632091541970345,3.96256510422189,-2.2414768491323005,-1.445008898178318,0.18372456291006578,9.834106581751499,-0.11989836853105688,2.369048930616358,1.5918640392736256,4.496408869232016,8.05446191518872,-7.0292150600631595,-7.968535003754392,0.2809982483274129,4.545114391933264,1.3512579642618294,-3.5105898530739843,-29.559583201279835,-5.716809335673589,-5.0996114959566645,18.733669835592703,-4.663605082732877,-1.923702236023438,-1.975242325952851,5.143114305897867,-6.691411009115808,-0.9964093952750411,-5.204367992091461,1.6103167027297498,11.967858029496742,2.8549069527388062,-3.0661047035576225,-7.444130540307277,-9.440401314247227,-8.500274165401532,-8.238813874656431,-1.1011271136425602,-0.6675215825085342,2.9319665084656727,29.15716456281175,-0.24003414145850016,-1.9810752160141845,0.6766745986356079,0.5517934354153395,-2.7772252172658263,-7.500577901653127,10.131181023013374,-2.197811086546205,-5.879063935031868,-17.918639728625717,0.2928825600019196,-2.7733153026908015,4.281847058257274,5.7290276863626675,1.2976293473080491,-20.508025884628886,-1.6807177748364854,5.964363769302998,-0.48525075180065375,17.8213731022761,13.211375393520335,1.5051272718046405,-0.2035584082758233,-7.089506458418609,2.682446617981889,-2.905123031270482,11.176002828878818,-2.7466129091536255,-1.6291086263939039,-3.528290458085685,1.675493987860254,3.107148427597394,4.412182312900192,1.524566479540601,2.497516739948738,-6.472463825487716,-7.183298258611778,-2.2295767225988343,-0.7455103235999792,-7.444081511653508,4.627413268998151,-9.56927526388558,-6.922550759244546,0.12815775751581418,-6.69816416155157,3.289993808852189,-6.538459312682154,1.281969142528879,13.539150272890335,-4.027502232114898,1.6291447220966169,-2.4263483412898195,4.754654276025613,-1.312315528273813,12.609446470492848,-0.4252066685622781,-1.8179677382498458,-0.9516098003101299],[-3.5832871474400463,-3.521172524500994,1.295671505055639,2.838880575067034,-5.614776534453397,-5.340094382043671,-0.23810645762950772,8.419557285002336,1.2358462301342192,1.8801577810675056,-0.859624217942791,7.825461615389559,7.655398958588612,-8.056722842065726,-3.917187380828916,1.5704029049747366,6.294701345402093,0.013778613707706876,-5.801639126629416,-25.211675690965595,-6.231999961016266,-0.6936055800994628,16.794026413036107,-6.690267271972729,-2.8260600673572975,-0.662075492950053,6.9033902688412745,-8.967254838467035,0.040668283130497154,-4.45709497056856,0.6885831444362318,10.184958973875688,3.1810130661893625,-3.1794620522423678,-4.584304040658506,-9.833865483233467,-9.324694821336308,-9.343012248156846,1.1648059827194723,0.922825014971083,1.7733447362273893,29.012490035928746,4.880029905877234,-1.288759471785622,-0.7947313030858678,2.941892039605904,-0.04190265930490204,-4.660581112183054,9.153047298938882,-2.9318602371845452,-7.974673084484915,-18.51053243095407,1.9820796827238363,-5.786599528824256,5.4569895569249365,0.8119626101680975,3.094913733071205,-20.252871887751155,-1.373179563374899,6.7105054318511135,-0.3785971916189082,15.874471683930052,8.65062072415656,2.368572941249034,6.8814293364374,-7.8497222257763095,4.659001754894857,-4.450020699787092,10.849801379407788,-0.8530334986453524,0.11551577290984866,-4.426016476106901,0.6107099437706818,2.0901630731435374,7.672438132971435,-0.27570696775907433,1.0199905898705337,-4.976078827273519,-5.916847162323865,-2.9386519914068288,0.8916378543714303,-8.067336336134927,-0.6698407857956178,-15.917256905476137,-8.742758414542772,1.9286871992747578,-8.613926698398586,3.284024099774096,-2.5098487967210836,1.0606913332830012,12.049410875223593,-6.402080436532906,1.865374883649812,-1.8305092281377746,4.584851169092044,-0.6332405855594845,7.9871066457691136,-0.333141440831575,-1.15486087917134,-1.7190446772713401],[-3.5493126853923016,-3.5631774481518748,0.08173393002022686,2.3284453767566924,-7.747116829160858,-4.744296319634958,-0.2998861890039655,7.617733055001164,0.09978219627250345,1.2933569388178134,-2.2072423197607947,8.80813767034301,7.223801569550593,-8.626003474058606,-0.8020253308961282,0.24671949450125763,5.152253717902039,0.5578417947453171,-7.880613910801835,-20.80772578157081,-5.874440136430941,4.890376637921474,15.017584836791535,-5.12242894185054,-3.2647389039379062,-0.2863343007712028,9.139070253178984,-7.818533386662207,-0.6719673242871468,-3.1983211010807495,1.5562566473383312,8.877766541707832,6.185914624741235,-1.9519651612135192,-3.7407687634624054,-9.509441770844,-10.016184783975667,-8.010586106847162,1.8789430638412465,0.9889018259505011,2.19511065389903,24.62589900796216,8.000405366473792,-0.2856429459630241,0.21721145899710803,4.693897381607579,-0.25771003005593895,-2.707461943754297,8.265542956385415,-1.6011571231742479,-8.075818116394078,-17.31602612631777,0.9131970344798279,-6.771643997390833,3.648109762842834,-2.3993431005726142,3.564134339233852,-18.552963710420368,0.30883059855947725,8.734435697225697,-0.047448413660740346,13.401563109390684,4.847669740210221,1.9755357644161624,12.175303728437427,-5.2333537414179165,3.8791544116730377,-4.212950297992178,9.470579636076277,-2.3644050900826517,-0.3364604104728068,-3.870289864585365,1.561876148540386,1.628434485849775,10.528432079578604,-1.1211964259166824,-0.09816790004935645,-3.5891074055187224,-5.799981688536237,-2.1892622300422944,5.455133013516378,-6.59236748368318,-2.7864909278016134,-18.77516364923159,-7.129168698534779,4.129979065171112,-7.610969075918455,3.1616617557735585,-1.0352211786856036,0.9100709481438012,10.397135820849137,-8.057690006920922,2.073007525678449,-2.2039476042072095,2.0789981783358393,-0.8234201205471733,4.48747611198253,-0.5664533837066612,-0.6358479054079518,-1.9095427684049455],[-4.244197254516922,-5.57218841816325,-0.562315555719276,2.546114988369829,-7.469240955072802,-5.870804763532566,0.6409516241429629,5.894888504527178,2.6325671814137923,0.36240370576483627,-4.405402596892649,8.075750952572639,5.800171667918836,-6.525921556953386,1.281524089282938,1.192183548156079,4.717413191213153,1.3529931443747794,-4.499629750269153,-12.702514126009158,-5.151025443102424,8.103851266335642,12.479050704488285,-5.220200065086142,-3.6489941014320824,1.214305098036163,9.044574574593963,-6.379188616688916,-0.9783705793402856,-2.944096753887742,1.7317027897412456,6.269078931856356,6.778709331723188,-1.4560833235385686,-1.3045433761717828,-8.394447893169025,-12.250073858112646,-5.1079570847606,1.7538599608692942,-0.41597035401394833,1.6404631256991378,18.6182245065803,10.864603911350986,-0.8335742377092996,-0.7073190629529794,5.411936240705946,2.2425944692264497,-0.8009815977456686,5.547112259466957,-0.4402196998748114,-6.047236461594984,-13.9833615481803,2.3810331304149654,-6.048261805792075,3.3637402687451625,-3.528431497775614,2.0494811058966595,-15.01096161033207,0.37274125708533834,9.231665489582669,-0.29553133602491183,9.592462513998354,0.2816303708020188,0.5001605576935766,13.430367873661924,-4.602696451293725,2.7133851237968445,-2.5381216110563396,10.068212923875807,-1.458194288384607,1.8051506931357486,-2.48759632845824,1.9439430466895138,1.4744399805392308,9.237431228484239,-1.6054067578976676,-1.1644968807325313,-0.8047499842923193,-3.193375432120061,-3.0233531560160407,6.7415685523345195,-4.017100841303772,-4.0598462836542035,-19.40288241349424,-7.372363687065278,4.444537269647737,-6.841595522177395,3.387940703823228,1.5084760643485657,0.5347584238558565,6.838070718604871,-9.095060346972124,1.2518922577349496,-2.541991022845374,1.95360235139523,0.27718649406556317,1.9968199778242983,-0.9357895550683675,-1.5071566297229628,-0.8873620366794684],[-6.479662649342809,-5.814703813950126,-1.8045401923211186,1.013303662161091,-7.777322409111967,-6.206391779453894,0.4828514204468494,1.602845699843167,2.342704982260263,-0.18614310919830837,-4.48478827633625,9.247354808063896,2.191492616375299,-2.7473053169674313,5.337853009251969,1.0355610769143604,4.147929664340319,0.496195504135533,-1.20230205543196,1.2621761654359651,-2.181463990546729,14.845955084029987,5.402696323837896,-5.2034797812769344,-4.178723542601001,2.0247864536931637,6.469475946816883,-4.011896435538835,-0.5511801707975157,-0.025016160657645576,0.05929515548882324,1.8686039129268288,8.085219623820592,-0.4643088564201131,3.0561499253928788,-3.587764961692188,-11.963805263406444,-1.9728861848031698,0.14599613834439304,0.12331044283514705,0.8271167821399252,9.426693610912059,14.393996559178904,-0.4844377223055794,-0.5474215313423346,5.504184699644031,3.604321849304062,2.6073929722139133,-0.21595760425938243,1.4286046245450328,-3.638384005802258,-5.634923930207656,2.812054572099144,-7.1582346576892535,1.6719495241913211,-8.312055121391591,3.1516683407904633,-7.151166607055448,-0.6743942567451957,8.549568216672904,-0.5877219838202367,4.9349001600604225,-7.394752119571253,0.26972157065542407,18.16246722298343,-0.8441427542237697,2.664383590385625,-1.634511427159903,8.53211744756311,0.01891887865811721,1.9368789603069199,-2.5779569074862123,1.936632836793747,-0.7750238452860818,9.023877010126917,-1.8970883201417246,-1.6455735556644862,2.2433752607923587,-2.0322522837560477,-2.697125979303838,10.903999074201046,0.7814743416103828,-8.401031955542546,-19.393540192326526,-4.348694468408648,2.825958991579863,-5.318883502701701,1.9341441534445485,5.601380576282159,0.47489275909690076,-0.7621285047713622,-8.800388315378756,0.517321051110418,-1.043073183026388,-1.22223234242383,1.8562046607167384,-5.692042685136253,-0.851975153340607,-2.0954678241043148,-0.7094104424327542],[-7.098218441689601,-5.612583541646345,-3.618294304137294,0.7750301834624458,-7.993834713970725,-6.128267539522238,0.05766924685965669,-0.7192038343212627,2.615558578738477,-1.1312432876989973,-5.560141819745134,7.96606739768125,1.8445131162518171,-2.343141514104316,7.2860396881578415,1.354498084763255,2.2093956587984307,0.6806798446180057,0.9213274148715355,6.968640765990174,-1.114825444084434,16.311181381964612,-0.4503965468616988,-2.502742741901255,-3.6059693146647005,2.6073490574753007,7.750127200811436,-1.7004476308359238,0.8350670043441626,1.3249417433481427,1.771052498095777,-1.5662288269404872,5.937615405520911,1.5728245554047193,4.335764443156668,-2.189647207726301,-10.812134539996464,-1.4839699494999894,2.0132888107840814,0.630518815345177,0.9939378018483314,4.196754474689037,12.780894564923098,-1.1811410859466787,0.6952503612799498,5.708501912868547,2.515131221391688,4.8975373081958224,-1.5518027681725608,2.3773736483720738,-2.3466543620790987,-1.348687058895297,2.3082732545720748,-6.016908859281436,2.53512281726503,-9.552810794322678,3.5727762535699137,-0.9051896110440373,0.2773579125697043,7.937032464998804,1.002957384178471,0.2626723412947392,-9.858568412585754,1.393756353856007,18.79514764053401,0.7739467172846173,0.8698748680478039,-0.05222564677358655,5.8170581272931425,-0.5486309077582088,2.420816572456449,-1.7847683895292576,0.9768156323266809,-0.9819616622816032,9.513581954362865,-2.3641729023441123,-2.0904658530366613,3.00577227934751,-1.2035225317663911,-3.0738768503034875,10.84880261455807,1.019147903593852,-9.138044144861183,-15.974085937127473,-3.8078084734182265,3.3891070883145775,-2.893189601311337,2.0420338811514696,7.886326204903811,-0.8958287681936352,-2.887739039634899,-7.309473553947352,0.5365067698559756,0.3636019856564951,-2.661736203889686,3.143448411925958,-6.459573920848726,-0.6546168775353949,-0.31901964641963937,-0.34273867768848376],[-8.995392593640833,-3.321619915705913,-4.1645056913208185,-1.4810030115542343,-6.012369272654626,-6.407136151381424,-0.6729563669700158,-2.102750024084444,1.969441071676407,-1.8169282653897256,-6.199554155061002,6.381035928582357,-0.6955002472798262,-0.9591216080142533,6.39984275930824,1.0898264652986431,1.3495797973110095,-0.06253481861298091,4.144332191608036,12.898757388433985,-0.031706099285781726,15.98703584013692,-2.250716613283802,-2.777502860726857,-2.2209192652671286,2.7344484979632164,5.1215384778522655,-1.2821543128256534,-0.40037883122273293,0.986526436169473,-0.01950351827348981,-4.406604902851786,5.667927540725982,2.0069557972991507,6.548091205747413,-1.511138837781157,-9.870778639834173,0.6959027675182031,1.4177280266171117,0.6005899520372173,0.5446692534416647,0.5882456756670507,11.496563825637805,0.870567211774639,1.009881356696986,5.581114468288575,4.403656449272176,5.915108631189168,-2.9301882914076485,2.866614432447462,-0.6527145769378354,1.9793636627377766,3.841825893844381,-4.468558078158123,0.24100334672427565,-9.12128952535756,1.5749376538284274,1.5231177415673554,1.1312007258155514,7.339977916680769,-0.8784363464520155,-2.093225299164074,-12.06414174957707,0.5902460671351496,17.649352810221096,1.2765611479245764,0.6439418736244693,-0.2946441315472101,4.53207450027301,1.4181548849377665,1.8507882112054517,-1.550957281336592,0.6306864405271427,-0.7827461505099252,6.70252423726529,-1.805078233925124,-2.112267668186474,3.5215425567395298,0.9192922886244245,-1.9932663032692628,8.784023904441296,2.5607121165461995,-9.26804795712783,-14.516108097654481,-1.8904979519921197,1.3178340650444098,-3.3646431185468146,0.8843104763490787,9.153339299552625,0.9656276193787118,-6.966411294987821,-4.694236385022751,-0.21797551418877056,-0.30735046410030925,-2.948391110348632,3.881444883027944,-7.368476939738219,-1.477479211170694,-1.2702334972040839,-0.16700447357148945],[-11.834075343664875,-2.712752355337691,-3.6148238733953053,-0.005037959258959039,-3.4339627826840933,-4.883210048543391,-0.6670320724673939,-0.8017963442616434,2.418522391264469,-1.51901455897638,-5.967225047542729,4.284330474969748,-2.340650003360628,0.19549561363886825,8.990849219389165,-0.5116160072402056,0.7559943913893766,0.06919363621700599,7.170530308700119,17.47507427135543,1.0561687428557285,16.634536920983933,-7.130098506634904,-0.6476332027113904,0.48764029329187236,1.6543241649979075,4.591097023217895,-3.6022010860891664,-1.0409522515489587,3.5776448377986125,1.2798160521286694,-6.750009781957224,5.317232504194938,0.5643108691012182,8.555274444760009,-1.695590301239483,-6.750178411931935,6.159362608278603,-0.45844800679851205,-0.13759502987869787,-0.4877247989422861,-2.1517085250389028,10.37560755762603,0.9505075242209486,-0.38692557608321054,6.021112792818814,4.087627363192401,4.823730532496428,-5.262521187458816,2.411529168463799,1.4652634000307139,7.454649416978235,6.082201714343327,-3.687178122423087,0.1612160906914193,-10.804820715256072,2.237312046201942,4.793624285321194,-0.19476482629578168,5.97876803302923,0.7786251371139125,-3.0870299873820257,-16.420155113033815,0.06658811983461281,13.011395429498116,1.9687861788769545,-1.087827512081937,0.0414229272270102,5.124569702757958,2.4265773118386766,1.5203228947515208,-0.8557236979371314,1.2263865866901265,-0.7745804193124685,4.7301709345703244,-1.8885903544401872,-1.601538161605826,1.9837448900967913,4.745530451646519,-3.199747945856216,4.528043306701873,6.370911064187532,-9.224763075394813,-10.003828974484913,0.17232009685327138,-0.11444081952549404,-3.331977228443175,1.102849408350342,9.46461174942464,0.6180023149371519,-9.232354375543089,-2.288433243763157,-1.7727306520595079,0.5658730275366315,-3.137832901814186,3.2428264404110108,-8.896040366409357,-0.2358072329358869,-1.4146854508523297,-1.1314396523171477],[-9.397121255002727,-4.057553613323659,-5.049806672568438,-1.46062672976429,-8.511218631895344,-8.276947579725915,-0.6452296946803803,0.3437919406956225,4.304222850242854,-0.9194480709949433,-10.175526597991373,8.853501583011553,0.8861459932890724,-4.007870718596505,16.526864824419967,0.21565451933089252,4.003049799411035,-0.276241234492279,-3.22537056423397,17.56840971612963,-2.0512540589239863,21.815173400306257,-3.6077601624704703,-3.736695185068884,-3.1951695445233046,2.9309676539998484,11.248574426322236,-3.5351009162840104,-1.1741862248707544,0.1985495503679217,0.8496020699539999,-4.064631818949172,8.414615875494384,1.796729653942926,4.7462524369022026,0.36179114815896946,-11.81823147222301,9.044326417150263,2.6322807440723643,-0.7734555674009778,-0.883105749335921,-3.5545344617001167,17.68788913606615,1.8550754903453623,0.8905017414392816,10.783471163805475,6.201356928633743,6.9127513282040285,-6.983258680069626,2.204423526256442,-2.460230455224612,1.9289685160911547,8.512100983061252,-6.82926370698121,-2.0659838563327386,-13.398768556019625,2.9547166699081155,0.4768232274398817,-0.947075118629697,8.122942286505168,-0.49911850493535037,-2.321642395748842,-19.997879828754222,-2.5164869628621274,19.939158034345123,2.221468346266784,0.8261436221791096,0.550960570759613,8.661992439534794,2.88541027750765,3.1966609676345388,-0.6502128575727956,1.1856835684633975,-2.225765652983363,6.338437298005747,-1.3087386233173592,-7.6575485067753775,1.0735554684572133,4.995284088372025,-4.130507074995265,13.450014589948218,4.9756670977919075,-14.513320495200844,-19.791484749024704,-1.1607134999548572,7.120009387303655,-5.294313705324127,0.6960550466996626,11.231384325429678,0.6795955189448564,-7.506976863611135,-8.387458431407381,-4.026604612846358,0.3984564272117292,-5.045686794629685,5.669375431267236,-11.15718451849549,-2.305542013144148,-0.7560789074616023,-0.9675404922095041],[-9.103635855539647,-4.220922662555639,-4.345098225074651,-0.7741277956533869,-9.424225682807696,-9.212033458090442,-0.6293006177606218,-0.22120651135567473,4.120783654933924,-0.792606387279605,-11.636724473694418,10.487049544168581,1.1961166312732745,-4.995416168262005,14.713458348744972,0.13676885545878442,5.773801355373873,-0.5758419977634659,-6.122430232269501,11.447661510252212,-4.72261026875458,21.408648374636144,0.8518609852024822,-5.079412505961051,-4.641273266695168,4.320440131272727,11.965068477100077,-1.938182501950715,0.23892071336649262,0.9742724315437062,1.045533384051941,-1.8578460231072151,8.64554553155631,1.1521109158996712,4.17448413235544,-2.472391816206389,-10.387133723533607,4.955890116994514,4.406011126856171,0.08585239727571069,-0.5479546505671655,-0.03232362537073845,17.745619088256888,1.6117952575404413,-0.0937229665491026,12.091320880981385,4.208552392846073,7.217798252756981,-4.318419937080863,3.5052141177856653,-3.23044897191233,-2.634350277828432,6.943882092600694,-8.8111803980614,-1.239108451499121,-13.74216224953119,3.4216679742478684,-2.868711232450367,-1.2311923934747082,9.36191074805774,0.9421908786804409,-1.9097674228057053,-16.615325714310217,-2.3502751426549153,21.50681454782121,2.072859096599269,2.2308634227216486,-0.09701791230097556,9.580509864164977,0.823783064753865,1.3224628961633997,0.673282608728182,0.776213967328065,-3.170323056315868,8.566950124184297,-2.513209965725797,-7.041209749376773,2.67950857352771,3.5338461542261768,-3.1821973894717432,16.589461111142008,2.353732835060508,-15.466124202781169,-21.84426383878926,-2.9167442120187155,8.331949340313233,-5.463645432663407,0.7799097245582999,10.738330946380628,-0.44916826256283493,-4.664712288280596,-11.444969408425733,-2.403195681196143,-0.2951536346841284,-4.084724585999228,4.2128182658738424,-12.140809606068855,-1.5998292147077948,0.6558224239412593,0.31361586172568534],[-8.755425318909992,-5.793977260429501,-3.9182761723563653,-0.6924291883438713,-9.16059221539811,-8.96588999267444,-0.500580145097639,2.510418025091068,3.1670169522261107,-1.7203383956258984,-10.549371713487956,10.418647429544482,4.596555865071153,-6.916779004336475,13.92723545141376,1.6674279163488386,5.4687042125191505,-1.0310359832346223,-10.3965313687429,5.607049926566439,-4.368273341844615,19.682883310251356,3.5340733644947453,-5.973512269740283,-6.777581163866449,3.5804471476252977,13.802746113373054,-3.7621354993705443,0.37042691487154833,-1.1413377653479035,1.1665352418247885,0.8981441886884514,7.899098207322813,0.6068012761374457,1.524863915352305,-2.945609953476899,-10.514524916126355,3.0217714793910346,3.5836948026645943,-0.9854011688686165,0.15294853325149918,2.992687765626463,16.906120492267384,1.1536493321675927,0.9283702068999438,13.391123845356711,4.456097215253022,4.720946050381629,-1.9261839332182153,0.8674339214541456,-4.878045796989159,-5.731202862802499,7.634822917733749,-8.231039547866546,-1.2369116060910013,-13.356021791386802,4.171902929007256,-8.514470145661631,-1.001566816357186,9.320659032682302,-0.7613610894476512,1.739903573450602,-15.691104081456638,-2.5849853199354667,22.894400831900928,0.018608790213977544,2.876854753627036,-1.3923883874281664,10.845332995408194,0.6449283990205359,1.5291598408339908,-0.786286214698366,1.2238648565414494,-3.2281413878242526,10.472310498317334,-1.9422537284096586,-8.499260112999076,0.06425825018520628,1.4518161827103564,-3.52401876048478,15.824007771537431,0.3031681626068887,-15.15922271228913,-23.866507236554995,-2.4212339202897626,11.241654521458289,-6.249978456081615,2.0954750039865866,8.892555539621926,0.13101327959194597,-2.1103954401169065,-11.512019834670673,-2.7082726358013085,-0.40296087166122824,-2.8714608411145766,4.848274551575874,-9.648510437333217,-0.5859197137346722,-0.6162079610647576,-1.2791706717522657],[-9.005468862685797,-4.5691365607270855,-2.6070727981361874,0.7627703990603498,-9.807957278002112,-7.40643876876152,-0.9748057604109422,5.2719543719298,3.1851167622785397,-1.0615242803386198,-9.975828007512044,10.192365078236008,4.688948062783058,-9.14821552654233,14.560890140918913,1.2168415813355669,7.074418638067073,0.13152763058398242,-10.04823301376768,-2.77177795883815,-6.71952197099238,16.898829770744786,7.567915352987293,-6.509376917306484,-5.666334329557365,1.038085876922667,14.573417470029257,-5.76735388493379,-0.23019484096217183,-2.6132750011836863,1.190414142577344,3.275802683007073,8.447424575672354,-0.6263685700803925,-0.6092676589182997,-7.1186348408497,-9.281086074955178,3.76409718015242,4.117583515321791,-0.3283174647615472,0.16286382024347157,8.535937997937944,17.147329154307798,1.9766280324776075,1.0967680255185432,13.117042262964121,4.058606589739486,2.3312317299280685,-0.9362309204333019,1.444427317087418,-5.153386573440757,-8.522556942669738,6.898009982833065,-8.476159716196786,-1.7953918712957029,-11.531612201346762,4.265517383185373,-12.708197266627703,-2.607905527242169,10.065227136161136,-0.12552202459499956,6.499693047331898,-11.935984025125148,-2.9146402215325566,17.895128759225873,-2.5691465644119442,2.6568197696320084,-2.318607296070033,12.548025918962077,1.9193844565660267,1.8600629270452127,-0.2697191949380506,1.5800360707982912,-2.057976754478428,10.005736461866542,-1.6024489346056798,-8.863683077980408,-1.0071168374563952,2.619293472676096,-3.980394625682136,14.411364049936086,-1.7291988263160416,-12.455689792389474,-23.603161551730807,-2.9780441110864206,11.94849396760449,-9.801995922839223,3.3121235865058973,6.525099481674338,-0.2831442262311825,0.5155769562805503,-10.691628565754291,-3.0647036186302468,-2.105611648611839,-2.216566039182205,4.653228357485496,-5.340218271046952,-1.1530645214259985,0.15880772166218018,-0.4397359775892015],[-7.156178222945034,-3.2846748014457634,-0.9907511897427137,1.4664500508957847,-7.640496482080201,-7.100806633066284,0.11123417513532148,10.109271115761937,1.1262359050172743,0.18328808487100062,-8.735777423086832,6.834668126012364,5.873810819695108,-11.947856594146376,12.089267387181996,1.7268014385360153,7.3524887048627665,-0.5499654978493471,-13.269184412832313,-12.939808428697312,-8.096564109926437,11.59197358155187,13.121904907494653,-5.944475044175999,-4.089537830755595,0.3251027868537379,15.682969329488806,-9.25522794658019,-1.1614185753627035,-3.919320421932072,0.4201183133998428,5.982148405282734,4.962320703188428,-1.6847559558883525,-1.8755685351848226,-8.753026464651558,-6.746321882987368,3.1128816361049623,4.6055900005783075,0.14076713315839467,1.130138458605733,15.982357555567885,10.578261202489635,1.9283934632433657,-0.7601943500975207,14.42232138860509,3.4909058306048832,-0.998364578705088,2.5202814573510306,-0.7331536025824681,-6.872469866237845,-12.317829538383469,7.062996010929808,-6.399460078257608,-0.6521420226744072,-6.897466597165018,2.862037984487882,-18.848112027220655,-2.654897798923186,7.551023675382234,0.6363593296631649,11.233571722803745,-6.7385782236623655,-3.15383678351374,10.031688637191504,-5.883160805907327,4.256427755496642,-1.283215936517635,14.877155778459532,1.3431273074433678,1.0014830605911016,-1.2811713104686286,0.11414451704382622,-0.7297656334843715,6.768742197140097,-0.721317278400555,-7.2413335680941335,-4.296237473511277,2.053980920460821,-4.102347934383257,9.888385185636274,-4.5141457109671075,-10.798607254371056,-19.82506596629284,-4.16193546622756,11.294426778486224,-9.296540032388656,3.5746433936339344,3.1717640797438844,0.47955168131620307,4.554522195244799,-8.982062348544439,-3.592636478702753,-2.080741130209067,-0.39764529575029517,2.864579376343258,0.9066602141564204,-0.597112809131217,0.554207040309851,-0.7511231165703761],[-7.444781854435619,-2.2586495503819792,-0.04222028119162999,3.026384416842475,-4.695028795211584,-4.444290980142599,0.38262033481687985,11.303410044852315,2.0753037096041815,1.5626414780918745,-6.82969656972728,4.650207714319316,7.4954241908810335,-12.36263189268927,8.557059880371684,0.8164797209823081,6.5863144028629375,-0.4096989711109259,-11.365643202617804,-16.05090852507264,-6.821702744834216,7.385117472043306,13.767445342260654,-5.3113635608335406,-3.3837672016024367,0.33763677582505497,14.65962701627827,-8.771021201149036,-0.5902394409744127,-4.237008366881073,0.46996161098139766,5.902248055382016,4.921264310440616,-3.3274966569042985,-4.621015803266483,-9.0022923979082,-3.918717093642506,5.423690487854814,3.0676225709702454,-0.516041441467919,-0.22883651385309145,16.380057808253422,8.481075464684356,1.2666188683236217,0.846881289020225,12.531991552483184,1.4039302991527034,-4.281530994595854,4.38685045866629,-2.4564794816687545,-4.960857076313317,-12.832978446671346,7.155716849936892,-4.917044181231412,-1.3581556361530946,-3.0882679370535597,1.9761517583222679,-20.080277341197146,-3.311446348243694,6.966159605647207,-0.45100523202086146,12.607937334384072,-2.3441611650751963,-3.569553799964112,5.766576466450709,-5.767662545653191,3.1611287733989606,-2.3324530069058556,15.294655295587711,2.5862343828134247,0.6006584825861453,-0.9850671130879136,-0.36404298749223546,-1.2956907303638434,3.652774689276887,-0.1687394476644761,-7.354170774043427,-6.811150484630291,2.299409384485014,-3.85304973556938,5.9942334975891765,-3.990368697260355,-7.734013004075304,-16.370918098971913,-2.780105737395367,11.701527017928926,-10.341271110407396,2.906238907736791,-0.2205209438953672,-0.905440177795283,5.724938368314001,-7.905264610539147,-2.63784492673034,-3.1782506554076044,1.1109405320433714,1.983706654227432,3.0687320562165725,-1.0656994408623663,1.0625443719359744,-1.5997809241605663],[-6.893889353384784,0.364362836270546,1.639920408995534,3.794075404240219,-3.2994747973454968,-2.544851395933663,0.4152882374035666,11.408935452175042,-0.2760553711698954,0.962077559741474,-5.37194303703699,3.593255673837604,5.49778347684887,-12.496217155934003,6.043538134850636,2.3049579305199948,5.966935121800168,-0.40649491343139743,-8.596010045112152,-19.873058649036814,-7.416864795149322,2.551190016946768,14.435283418380108,-5.1674846633754346,-3.0777327462147617,-0.9603771543823904,12.190859155160169,-10.113236668133,-1.1482587348978324,-5.151244026685758,1.2527124220403514,6.388776809705556,4.224832175253682,-2.7976620256513045,-6.3237465838592355,-10.246339116020826,-2.1269178500838293,5.266723403541996,1.4256535403467558,-1.1042228352996968,0.6908298784887261,17.490944073206517,4.60279137080823,1.8366247872125367,-0.19659455534398865,11.610304204819535,2.258844380228968,-4.868225605276562,5.234545979687704,-3.228343409993723,-5.010879715307464,-13.53113026899512,6.607655493527478,-4.507572846081509,-1.5782452399812443,-0.618130222778931,1.2890173838348296,-19.614642494735484,-4.871851852840403,5.8587509073835315,1.33707140165311,13.444247765500327,-0.6641517333947639,-3.159791481393632,-0.16844487506061967,-6.925988337451158,1.5026891757881997,-0.8687932828612901,14.849162870510169,0.9516120939012334,-0.5267878161362831,0.041752928115433734,-0.7073847333397533,-1.1275745181309969,2.008084325341827,1.4132783954017314,-5.9808760559947975,-7.626977186168896,2.680088406031514,-3.363345531903277,2.367624020743934,-3.8972246722823134,-3.887848544249959,-12.102782335515503,-2.379733791512593,10.343924722378473,-9.352722621899705,2.245420122580339,-2.3795964316220433,-0.5516382524517918,6.490056608461386,-4.722239143678855,-2.7930739729300957,-1.4303965048677567,1.4586248946739813,0.5644410057662835,5.324932178548536,-0.7546139362804815,0.9511331860160651,-0.6078491341221577],[-5.7264676964706736,-1.0370957482682064,1.7506809983922758,3.130222331282195,-0.3426085320861146,-0.947332242203671,-0.40718831910911196,10.553950218001182,-0.1415546597560619,0.8079370419368636,-2.2350095412366637,0.3103012713035658,6.511635281550823,-10.565598250963285,1.5313635410612922,0.47920986437691254,3.8664616760320585,1.1310835461023148,-6.116325329256793,-21.4224084641002,-5.994777710099992,-0.5337591486563618,15.278360196333862,-3.5353401774346738,-0.5550903178619883,-1.6075876747779856,9.317857912855835,-9.212171074859684,-0.2531805380580023,-5.175620718605263,0.9385021643793866,7.736652620864413,1.8731661189198636,-3.2335622149743917,-5.359574127915515,-9.782390899946716,-0.8948260100252283,1.9220885186924435,-0.28519158094807223,-0.9261662385538032,1.5809139326462007,20.190602183947814,1.2950199968545149,0.5773807364009754,0.2139511049416113,6.050256060517074,-0.03375061966411103,-6.720739216943174,5.790636320792135,-2.3813728993388796,-3.9514842373310417,-12.703628482023749,4.6680585201259,-2.833939956940398,-1.816631100697389,3.5014195468204004,1.6704516416752202,-19.435536757277504,-4.713005841305,4.869433440264699,-0.3419457294990075,13.953967443592507,3.8351492146861346,-0.7989145825941946,-3.558310969147646,-8.199643924168543,0.8607618663683382,-2.0867003604158647,11.8414683383809,0.6056774504385126,-1.2324294785395442,-0.9561735508916133,-0.5817880147782567,1.5144601100280028,-0.3174582993024461,0.2681809994918635,-2.3326561691880596,-7.199203796593283,0.7046356493232173,-2.3594461217496105,0.27678639149557904,-4.3419947825801355,-0.5871051560770308,-7.230865849223016,-3.2602852322473628,6.645551953790179,-7.209283103977678,2.469863534648724,-3.492491942579931,-0.8395172666356366,8.70829175316949,-2.60227332475257,-2.748164431760074,-2.1606785842622247,3.175474073703737,-0.5689380195702903,8.614740900533404,-0.5155278971052882,-0.06837311596207139,-1.438364687322748],[-2.724521089489527,-0.03178245829016746,1.0957818191868824,2.0560480203235953,-0.7883400934153065,0.025791380151067106,-0.17102792957832375,8.395692964986878,-0.9381190762092793,1.254637072077636,-0.12382984532369902,0.08374501514537357,4.132910436522797,-6.636133324385388,-3.399245180391436,0.9454071418852523,3.4414513796436887,1.0928755556094765,-1.3028564446270339,-22.557615032895743,-5.290161055422696,-5.062661773681856,16.39110086593138,-2.2621920343171182,-1.1345380862078163,-2.0092834332591485,7.5616881211958535,-8.073666668750473,0.03427201715534646,-4.203774438309899,0.5899359149764807,7.361151400785518,3.088959202575412,-1.995392734666418,-6.276964042709717,-6.489475859339859,-4.766092060260078,-0.8128815379711053,-2.069627741069831,0.6326249306168779,1.8116001052314399,20.55413915417325,-1.2101427364863053,-0.7674414358053526,-0.9596724097195863,2.466061173703378,-1.42308304948792,-6.772149971109442,5.704983726397101,-3.1493300328739333,-3.538653303076348,-12.638699261606373,2.9926766199208092,-0.12882095653644757,0.042597248122592454,4.97533741863822,0.8834050518458535,-16.345330960640815,-3.778461090832008,5.256360718715603,0.42000056443332423,15.005737694243225,6.382834647962785,0.7210916148805336,-4.980209925478618,-6.112558929692567,1.2577428450251869,-1.8878131455439133,12.486036827996795,-0.7666653757434514,-0.5278197297011314,-1.4494665709781347,-0.6943621380865759,2.868174068169693,-2.062493536227653,0.24867487041498484,-0.628013345730091,-6.629605530027434,-0.4696709128020132,-2.109791368149435,-2.302311651085367,-5.1675153320429335,2.275861966837569,-4.846723211960928,-4.834306304181606,2.4681440570373936,-6.226643152222737,2.609213836668243,-4.8824583292963855,0.17278853705898067,9.958301768648678,-3.3836547166608866,-0.5438445553077244,-0.9157109809901954,4.303189385183785,-1.3605975388222635,10.786886627460037,0.03202595442100822,-0.6928046531328522,-0.3340943006090772],[-1.5391443868254435,-0.9315343127942165,2.650634809420022,1.9172630756769309,1.8388507047102178,1.3787895392853264,0.7566265491024704,8.024584577386964,-2.681361672634887,1.819717732119874,4.113982232012126,0.44095675541773477,4.963733684567705,-3.65280008786844,-5.506653931464481,0.4526931873416187,2.130597488874437,1.1900561369228906,2.564245951553119,-25.192108538957026,-3.942241479573978,-6.652176753967735,16.39948100360221,-2.2889813348412473,0.7151265226183855,-2.514886466485883,4.557368642131735,-5.432820361080168,0.06688024763298953,-4.1719634897102065,0.9030373998080207,8.293024737481181,3.0179252714625835,-1.8989629122688654,-6.91400995222878,-2.378521252141705,-6.634023991614821,-2.5379513780466123,-2.731109390473894,-1.0631168895624914,2.8048825120469347,21.857399292291625,-4.412667406304572,-0.9133950079071484,-0.4781610744333035,-1.7639527067471352,-3.6648200013344403,-8.067839041275544,7.3275295581446,-2.308035103126973,-2.7005496457926026,-10.716323348442831,2.4964924602655767,1.1202751424612045,1.03959257498706,7.359054687640288,0.3465052615639155,-15.323065979657134,-3.3578170481788416,4.248799738753945,-0.605009258781104,14.757201507282186,10.781022057241737,0.7483723677734107,-8.372053117131369,-5.95591158781737,0.6233503815786443,-1.2350461399142625,11.662593467318008,-1.0881713568071938,-0.7707339937828176,-2.3320879867475397,-0.805444870367562,2.0924713638551005,-2.656696739970446,2.4766806182336802,2.5899909172968107,-4.670752650589708,-1.11707236895124,-0.5471824288319141,-3.8365554275145612,-3.3518461169834333,6.3475495160192,-4.23432058383485,-5.069902243461915,-1.0555524813741965,-4.561820502822586,1.347392524378778,-4.82148841044729,0.9611769485307302,9.129973154451323,-1.3399537963931023,0.41004228664543113,-0.7841228855048155,3.9997859147619343,-3.0398975934245795,10.425696094532514,0.12045410854918935,-1.2662117567641744,-1.054118345333842],[-1.4149892269313677,-2.2415378526362684,2.217180934953385,2.5968523717247964,0.5617460793324036,1.8957323239503743,-0.2339239765531163,6.757354093297921,-1.6449643590590979,1.2689856525429943,3.823224639559531,-1.3596615241715502,3.2022849953253116,-1.909301216563286,-7.7265687562915435,0.17627403322213647,2.0706013892817707,1.7429092026332065,5.641762754375962,-22.826861677345494,-2.429143799351313,-7.867062857989587,15.4127940209216,-2.0251114419160934,1.1785606138983862,-3.48854860397917,2.228205715957207,-6.3489046257153925,-0.1292439027651158,-3.397575417258127,0.23687186128378246,7.638848468210347,1.8082854261170846,-0.6991162052745349,-5.678326477248837,-4.260194227854217,-6.8783157246078686,-3.117362762671679,-3.8309260730603145,0.19788428449101012,1.4986276107972656,22.095430282039448,-3.9062013083570797,-1.7773341547927377,-0.5391324813450094,-1.976334313695155,-3.3165972254986844,-8.852826664955472,7.613892870739504,-1.7338615689634151,-3.5413057288050465,-8.807155819932557,2.177820951626066,0.29047757818697834,1.8804353576356074,7.008705550374734,-0.08884668288448928,-14.18367866940298,-2.708606570527007,3.6432258007114733,-1.1970514100685221,14.650009901817134,9.707628749801986,2.464780822368417,-7.9195282506299005,-5.819614634464868,0.7002787814031203,-1.2715560457393422,11.357449127335796,-1.046968117619515,-1.317185759946148,-3.290176901702894,0.0580617030579975,4.044459203752231,-2.6146152847769613,1.7466371381519024,4.101168003007153,-3.953609637236194,-4.013091400334192,0.03528573391133537,-5.844484866249927,-3.099776314246644,5.991264875558225,-2.599709025509997,-4.551002699427687,-3.5943520946193477,-5.754970743487362,1.655355095695667,-4.334590744298473,0.6071972965065141,8.758828607993738,-1.3951976811050102,-0.3742390844497079,-1.820615176819526,5.697857128291206,-2.9163205370000997,10.784510978962668,-0.14457610183526762,-0.2889743245748521,-1.8972218767189455],[-2.70690256439803,-1.0629396868352883,2.6357014771590017,2.567008859781798,-0.3569460674885104,0.6070115712621809,0.2216828291488304,7.752281912206784,-1.1768538530164774,1.1528503617670156,3.7503030004682425,0.6004284923602303,3.322598360549849,-3.4338703026171107,-8.03148725631407,0.46905779039963963,0.8811896635967071,0.985068078341445,3.7717490627545938,-21.73329399910197,-3.131134970873804,-6.119056498041917,15.032686004543002,-2.4155851058282125,1.2876979785900267,-2.3514586455138753,2.821559087616755,-6.993705900531624,-0.1767019304715467,-4.380633887047879,0.42440379846138243,7.989457017775409,2.4746497112365455,-1.9725811446680452,-5.632102082330085,-4.856206817792415,-5.410550715232749,-3.4959960953968223,-2.610127297327386,0.45585227326262995,2.1284665970165344,24.18602597150916,-3.8694702495957998,-1.4282617928847587,-0.2921343250257748,-2.2273719145687285,-2.7510106766378555,-7.847655302769532,7.548794282338601,-2.711884812796398,-3.8616579206799413,-10.369640895890164,1.8660123891299083,0.7376491058807414,0.6453964492758811,6.0662614795658465,-0.04932964919009001,-15.03891425874319,-2.7992390397989118,4.481081128398808,0.7317692124593682,14.183622375282315,9.582064782024961,2.3100928064704846,-5.250494930906027,-6.863592930409436,0.8186794893741652,-1.7975088304422366,11.16333191274175,-1.7261368479756438,-1.5182955162595697,-2.483080514380922,0.40142544876622,2.9734155183107456,-1.033872517321427,1.1728210712646403,2.4464243674816006,-4.236313398281139,-3.5603738720658393,0.17957698934331778,-3.726965260904538,-5.089672489278434,5.730144878395202,-4.6211014858607555,-5.5797482544842145,-3.1013026258336223,-4.820512141811387,2.4858924260531485,-4.74752810892292,-0.7541446456678732,9.390811042838228,-0.7468860823883317,-0.4241521481991247,-1.4562320692524098,5.4506790503199625,-2.410740567459975,9.961992991816729,1.1920529495028842,0.1559463635890858,-1.0233866536270633],[-4.783948098937803,-1.1073332975452785,2.260111802253407,2.278439238668471,-1.000256047772474,-1.8768132739240535,0.7778717917642147,7.459760596042259,-0.02839195040446747,1.3875895589679446,1.6938671373572534,2.074711596813397,4.756868704944295,-5.001308218572066,-5.465701100851097,1.2108245998852099,2.475095749359217,1.1941836380320796,1.2718023809019852,-23.028635135179172,-4.2283031668542845,-4.280338291168697,14.978878054136628,-3.6552249225571587,-0.12029128394610833,-1.953850720364872,4.053864865194813,-7.146275329444593,-0.6915300730629649,-4.055906696940302,0.8290794334729782,7.476227927400726,2.446387608562642,-1.4093691660564034,-4.046244145877754,-9.54786162681962,-4.77273834027604,-4.9739953331528985,-1.271001084695701,-0.2888141813286663,0.3624649560116725,24.059359251268862,-0.12121029508724099,-1.8217879280905762,0.46419219224317493,0.6553828548264992,-1.6989854473911854,-6.75314005874637,8.211542799849783,-1.9641430097533188,-4.040237628113768,-13.532414190736667,1.4823179247595997,-2.0407708331093604,2.8052255814203364,4.888066001688819,0.8021595111087308,-15.575587058309669,-1.8633962051512802,3.6400297608272276,-0.22554663970791325,11.904126915584545,8.17856338623909,1.2943677067549189,-1.6124368166804042,-6.241893176460218,1.6361208977087265,-2.755935222535918,7.662205598258586,-0.30178135992837846,-0.5093489192648256,-4.428954355278007,0.06690876199210848,3.6713451965697743,1.2457496900437568,0.9866423976256694,1.689412994472486,-4.567069413099934,-4.713062995392159,-2.398178656889593,-4.607496799178991,-4.602718006843157,2.4149657520742966,-7.8564652008805345,-6.507192181819236,-1.8339964306205485,-6.181555359189967,2.4180801067184245,-4.793741043905395,0.2852564196708733,9.319149815466364,-2.6267704405713292,0.2124679268680185,-2.576939211069159,4.887648735473988,-1.7124776284293697,10.291254941852376,-0.6627907976151972,-0.9310409070972253,-0.19843292044512756],[-4.753404759881739,-2.5665310790452707,1.6007440498148875,2.093448047414306,-4.352988806690146,-3.2011425160237144,-0.4618451199893314,9.142618663248681,-0.6545063753000977,1.79032578607168,0.24020925808109866,4.037112570652349,5.303383850404849,-7.286864403639392,-3.6690926780535635,1.6725992713150626,3.5382863742347306,0.17783217006400176,-3.5999719185771446,-21.705670138387184,-3.9671762270464397,-1.015366643981461,13.705328911110707,-4.751705846255125,-1.5394914889513096,-2.232009744226606,7.0968982604516,-8.120967375582552,0.4224194509070629,-3.332139050183689,1.3415297716858043,8.034425197242259,2.556555432701672,-1.5668533063109638,-1.790556577128876,-11.176448936560208,-4.607424256838945,-5.560098847372304,-0.2618376382426708,-0.2608633712525571,1.3628574726698364,24.380580470076083,2.787158037930225,-1.1573978539919203,-0.6090068292423082,3.9461884812584165,1.0657963954885676,-4.856809292894026,7.875444316019679,-1.4272567808794137,-6.004667546137724,-15.535009057470454,1.178603399912655,-3.5195582034765334,3.649094900164086,2.0575021035126175,2.794956012548995,-16.994390512242106,-1.9578123108636067,3.2800980845357666,0.3951022454333153,13.019599203577231,6.208828214592161,1.3703259597832964,5.015521385202173,-6.961000147981958,3.306697835636906,-2.323756650290287,8.023516224564888,-0.5796511705374291,-1.0560512235938682,-4.179680864981124,1.5243748776377026,3.055950500003884,4.634699306785138,0.06418263858461379,0.4650378413786758,-4.207821985669753,-5.531021845490356,-3.222710513291352,-1.640862426362588,-6.852104107363655,0.21338101955615013,-10.432179806815366,-5.425859336636494,1.2650546929070718,-6.152039720164442,1.9479257286786147,-3.234827933379829,-0.27381412358785634,8.493607257844364,-4.388988054757278,1.439077894691298,-1.6145630292172646,4.111530327874723,-1.0312501491367694,9.448481465914742,0.8172219319122634,0.31393830624888097,-1.4710192170288903],[-5.538475318872727,-3.5737599207386084,0.5663915505995621,1.8534375381671195,-5.675042590648359,-3.64855089806678,0.5386575958833194,6.108933452824393,0.4265907835123607,1.8553143749735896,-1.9743205484804771,5.094761388989778,5.805622545372623,-6.429843120440648,-2.422650238637951,0.050023784406560766,5.205949097698136,1.4413798929163515,-4.281812588974155,-16.241664231021723,-3.928094066353543,4.149360847559221,11.786637122221192,-5.215302772168203,-1.858005200056303,-0.09267564096035925,6.877708188125299,-5.761551797211919,0.5944004518640736,-3.1498136504024252,0.46473107232565447,6.280137640202355,3.5262182471125962,-2.395434013997269,-1.401846776839944,-9.622007924603562,-6.017450955909206,-5.586716086427128,1.0759953220954046,1.0498830364622649,0.9658523034034039,20.642760174257315,5.768192850633332,-0.8032424731901996,0.8240052998207684,4.7676226687712315,0.7714618289698344,-2.181821157985693,5.232107497941865,-1.2477158167949698,-5.558182930922704,-14.414174125744204,2.6423301814484708,-4.523099440639079,2.9204595995797398,-1.5146171795988117,2.296886459611231,-14.925612531188383,-1.5511158027259893,6.685280699758946,-0.5666269617857312,9.749488775579783,4.926385134039076,-0.05103576705647884,8.832275127529025,-4.808053489298182,3.570139368576805,-3.277720091662108,7.091811762580396,0.22228373273802135,-1.0500812904084267,-2.491066301094368,0.6963690348603165,0.9868559976746999,7.34473274191654,-0.4158777559261774,0.7382204302340457,-2.0516619294151126,-4.903975222319839,-1.2644836191958058,2.0280460908956393,-4.432603961028397,-0.7968601619576194,-12.854167998806561,-7.015986207510246,1.867338199594066,-5.7893809863557335,1.8017402924567274,-0.6495519606850537,-0.5248742080144884,7.08700696639611,-5.578768639636581,0.11741714518034237,-2.2710326207864764,3.342904234380913,0.08311382762845762,3.694481740336768,-0.06672012186528024,0.1957876072135198,-0.10154983636106532],[-6.323102259093818,-4.687783049621012,-0.7492338483910184,2.70108528223815,-5.91513084443275,-3.8779013480813,0.07652701119367478,5.671144435922981,0.49796609536714476,-0.07536184498403825,-2.6451529832708363,5.704889587129934,5.161274386458277,-5.955675560832583,0.9132248378232046,1.2593545414237923,5.081004984113599,0.11035382397803757,-2.8846485075022548,-12.61597001871893,-5.0511120870616315,5.708727314427639,9.85890093583095,-4.552187859360101,-2.6813486643021807,0.43363946575088536,7.129258078731241,-5.6925098664502825,-0.8567380789118008,-2.2538956913114605,1.33533839029661,5.208596340427496,3.9824894979366956,-0.9585436891666367,-0.9424611828911515,-7.406137580410882,-9.011687305812016,-4.397468208136724,1.414028087846561,0.16783657340508434,0.1835188704584251,17.5899567004775,8.061677009488468,-0.9832827267201764,0.5141162531081777,5.111795788840136,1.5078795157883278,-1.73389808418227,4.672792973792075,0.05914212993251603,-5.042511002209833,-11.43735472544652,2.4406084929224896,-6.365611384620616,2.6308135445089387,-1.6004409285768404,1.8688381609871503,-12.831196069149795,-0.7397136177484714,7.909575057171654,0.9971346718993791,8.971540522618804,1.4158866598877662,0.7515747208770684,11.517628951183898,-4.135082945889236,2.5593395799015295,-2.3156262681672293,7.202680956827858,-1.2413210239844723,0.41905497781951107,-2.3688480206102733,0.848779352451979,1.828466129222887,7.577313472051075,-1.7806659628066104,-1.172927464999086,-1.6911720382199205,-5.23919294244854,-2.3229574522823104,3.882373380962236,-4.552924009112777,-3.498171029587793,-16.19596741488488,-5.0448144748851345,1.5984724829499448,-5.449094915344279,2.732476824790941,0.02262476568268269,0.3767425130565,5.017954566485989,-6.101135477303304,-0.3980393637397591,-2.1633756177000865,1.2680455073015846,1.0931197415025353,2.1887896009672945,-0.25947767638344627,-1.1483631550544355,-0.9052747207236059],[-4.6925785595946765,-5.5690584321646925,-2.5956497311305267,0.18285333182013097,-6.98623877919102,-6.32927950920469,-0.34565151609852485,0.8696803888687291,2.7529148819196863,0.38993988310786337,-3.2196911782987083,7.317541678988392,2.4664175036827376,-2.5595116457014107,3.2047997488995814,-0.2534636119760375,4.441638575069638,-0.04090843357862006,-1.5106274885921607,-2.2997452418373263,-3.493047453580376,11.970532080657067,6.151761661255682,-3.7909785648669057,-3.5264844267946813,2.019795655770564,5.899335054894667,-2.8317873798326625,0.47821337814600073,-1.794581333135272,0.16057914789964073,2.4149985335660173,6.095772880248442,0.23966103809018505,0.8755158133587262,-3.526780696174607,-12.874954695137754,-2.412965571145329,-0.39114122561240167,0.8570371948721772,0.5644032421690909,11.602293833843373,11.830518915040034,-1.1702990662296155,1.1892737563838909,3.7878912708844528,1.1138994561694582,1.5135759224189964,1.9336605639392652,1.5334989587407983,-3.9860960503478795,-6.849308222088235,3.0416713334099694,-7.093592715418133,1.9275240454383324,-5.553614551185624,3.1585935117735136,-7.786247804953157,0.4386748433098941,9.18052451934206,0.6971048343793345,4.380972679633714,-3.291216221038688,1.2063387013020164,17.070670943761904,-0.9133408080817299,1.7239096794510627,-2.194799841785547,8.048193219047617,-1.5322161048875123,1.968457874106289,-1.7281991715628313,0.8451233232110354,1.227679234954734,8.023274813083987,-2.0647391420667125,-1.954155160764732,1.4899325376680868,-4.2438629837538215,-1.7055647439052635,10.205667721633217,-0.7598363195907709,-5.199437944845135,-17.85717031777625,-5.552072357046652,2.960107605674755,-4.460209385798505,1.7760412508412944,5.2719362269208325,-0.054177561803074856,1.832712556192593,-7.885266449748607,0.6177968650067172,-1.336510978141568,0.09191559737019538,1.3607638343850132,-3.4660036268160903,-0.37271329470438613,-1.5212386194296508,-1.5133075478890008],[-4.955734172717861,-4.994919236265434,-2.778659243217883,0.6952996449973483,-7.743721947126395,-5.913420365111081,-0.6578042939532849,-1.9360490046037495,3.0833259497315577,-0.04567184760613194,-5.082960356494418,8.630230968320017,2.439115017723033,-0.5679680390802847,5.241829813472021,-0.33958115204402256,2.7034099188824317,-0.4490807057850731,-0.1800750522087838,6.0408268500723965,-1.1560252968692486,13.680784706337047,3.138632827171865,-2.399326587104388,-4.946784434978715,2.9340586874438204,6.700338382044925,0.3466380437655485,-0.47160075213107483,0.9074263557829679,1.3815776413921013,1.1192539433464317,6.221461966081404,0.6162937536989972,2.611050946699152,-0.07573559537495046,-12.0235985499269,-3.4194742170783146,1.006605667563795,0.5096834850064281,2.2087117489909973,3.8902116174404955,13.404405678152822,-1.318083063070462,0.506480247831413,3.5152909405021493,1.1119920287197256,5.307641204555139,-1.7320086715459106,2.559468611897809,-3.5100774154547008,-3.3036530258993766,2.179644193843897,-5.900094522910815,2.3761580083749947,-8.974588127657324,2.8309891906533626,-0.6487385981746555,0.46657847959959003,9.49793029571088,-1.0567806738477232,0.5042049872889692,-5.686087431110087,1.4212491079822545,19.690473391139637,2.2070403874387425,2.949465080516499,-0.7562898579834013,6.194810250586967,-1.8047795952568153,1.8917214521757715,-1.8145245597174353,0.4477244518526996,-0.4431753602758209,9.228386667319745,-1.312351667237382,-2.0765818136885428,3.4588470785326355,-3.556872462198373,-0.6746652925173786,11.609042421166997,0.07614984283021295,-7.414490453843508,-18.127124409543757,-3.101154912065288,2.5766318455369532,-3.0223192367603144,1.0654577676238064,5.43817430311826,0.8421175535671971,-2.934549833733824,-9.765590366155259,-0.12556688133167343,-0.29313211604381406,-2.7637130948895043,2.7122451927154394,-6.590717092271622,-0.2242298803917754,-0.28000528383084433,-0.6220985119569731],[-4.585210971957148,-5.077260164678402,-3.013782290737356,-0.8847977305601794,-7.153503886278323,-5.7359179989008835,-0.2582243980298845,-2.949379783473627,1.7196566604784185,-1.7762777952238935,-4.7291710349303875,7.248246378462659,2.4218048185015086,-1.915985117560043,5.17838729143697,0.5384519023900355,3.504533011986174,-1.1284864856599082,0.6574996287768178,8.104867281234396,-0.7435667423181778,13.244611811198473,-0.022243650404077882,-3.1053790610840224,-3.8616551221026967,1.2857355145551428,4.737953499885013,0.03816337258727582,-0.8552969081845639,-0.06871359800108529,0.8419663616467905,0.2577804064277559,5.321022874034013,0.9253285775825967,4.227735209166644,-0.8735785634861847,-9.675302493360915,-2.153885119150226,0.4731557116615576,-0.7405628334256096,0.45046051914541707,2.9591655181620995,11.904738384953623,-0.7149401093291284,1.3708896529269965,3.7757458954481717,2.5404891432204932,4.394754136868746,-1.7864522560042735,2.2990564053618003,-3.6104726743223887,-2.9019679857416363,1.3997337711401223,-6.787652978837389,2.1683509005309682,-7.910913635061266,1.969834111647185,0.26209102389572553,0.011199373523137147,7.762335076216221,0.6980435075009629,-1.187202530766094,-7.641841439746264,1.2351029082846647,17.335505155931976,1.8587691290342148,2.0669195650637704,-1.1765092499565946,3.7053443858000357,0.1328508793456402,0.82721586875366,-1.705549767774172,0.35693151370914494,0.1967651171317698,8.929965385889355,-2.176908323059273,-1.4117730002354323,3.697446830788546,-1.4839797495884008,-1.021142737495099,11.762790347977823,1.3612391209060697,-8.44135307701995,-14.42176871606545,-3.258679694133268,2.943555288718768,-2.806302543766436,0.0988514586910216,5.378252122745001,0.2478167485237272,-2.940000477282536,-8.621644070745514,1.0498291600531027,-0.05575421412543109,-3.522889605665928,2.0048404023435875,-8.132789944890456,-1.251412804218502,-0.7724895716669549,-0.644755202379012],[-8.716412179784308,-4.755563791424204,-3.0263336127752454,-0.6023209979019416,-4.715615144561306,-5.088299669586339,0.6283125977806299,-1.8975947951588594,2.6874877771599808,-0.5739656849940269,-6.250214514624347,5.675143066748519,-0.31904095650667674,0.4978079604968881,8.2798858801304,-0.692412045131453,1.278194371388745,0.5567670730195164,5.037693052374552,11.893298924895857,-1.0407001847864408,14.631350029863526,-2.930211443269051,-1.822030441317985,-2.4310321423989856,2.533854380005483,5.207172056660712,-1.420074414925914,0.06745526106589317,1.1162829942273096,0.025796291905603962,-2.6057652419639323,7.444491359918358,1.5923837326250714,6.04065338682146,0.7729218233359689,-11.445279230826841,3.9498611591311446,0.2346036665385631,-0.8154426751012354,0.928066889825952,0.36144656819525367,12.026051077721075,-0.6865735229345388,-0.027554521478484046,4.40180634721182,2.3830540722978224,4.865679145151408,-2.8119113844915553,3.852695408674983,-1.802026486803158,2.2891977112154613,4.967034986003265,-4.637334130194261,0.25024647186463433,-9.792462947275022,2.4912179484252226,0.7620074233982163,-0.6805673299370391,7.070087581072435,0.9018947085348009,-0.9750414974315964,-13.001674023290066,0.3876891370998555,14.710138173715826,2.4800839647199115,-0.48559774635428726,0.0018768865897631887,6.423074918895958,-0.048427795257412566,1.1994583487069945,-2.6154861220318897,0.8566583915007134,-0.6712163565121827,5.508525731867489,-2.1100243178962965,-2.2527347097315045,3.169175881806448,1.737650618772225,-1.2038759352015358,9.507784280702483,4.149104220140592,-9.063797146324632,-12.91219362502872,-1.4259143083066532,1.4134557197926287,-2.5566554166674487,0.5833986132939138,8.951453143368171,0.008828450186588642,-6.863194294173287,-6.315141416333694,-0.5342932580357164,0.4737534322881846,-2.798596019631515,2.2372301155430216,-7.765943123896358,-0.40940079369612203,-0.9699785952762741,0.6719922033953362],[-6.067524806967897,-6.666770749334961,-4.713587816326909,-1.3494130826458481,-8.439640778204803,-6.666116333916551,-0.5850538531607592,-1.3218041654983668,4.030229431473784,-1.0934250701541375,-6.657709318684509,8.586761436648828,2.109784389465149,-0.35809011210345426,10.489136631970966,-1.0421337603509049,3.3312931482428576,-0.8387101683641258,-2.135440975993967,8.853052930487143,-3.2319580841874624,16.760345420205752,1.2267433034924573,-3.150462425169655,-5.3782491091514055,2.377053168284099,7.6518628028168,0.4242621352977496,-0.48760961137720127,-0.3933026714152908,0.9546442272016639,-1.1839858126599865,8.987136196391706,0.0970893290693081,2.1477867467114713,4.033943962538505,-15.298516584293113,3.159112257186589,0.3850652859094921,-0.006016098083885701,1.5088146340609572,-0.8211382044997675,14.616545183320294,1.1295494502642947,1.275499892335748,6.793037770192872,1.52375300680651,5.3974745571892955,-5.1673982285697955,3.585622805522495,-3.3035748645091876,-0.15265664539173035,4.91829725623819,-5.6332862187368,-1.4740365233438155,-11.101963589218546,2.1847651308425533,-2.6878235447566556,0.3755160961256742,11.154891149528318,0.4114068237867602,1.5487892027222596,-13.168785646061027,-0.8593970958626755,19.32810039061167,2.5548382456848664,2.067388882048841,-0.5609933423717278,10.58446426647674,-0.20211637219118467,2.8392506663423442,-1.2813568078490423,-0.17349402545018675,-1.3346337417751306,6.057636255818721,-1.2177935603590198,-4.9460320264389,3.2839301028375085,2.655958975701491,-1.8920646602357114,16.117188669106763,3.55741863582547,-11.214596155520857,-19.058717161848644,-3.8910646453264928,4.6138159243262935,-3.5643269869160044,1.0351666247606708,8.033772969803474,0.3026751716972321,-4.657169832284238,-11.293997624081527,-1.0659324069456486,0.6868080955256591,-3.3357661420449545,3.801388506505542,-9.699064620205766,-1.5921676052333937,-1.2596519544545421,0.061032718580360974],[-4.275744320171624,-5.168775488260215,-2.3028842567276606,-0.6949154187775403,-8.315451479427654,-6.985358512428633,-0.4288588678601703,-0.7056716751324239,2.975628790214405,-0.2760048318299183,-7.659658560226356,9.761303865839732,2.624343270616905,-1.6247250762682985,8.523574752163999,0.9555909719046741,4.528055420791932,-0.2306973376176894,-3.958840052164334,5.5295405950611904,-4.378177964317666,15.799534332021695,2.567712879230324,-4.877528417673789,-6.277211896899364,2.573888657646107,7.6565347172536145,-0.5703135263428548,0.941503290624546,0.4068458085674436,-0.08329825720825314,1.4585594149163243,7.469508534188377,0.22596059082973916,1.975967045029727,1.7266910936839077,-13.104126891542947,-0.16232663880852716,2.0444511689761287,0.7201347427817802,0.8205702193713946,4.199397620157071,13.713115387763896,-0.4377954950935872,0.5082287027647799,5.129387670369731,2.0501084895772155,5.289790028407158,-1.9467915746412832,2.5123178030962743,-5.152905834008527,-3.156474486925935,3.1581763023628784,-7.931175975342459,0.561664247792422,-9.420597934670216,2.723243042357939,-3.1792716906055336,0.9329008377257877,8.436560109004615,0.5397552284806325,0.384669710119756,-9.134923675603767,1.1881115757548995,20.755627399703727,2.7311140252217063,3.262912013868109,-0.6314640842525024,9.034830123381543,-1.1724012212167172,2.968970374792345,0.20357807832247743,0.22806131770823285,0.10178959785156531,9.98428409860261,-1.223876561213933,-4.984649912027843,3.351453522814347,-1.7530993848709584,-1.1188744205200027,15.56477959548914,1.984430223560681,-10.69194371841344,-21.543372989261623,-4.38994273371715,5.064061217962208,-4.1636099824511525,0.23627989609128675,6.556360972639395,-0.4442655065432488,-2.781411570722993,-10.734265322017848,-0.9632798860500006,-1.000059069003756,-3.960531818496176,3.706136124581717,-9.561874936506985,-0.13595639423495937,0.12666251164167153,0.4153120698759099],[-5.78326010835288,-4.185748182216375,-3.018246291435316,1.020861084494721,-7.899850723821613,-7.154660078165696,-0.3538469474875855,2.832885324857994,3.8086359176074254,-0.6287338618768802,-7.196338772772107,9.451552932941764,3.741457669123802,-5.674204831823967,8.781568847287907,0.0874315687039328,4.775628567595916,-0.649115107957405,-6.417248788578012,-0.35827160267786,-3.9624119339114943,14.114995653412953,6.474842163357594,-5.449258044912914,-5.337422846349316,2.1538059999965227,10.454465657400036,-2.3323555027707914,0.3361043158394006,-2.073332195866402,0.7397731083082648,2.4270574544102868,6.374116424685603,0.8052553808030808,0.9417731444233206,-3.875963542068822,-10.314931939277528,0.3433376944646441,3.530748629580207,-0.2453550224329543,0.5043347616249202,8.380674514749098,13.373307199997132,-0.5323035241279008,1.1898299824986303,8.016158736474752,3.7084306445639657,3.5324594558598,0.635381910314565,1.1447380510870118,-4.9045250891650145,-6.723242097269453,4.85821390147915,-8.104465854345902,2.0003851650739084,-8.186220658532347,3.5003475186131165,-8.492757199878344,-0.023376323687542826,8.404895133543135,0.6063134633912595,3.5245255555595247,-8.02218972689345,-0.7664272402568651,20.352307450171285,-1.2400434184479456,4.009275283967671,-0.5769828251338722,9.694838161154866,0.40328613368912813,1.457637772770612,-2.134059926850695,1.4899235197231584,0.1877299273260409,8.822627766623427,-1.8849497249697964,-3.8233267447869554,1.051831336772238,-1.7465824228895597,-3.5845652517602176,13.61217443205821,-1.3812325754632622,-9.222540301967161,-22.02243554816792,-3.715183598628022,7.599224116615427,-4.715264599118538,1.2174721305157055,5.362657956407816,0.1977027673249913,-0.7241075180002202,-10.883191209448777,-1.9925904696642391,-1.2694008703024011,-1.770423176559674,3.16945277128458,-5.782109735681061,-1.3920384620755055,-1.352528422317655,0.4452055953115326],[-8.576918906686089,-4.128188715680787,-0.4972026951281292,1.5262103059670407,-5.902406440022673,-6.615302775134697,0.28005269652794673,6.964667693767696,1.9028633093300908,-0.5071209340267527,-7.759565535463462,6.8747486283112735,4.4027343514318265,-8.771592402278886,9.237313158777546,1.214499537337981,4.720051808940368,-0.6903982348800138,-5.703881718282716,-5.4549591634751575,-5.168816049388458,11.016856466246036,9.266735842175903,-4.39890703954804,-3.3124544458852507,0.1574663393024595,11.513086048830925,-7.864337106682602,-0.8974198099130022,-3.178261379599818,1.1001891699157949,2.7774869446312485,6.1864215818448365,-0.5457254180475561,0.10507617771817998,-6.578515671099916,-8.489757726926692,2.363473854305196,1.8182421888770992,-0.9551729821242341,-0.4755104067043526,13.747002638806872,10.806223659375235,-0.2485101385495486,0.9275507391626734,10.112261125896485,3.488138635680121,-0.06809001363045657,1.8929579243787107,-0.46827113118190244,-5.65229930647581,-7.71722496221884,6.5960350212054015,-6.43358882972578,-0.7348902056141288,-6.344593093507354,2.1439497122282627,-13.881662863138523,-2.3624745559438955,8.70614597609774,0.4601298486715967,8.515949082749707,-7.065295288672729,-0.7456276959448456,13.232728462706117,-4.25925196883188,3.0623181880021395,-0.6221890943761408,11.794593032263105,1.5466842394502134,0.13788768259681147,-1.7367097599750771,-0.0961533269712783,-0.8308691489709685,8.116333641649808,-0.18580426990200347,-4.763873429892277,-3.729839694717555,0.3460846105963477,-4.912375471350729,7.931476658616605,-0.7330557639719443,-7.937793488930683,-18.139920721678955,-3.4455135978871816,6.427106860095096,-8.265202315259568,2.239520591366061,3.5689803473656703,-0.826128328189406,2.4132493210525787,-7.204106738186283,-2.3494984300040196,-1.5130531119092363,-0.7507659584123598,3.2369343147421232,-2.841058380157082,-1.4093236715485482,0.7620112706726333,-1.2948053110424997],[-7.69814606019256,-1.5785853516723807,0.9026336232075418,2.8229498028271656,-3.6634621643199217,-3.912028335830684,0.26814033009518323,8.554044841123002,0.3003273491488149,-0.012317073940627428,-5.707869600704852,5.669236944553337,4.788801938012386,-9.797800480059111,6.64367449441784,1.5710123326457048,6.416379447696345,0.9694908705522117,-6.942433333157356,-12.42475446085963,-7.24727608307545,6.729960036020214,10.813143292589357,-4.594585848214214,-2.2508682601464134,0.47563155743115965,12.284058261707015,-7.6850674045877625,-1.3831080434563896,-3.1556791541704023,1.341266141324167,5.44024360048336,4.090902309242517,-2.145756918333681,-2.8795835311032567,-9.432449299406453,-4.901126748790793,3.085501222196955,3.3864794649492014,-0.6274307625565624,-0.08153544128020063,16.863762374461313,6.517751161863955,1.583350609796511,0.11009089378357279,11.203721886829449,2.9027478057788523,-2.936992004085464,2.7733646914849075,-2.1225183454872933,-4.373944189727121,-11.383047342931373,6.752833244359969,-5.132603178434421,-0.8765486688531845,-3.655755994377248,2.4395969645219813,-16.732442409067264,-2.436085093399526,6.226000501907262,0.16952116832613429,9.747017143311847,-2.748154987751716,-1.1383048877040858,6.507725308374154,-6.140472956140529,2.6302197596077894,-0.8663575276117914,12.371148321862782,1.5023678828702407,0.9200516255646808,-1.806019741974389,1.5988146005042763,-1.2965593020719004,4.404876172429384,-0.027339795788748823,-5.5214179549114,-5.418613100872482,0.05377310233683562,-4.069267118010099,3.8725083835409952,-3.852912170376597,-5.654579081300989,-14.731394614839337,-4.0287402075663215,8.266923305452158,-8.961886129390725,1.453273352811516,0.1567564799927973,-0.37656743890111133,5.4907334273687,-6.715074126537902,-2.6863939245580286,-2.963692723050689,2.010616939383095,2.5190952904604105,2.646085149486347,-0.5597325700370528,-0.4561549308875435,-0.7932438661127301],[-8.312986341664608,-0.38864396397651935,0.7628127112802376,2.3340401986808197,-4.01770649589241,-4.16689634723957,0.3048861517317437,9.368861332634228,-0.3374135254933492,0.25978479846727365,-4.379419174427506,3.0101902199844073,5.1052351079680705,-9.731538122307278,4.868384436445979,0.7409371865682811,4.727111944278883,-0.14036155474609227,-6.502608099821742,-13.969510664916715,-5.788737895442167,5.155199992245266,11.250408444363005,-3.8838219817035213,-0.818666692081318,-1.3851726452560034,12.06642837074075,-8.311134859099692,-0.18397461569932938,-4.08666885976103,1.8536305376391617,4.314944793830004,2.3356871546732383,-1.865493388709132,-2.7222889444748573,-11.586443706484006,-1.5548907130978709,2.1984844837773148,1.1381512689182556,-0.9628483585453161,-0.5087042508844261,16.99334329388768,5.004848172203825,0.019779955087391467,0.2691013795013551,10.463936205510935,1.9473662486877077,-4.178716501477285,3.91990900223038,-1.6767089178534056,-4.6960640139787415,-10.189954760281248,6.149322791761928,-3.7130721790547927,0.09465144065185548,-2.085901789170919,2.2902087938791116,-17.016741703493537,-2.9060221959221204,5.262094540025178,0.6585276379693242,9.786115906088991,-2.182515795892199,-2.552924877499592,1.8104502668620561,-5.451089314409866,0.621020643630189,-0.8816045484188885,10.270262200218212,1.42590494827304,-0.8843633258947148,-2.474206795002283,1.362615879253177,0.24591155475043164,1.8161259159997152,-0.9282054392490795,-4.557782702243937,-6.074766064716127,1.9574528062414485,-2.878798919902995,1.8467550336342582,-3.558642057031901,-5.0695184580808,-11.584060546017875,-2.318238364215025,6.378285523084088,-8.394035912500229,2.196584994175006,-1.1868689554844953,-0.10044117318291915,4.714463000489101,-3.8401372902271818,-3.531803561200465,-2.115381116369562,2.913341861767128,0.5995719036418667,4.859082696485649,-0.04532447998684085,1.3191072908926464,-1.7815751799031188],[-9.437177796085853,-0.7875683175740754,-0.11078157476283589,1.7538656797157557,-2.9498414785758724,-2.117411025827706,0.33301939063841995,10.019705811715369,1.0166186000573765,1.070197512182997,-4.3122491481080925,2.237870671197174,4.292018012729329,-9.583030658821235,4.370025895622681,1.0620179025866614,3.273674356816452,0.6929560195019269,-2.683907139902414,-12.726699306749786,-5.298576153194417,3.0873346275005655,10.486145120407167,-2.741017665324853,-0.422908361766019,-1.8374991463427557,9.461590804688921,-8.537706147496882,-1.312042968981544,-2.848711817918471,0.4533270121669617,5.071666861683896,2.0876364561264107,-2.0327609712439014,-1.253240723737519,-9.90711968507384,-2.09734851277118,4.733933525314528,0.656844763827962,-0.2271500813244136,-0.6031795075763061,17.36359289575032,3.1630624720506555,-0.022686469371175723,-1.129082230162277,7.490420991813559,2.7769245532111366,-4.390126833456578,2.9241091576927394,-0.97638916297759,-4.100196036819674,-9.518465563285265,6.668792184671508,-1.7629696475202938,-1.2460398589499855,-0.0787216355419511,2.238740437088952,-15.686465604519592,-3.2280588766008123,4.25473262411113,-0.5223068612392235,10.082035978543699,-1.3405486499757449,-1.0393000644004324,0.09137015905329027,-6.4894629901263245,0.6233049109827904,-0.4860220978065309,10.887419238640197,1.56129686509247,-0.5713412508216598,-1.589099497092787,0.07198386455040613,0.4501759378464157,0.8679770084988808,-0.8720907158161985,-3.6006552445465925,-5.4272116953652665,2.3805222893089395,-3.3808046744732527,-0.08854211151377166,-3.4212389382580835,-2.490457841760134,-8.874110602064773,-3.3316452145285775,4.785469286434834,-7.895193394626383,2.1841703292913492,0.14544544000813958,-0.3885026460562062,4.07682394859404,-4.5142850780894745,-2.3045856341955337,-2.1950957368133426,1.5988876270158647,0.4590708312524288,5.373133915055607,-1.2149864294301658,0.5147957684323117,-1.637801043669979],[-6.733086863465418,-1.5470625597644032,1.3614766729220467,1.9466534454564999,-0.8957893095589629,-2.5462672916113607,0.355399013260782,8.450405309391025,-0.16365160855066394,2.1705357238664824,-2.1701598607567627,1.2550539456162852,3.7654127117789815,-7.1003881442135794,0.25211471718515915,1.3222983318180286,2.904162075142577,-0.03577199200301996,-0.16412251022399502,-12.167932461338985,-4.993455628867655,2.3392750785196545,10.110772266840131,-2.2987020538667458,0.40684903323147253,-1.9898929647533237,7.43210737525934,-7.718572191847725,0.2041682416615899,-3.325169954514921,1.868960181365788,5.310973011679235,1.4548833307335778,-1.1380790183216494,-1.7852742593365056,-8.060151249802933,-2.6666119296525475,2.9479503753440817,-1.189509057781884,-0.49717731346127353,0.963426350678743,16.306047600498232,1.7684496881358687,0.3930625661553217,0.6039112437570999,4.2778373312374045,0.37492668241459537,-5.556216601478823,3.1714898689286293,-1.2865790438964155,-3.358919797201883,-8.530440210788004,5.800653639817145,-2.220528953283762,-0.8395255756426409,-0.13496679991858207,0.2627205426792663,-12.902711343740659,-3.8411439855993286,4.102504226471045,1.041237453529599,9.301115323827242,-0.30068595607439064,0.3905682212530337,-1.1839603243207006,-5.281528062722383,1.267009174729954,-1.5729887758793815,10.586537726515715,1.0318758116923696,-0.9268970998185156,-2.7335810883111966,0.8052200364249664,0.05568092476847355,-1.1477200007157455,-0.5741420683486232,-1.8336231630480275,-5.4220533445637065,1.120293080582026,-1.3041846867703832,-1.3149058779995864,-2.8285894001341383,-1.7501553314459708,-6.411760521311488,-2.209025948452016,3.231537533910776,-6.119924736576146,1.7845178660563172,-0.3171572544097236,0.7478539005748144,3.8753852152293256,-2.3808588601905125,-1.364416358219103,-1.497071720300245,2.9707992265170744,-0.6176066591597369,5.581439189294435,0.6784642065752141,0.5714021908473487,-0.4577187377696702],[-6.752130547756875,-3.045765974952777,0.008416233007469902,2.028605644693017,-0.8116192323281529,-1.9298997577453578,-0.06755578007689207,5.139133349527249,-0.3315352621024182,0.48895881032323113,0.049648586879095145,0.8047114680029444,2.411499413554354,-3.3015743430803512,-2.5896181135078047,0.09487887228149795,0.7371048669718269,1.3058799960091032,5.461806656630985,-11.642107953840327,-2.8250741126266092,0.831349178140833,9.75669616832046,-1.4229386249878018,0.6203727845755076,-1.166497734548235,5.205536339493251,-5.20047215933232,-0.8443541383776789,-2.688705364740496,0.23034922753466605,3.344981713791972,2.8431850078999337,-1.015316224043578,-0.4482890261535828,-4.74713056830013,-6.236281884070419,0.779839896178461,-3.660114619687887,-0.9629132461897218,0.027501585250560897,17.232713682780066,0.9869081791002738,-0.970958006868413,-0.9189963706313614,0.9865041150391326,-0.09885103415961524,-4.858426426068115,3.0408283643293696,-1.4569801559788331,-2.3628983808359654,-4.923478761223187,4.721328062859638,-1.4218080528629011,0.07220101143513287,2.0300794542540084,0.7771775776907411,-11.15801234717793,-2.531184233614371,4.947285800666602,-0.5440274509672179,9.614343291990641,2.0534735438680065,0.8218256086768159,-1.3085457717769082,-3.8853314189932946,-0.4703788864495598,-0.5428004356958874,9.88756531586067,-0.17506579255920016,-0.9447230871342134,-2.459625938856873,0.7153995440469666,2.234550551180244,-2.0987369477752176,1.0895279243227494,2.185438691407275,-3.5571924108509596,-0.07130570691762093,-0.6588587783016934,-3.270086805667984,-1.8136846897824948,2.254452409202855,-6.15648518472718,-3.867271966845091,-1.3853284320265657,-4.457454530537079,1.4322285087953015,-0.7608501852007057,0.8517411618064892,3.3214332062812133,-1.6977922352927508,-1.3721732820331312,-1.429371101970907,3.110091446696594,-0.4530819315885857,5.345355432974695,-0.4105504215089874,-0.43271868512784356,-1.1310730436809022],[-6.501517714512245,-3.513428519916629,-0.13670067830183502,2.1199093192779204,-0.5097952296622719,-0.259163720262194,0.4654660461913251,3.173881325634177,-0.9610136688060608,1.5532708358441643,2.2011400574888285,0.1757452256020842,0.7096294584532776,-0.7024508788215862,-5.191231628924774,-0.10931771292796183,0.22193475411471636,1.8712025020162473,8.508819775102726,-10.515489076877419,-2.413626572580639,-1.5808296623870064,8.046487877163873,-1.2156904263266721,1.9216773229853605,-1.3821177067457604,2.774565330166868,-3.6129240633843445,-0.6812837094904599,-1.3776177617977032,-0.3043475745187194,4.213966350733247,3.067012160361116,0.7593704973528932,-1.429708008537191,-2.390421544899832,-8.587131832726012,-0.7925132808041949,-4.4279631997795015,0.32537917608418726,2.023480665770096,17.739764366194994,-0.48570157897585275,-1.487844122419256,-0.6848037757982047,-2.3879064718833045,-0.8042349960734867,-4.520425324780982,2.2365395392214165,-0.6609519295626268,-1.3859321004169687,-2.3293386137275247,3.5093862674383045,-0.5838931051986911,0.3701734613379442,3.3472551355349327,-0.36932049697670555,-7.484209119427604,-0.5139956980980587,5.966359750285046,0.008150580412278658,8.905086051756136,3.9635007222118612,1.9576627736611483,-2.258771711595938,-3.5937641991771985,-0.9411038782950008,-0.6783028065305589,10.30175233610846,-0.8712518269734891,0.359661446824322,-2.806547098039661,-0.6502198945543483,2.994631040562217,-1.8971683979439917,-0.3161515880856155,3.6871226972361506,-1.3875221679481042,-0.4047566140368596,-0.1921749010757162,-2.786914428948146,0.17178462711827638,4.626657787349632,-4.385119498135458,-3.5602635283505166,-4.449740407858699,-4.16979749685266,0.9879117921508748,-1.424926940250297,0.8414360491730865,2.562440266839819,-2.3696551940957313,-0.8731624350368942,-0.2756453803768287,2.592561275982815,-1.1896264636085896,6.162053180346577,-0.06206456074646905,-2.1012159338802747,-1.2199254382907732],[-6.61117016224306,-3.5758523071163753,0.8680671105240879,2.315513778412991,0.1336174700736371,0.3901044195913345,-0.45896771645916284,1.6650675010424099,-1.4850459018445288,0.6980139747112268,3.3286331562128946,-0.5353426315997064,1.0797324528142436,1.912070672141253,-5.52956178999278,0.46127665360647446,-0.7279692102199866,1.215372044187306,11.353867806746708,-8.67253589536608,-1.2502992636480064,-0.731925782862484,7.99034481439447,-0.729880070415171,1.4287644566901434,-2.2512865904487933,-0.219903138729735,-2.903988532907805,0.018281214621260013,-1.331907010319691,0.9629296062493903,4.103153235250509,4.842262576850904,-0.03183700673350979,-0.39533152861017246,-1.4299123975578263,-9.414115314938066,0.2926369600321537,-5.992937260332221,